19717 16
0 -0.3602385 0.48772812 0.3618775 0.37393185 0.38395813 -0.35387272 0.31667203 0.3339291 -0.36641505 -0.28195938 -0.4335681 -0.40084732 -0.3865665 0.4648743 -0.28510153 -0.3838664
1 -0.36888945 0.44623464 0.32981637 0.3991292 0.39283085 -0.3229031 0.33149892 0.3482426 -0.34896946 -0.25424576 -0.44655365 -0.3725678 -0.39338395 0.45859918 -0.270453 -0.383399
2 -0.3385193 0.4547129 0.32123893 0.35350445 0.3778279 -0.33077255 0.32647836 0.37116843 -0.35309297 -0.2581184 -0.47191012 -0.33054423 -0.37202638 0.4146125 -0.2492372 -0.40186545
3 -0.31416517 0.4291596 0.30819958 0.28670213 0.32823724 -0.31874457 0.25707915 0.3492665 -0.29863518 -0.22415164 -0.41463885 -0.2899856 -0.3386339 0.37391263 -0.24544351 -0.3628229
4 -0.3349485 0.4508712 0.31533125 0.37499177 0.38000202 -0.32612443 0.32555062 0.3551141 -0.34773818 -0.26467586 -0.44553652 -0.34373924 -0.39418414 0.42165533 -0.24839298 -0.3691163
5 -0.31738073 0.43661726 0.31597918 0.3774449 0.3668169 -0.32328287 0.29729867 0.36903533 -0.34259802 -0.24793899 -0.43503204 -0.3291699 -0.36788073 0.40368605 -0.23901607 -0.37864485
6 -0.33689415 0.45086733 0.31996113 0.36620662 0.37311262 -0.31950092 0.31661624 0.33862036 -0.34243795 -0.2591326 -0.43879724 -0.34957042 -0.38555443 0.4189219 -0.25690138 -0.36674502
7 -0.33005947 0.4488029 0.31648132 0.36546272 0.37106755 -0.32323128 0.30969802 0.34097582 -0.34212634 -0.254766 -0.43482977 -0.34526193 -0.37910908 0.4143991 -0.2558326 -0.3673119
8 -0.39603806 0.47779876 0.30709767 0.30405796 0.37059066 -0.34816128 0.29028508 0.37673014 -0.34354532 -0.16994424 -0.45845342 -0.33426973 -0.40651625 0.4289873 -0.2478559 -0.4242977
9 -0.33510727 0.45282757 0.3132835 0.36637387 0.38045087 -0.3258264 0.3115148 0.3464543 -0.34791443 -0.26131815 -0.44040155 -0.3474648 -0.38862702 0.40919906 -0.2530151 -0.37274078
10 -0.34017792 0.44939238 0.3287789 0.36869916 0.38712457 -0.33495793 0.3019274 0.34974617 -0.35507715 -0.26514602 -0.44316387 -0.35565862 -0.3824587 0.42330444 -0.25616312 -0.38121098
11 -0.3122506 0.4185629 0.31206894 0.33698532 0.35785553 -0.32257998 0.30233636 0.3053567 -0.33943316 -0.22894 -0.43288833 -0.33615226 -0.34893665 0.40301025 -0.2569703 -0.3385258
12 -0.33593294 0.4500016 0.31961173 0.36223623 0.36991486 -0.31942666 0.31375286 0.33870542 -0.34170052 -0.2567228 -0.43529576 -0.34738863 -0.37947625 0.41616005 -0.25801438 -0.36600047
13 -0.34240735 0.45096344 0.32822448 0.35798877 0.3577079 -0.30124587 0.32697475 0.3444578 -0.33787867 -0.24050418 -0.44501346 -0.353127 -0.3827761 0.4402967 -0.25031176 -0.35773322
14 -0.4820516 0.5922321 0.37976372 0.36358884 0.48478287 -0.39453766 0.32479548 0.36148956 -0.3500964 -0.4416424 -0.54335743 -0.43594643 -0.46302396 0.49321938 -0.36377102 -0.54664016
15 -0.3323963 0.45511582 0.31023702 0.37022498 0.37268 -0.32936183 0.3178815 0.33802408 -0.34812477 -0.25408164 -0.4299139 -0.35251158 -0.38028392 0.4146737 -0.26265132 -0.35898653
16 -0.33679724 0.45121008 0.31771505 0.3624143 0.37163025 -0.32253844 0.3127488 0.34236768 -0.34469643 -0.25356263 -0.43901932 -0.35140282 -0.38022852 0.41769588 -0.25923797 -0.36754733
17 -0.34046513 0.4508672 0.31933445 0.3586317 0.37034634 -0.32442823 0.31704366 0.33412045 -0.34745622 -0.26154697 -0.44036406 -0.35325533 -0.3857502 0.42355472 -0.2563584 -0.37546495
18 -0.33507657 0.47048232 0.31665546 0.374228 0.39631635 -0.34503156 0.32496056 0.3615031 -0.35167 -0.2764691 -0.44051337 -0.34912032 -0.38051468 0.4174135 -0.26716137 -0.38946128
19 -0.34135282 0.4502727 0.32035747 0.36353335 0.36699745 -0.3146323 0.31181568 0.34034926 -0.3359679 -0.25328293 -0.44081894 -0.35201228 -0.38327825 0.4244263 -0.25991642 -0.36788997
20 -0.30341434 0.41789475 0.30391395 0.3503889 0.3569381 -0.31683752 0.32555932 0.33000526 -0.3473476 -0.23088981 -0.4511205 -0.3220308 -0.3560065 0.4342212 -0.24074617 -0.3756753
21 -0.35617363 0.46407813 0.33785787 0.3283906 0.37423 -0.31631586 0.31129155 0.3309381 -0.33621532 -0.2661252 -0.4584626 -0.35005528 -0.39336222 0.42374957 -0.24938177 -0.37838876
22 -0.31433195 0.45009968 0.32185307 0.38380313 0.3815345 -0.3404002 0.3447207 0.3838622 -0.34277505 -0.28371015 -0.48248628 -0.302796 -0.38000718 0.4007328 -0.25509596 -0.41252926
23 -0.30655715 0.38249162 0.30092397 0.36028305 0.36116192 -0.30899686 0.30836102 0.27648687 -0.30700698 -0.28229272 -0.35490876 -0.30337375 -0.34996378 0.3863891 -0.27043125 -0.34357858
24 -0.36728635 0.4198306 0.3341816 0.39589643 0.42557183 -0.35980785 0.36218506 0.36024475 -0.36742842 -0.28015754 -0.4832582 -0.32950923 -0.41716585 0.42106676 -0.29629496 -0.42059124
25 -0.30487418 0.39305717 0.31530064 0.37042236 0.3255916 -0.3497639 0.35662836 0.3967266 -0.3652774 -0.27172855 -0.47830665 -0.31730184 -0.32628596 0.4014519 -0.2775245 -0.40473807
26 -0.32506862 0.4400331 0.3566522 0.3586347 0.35457906 -0.3143362 0.3025334 0.36279795 -0.3072219 -0.30278984 -0.45324424 -0.31681445 -0.3682212 0.38612834 -0.2638469 -0.37467393
27 -0.33344677 0.44988838 0.3047278 0.3874058 0.3850413 -0.3181251 0.31523418 0.34874862 -0.34010965 -0.24903847 -0.43755403 -0.3439575 -0.3833328 0.41505048 -0.25931346 -0.36858723
28 -0.32904252 0.4098445 0.31336766 0.32559514 0.34561205 -0.30938408 0.3180261 0.31431818 -0.34031487 -0.24930476 -0.42239586 -0.31738475 -0.38446572 0.4115486 -0.23393606 -0.3878148
29 -0.30457357 0.36200994 0.31512016 0.36158586 0.32114223 -0.2822812 0.23512438 0.28370243 -0.25758106 -0.28273278 -0.33316988 -0.29143578 -0.32172522 0.32959342 -0.22139895 -0.34448722
30 -0.34944502 0.53250206 0.3524723 0.34574008 0.39960274 -0.36269066 0.30871415 0.33484372 -0.39104334 -0.2985994 -0.46637055 -0.4080236 -0.40841174 0.42780963 -0.28200588 -0.37478852
31 -0.31275395 0.414175 0.3154261 0.33629268 0.33829576 -0.30910945 0.31690508 0.3383394 -0.348814 -0.24224946 -0.44926456 -0.3284634 -0.35282096 0.407605 -0.24196501 -0.3709283
32 -0.38400018 0.53546065 0.43623486 0.34350613 0.46338627 -0.4334264 0.46623898 0.36973667 -0.41190735 -0.33483264 -0.4545999 -0.34715027 -0.45565513 0.4848768 -0.31185395 -0.40340903
33 -0.32184994 0.44560057 0.33979747 0.39116532 0.3948914 -0.34389985 0.3322875 0.3719345 -0.34521106 -0.25405434 -0.47900373 -0.2864584 -0.40831858 0.39922082 -0.26122916 -0.36434448
34 -0.34735945 0.45499325 0.32674193 0.38213322 0.36950022 -0.33407184 0.30148014 0.36054552 -0.34848985 -0.26642963 -0.41077065 -0.35646316 -0.3924113 0.4279869 -0.24896313 -0.37426627
35 -0.33730695 0.44983327 0.31820774 0.360894 0.37043467 -0.3189419 0.3147879 0.33795485 -0.3451696 -0.25493115 -0.43952805 -0.34979543 -0.38127032 0.41798958 -0.25559598 -0.3700578
36 -0.33514768 0.53555536 0.40409982 0.3887003 0.4435891 -0.50338984 0.46182954 0.40270454 -0.3863328 -0.2827152 -0.55884296 -0.42543033 -0.3966034 0.544467 -0.4010722 -0.54720324
37 -0.30719304 0.30747595 0.30727726 0.39036605 0.3033216 -0.28702182 0.28509384 0.2947699 -0.28038868 -0.350524 -0.28373075 -0.28722182 -0.31881806 0.3019986 -0.25908625 -0.35601154
38 -0.33361548 0.42914683 0.31737253 0.34204206 0.35313138 -0.31147355 0.32007977 0.32125083 -0.3516339 -0.24786271 -0.45074832 -0.35747957 -0.37189493 0.41301337 -0.2544838 -0.35978416
39 -0.48938543 0.5894632 0.4010167 0.47064915 0.5810472 -0.38079536 0.33919045 0.4164321 -0.3638491 -0.3505726 -0.5994966 -0.49834502 -0.40085346 0.5127796 -0.49020475 -0.59028137
40 -0.33673054 0.4512641 0.32266545 0.36797792 0.37737218 -0.32115623 0.31691566 0.34523016 -0.3445419 -0.25836393 -0.44426247 -0.34980038 -0.38360733 0.42056528 -0.25856993 -0.37209994
41 -0.32901573 0.43653828 0.31362912 0.3556749 0.36235648 -0.3161464 0.3056989 0.3386769 -0.33823514 -0.24421823 -0.43234146 -0.34328884 -0.37368122 0.4122101 -0.25396055 -0.36617213
42 -0.3438672 0.48010698 0.32053486 0.34746242 0.3862118 -0.35203636 0.35617176 0.32091907 -0.36805755 -0.23261453 -0.43309388 -0.37577325 -0.35768402 0.45015544 -0.29748145 -0.35156932
43 -0.33093613 0.45412293 0.31812242 0.33234653 0.36151707 -0.30793583 0.31624547 0.32652557 -0.3349222 -0.23722807 -0.447815 -0.34042814 -0.37603003 0.40514475 -0.24992014 -0.36877117
44 -0.33330932 0.4299096 0.3198586 0.38723543 0.36049905 -0.3210497 0.33408776 0.33359152 -0.3427094 -0.27873948 -0.4122831 -0.35285497 -0.38052216 0.42381078 -0.26714346 -0.34926775
45 -0.324287 0.45302948 0.30695704 0.36660802 0.36577895 -0.33841217 0.30440545 0.3514027 -0.346395 -0.26082605 -0.42454645 -0.3378461 -0.3838672 0.38101718 -0.252347 -0.36411867
46 -0.32989007 0.4439525 0.31772235 0.36502495 0.36895406 -0.32096052 0.31670746 0.33543885 -0.34351853 -0.26026812 -0.431872 -0.34729838 -0.37609404 0.41605145 -0.26191828 -0.36237186
47 -0.33624992 0.45182538 0.31854898 0.36732814 0.3720372 -0.32254663 0.31390515 0.34291676 -0.3443958 -0.2563583 -0.4359734 -0.35055217 -0.38104153 0.41775697 -0.25981158 -0.36876154
48 -0.338609 0.45206055 0.3201492 0.36462972 0.3724933 -0.3224176 0.31306702 0.3417294 -0.34517324 -0.25741875 -0.437622 -0.35341638 -0.38276798 0.41844928 -0.2623415 -0.3682671
49 -0.32720557 0.4113404 0.30028573 0.35153702 0.36683333 -0.34523904 0.33781755 0.28530008 -0.31808174 -0.2811369 -0.39047387 -0.3046044 -0.36663985 0.40864924 -0.30859345 -0.4066344
50 -0.354974 0.5072293 0.33082703 0.41659766 0.39475578 -0.37478358 0.39515698 0.38122207 -0.32077956 -0.28409967 -0.44783154 -0.37545747 -0.409495 0.47534305 -0.32069725 -0.3688776
51 -0.33478513 0.45823038 0.3339529 0.35676795 0.37287867 -0.33400655 0.34239805 0.3043009 -0.37824303 -0.2886911 -0.42018777 -0.3804052 -0.36242637 0.4142793 -0.2908656 -0.35447273
52 -0.4067117 0.48574618 0.33637264 0.39563328 0.39644325 -0.35081154 0.29594 0.41592854 -0.39087752 -0.24630836 -0.4785838 -0.37085915 -0.3913566 0.4685879 -0.29678312 -0.48348138
53 -0.40981492 0.5635107 0.37002814 0.3750232 0.4323088 -0.36635357 0.3336715 0.33950713 -0.39558986 -0.32714114 -0.49160913 -0.42796355 -0.46275997 0.46138483 -0.30948028 -0.42215523
54 -0.3169848 0.41181877 0.3064303 0.346625 0.34907258 -0.31542286 0.3030448 0.31252465 -0.33088028 -0.2559837 -0.4074131 -0.32866263 -0.3599544 0.3974834 -0.24999453 -0.35326526
55 -0.36595514 0.4832918 0.35854772 0.38287422 0.40753275 -0.39118904 0.34018987 0.37645155 -0.4092694 -0.32088232 -0.5049518 -0.3763424 -0.40178788 0.43098274 -0.28532472 -0.4305462
56 -0.35282364 0.43507305 0.31280074 0.32648787 0.358524 -0.31168273 0.29391274 0.34559834 -0.3485121 -0.25524634 -0.44825017 -0.32255378 -0.36910334 0.40109345 -0.2136553 -0.42155808
57 -0.3379463 0.4586772 0.32138097 0.36961824 0.3838476 -0.31228557 0.31547743 0.3272527 -0.33913696 -0.26269135 -0.43323016 -0.35317245 -0.39410365 0.41446388 -0.25134385 -0.36086732
58 -0.3432655 0.45819604 0.32380193 0.37443414 0.37887707 -0.3219792 0.3250569 0.340889 -0.34624386 -0.26414782 -0.44181165 -0.35333878 -0.3880617 0.42011255 -0.27049896 -0.36830768
59 -0.3163263 0.42622265 0.33492234 0.3668622 0.36587963 -0.3225719 0.29434353 0.33812383 -0.3303334 -0.25091463 -0.4401941 -0.33477128 -0.36968932 0.42581964 -0.2596488 -0.36341107
60 -0.3375647 0.45182037 0.31614614 0.36983424 0.3744691 -0.32046968 0.31276202 0.34186792 -0.34553653 -0.25466216 -0.43517473 -0.35261297 -0.38146165 0.4198167 -0.25647932 -0.3675857
61 -0.3151325 0.45582747 0.3337714 0.341388 0.37468728 -0.33179492 0.31573495 0.35059723 -0.3666125 -0.25176558 -0.49618247 -0.34969443 -0.3555705 0.42452893 -0.24573798 -0.38568783
62 -0.3366502 0.4523122 0.32118705 0.36290616 0.37208474 -0.32179368 0.31415388 0.34122536 -0.34180325 -0.25604993 -0.43991604 -0.35039592 -0.38200364 0.41658384 -0.26138672 -0.36491725
63 -0.37332523 0.48595703 0.35222042 0.38873342 0.368069 -0.35918894 0.30898038 0.33072782 -0.41918102 -0.3002893 -0.4470857 -0.40751103 -0.41657156 0.46729589 -0.24699247 -0.37106788
64 -0.28314376 0.39905187 0.2558035 0.35731044 0.33416745 -0.3366599 0.25707114 0.3389858 -0.33433682 -0.24590959 -0.35432377 -0.27987513 -0.35139015 0.3528816 -0.18716863 -0.3893824
65 -0.35889953 0.5448753 0.34860405 0.3655954 0.41493112 -0.3783194 0.30190605 0.36104468 -0.39322418 -0.2728446 -0.44803503 -0.43631047 -0.39187446 0.44916293 -0.30010262 -0.38114586
66 -0.34965855 0.44435734 0.35280076 0.36957824 0.40168557 -0.30919108 0.3274249 0.2808644 -0.2954965 -0.30807784 -0.4413709 -0.34422615 -0.41190302 0.43279415 -0.28271964 -0.43456823
67 -0.31293607 0.4113583 0.3155097 0.34757322 0.3460595 -0.32035482 0.3240546 0.33442822 -0.35098803 -0.25605413 -0.42581347 -0.32181862 -0.365059 0.41148505 -0.25349367 -0.37125024
68 -0.30227637 0.42583558 0.31389663 0.32767192 0.35796252 -0.32524624 0.34518877 0.35055494 -0.3501109 -0.2804523 -0.45214498 -0.29324546 -0.35280633 0.3867627 -0.23850803 -0.39277935
69 -0.33722797 0.47053462 0.32111305 0.36622348 0.379002 -0.3351039 0.31411657 0.34006685 -0.35063976 -0.2557886 -0.4362143 -0.36492974 -0.38556293 0.4241623 -0.270002 -0.36180055
70 -0.30780464 0.41685516 0.32332566 0.31783864 0.35590026 -0.3070536 0.2940419 0.30053014 -0.29947528 -0.23699304 -0.4139317 -0.3167333 -0.33416858 0.40186316 -0.2841534 -0.3100249
71 -0.31159237 0.41882744 0.301014 0.3400479 0.35509884 -0.31000686 0.2871415 0.31793323 -0.32046127 -0.24367878 -0.40006113 -0.3134394 -0.3502254 0.39429972 -0.24231416 -0.35640228
72 -0.33305988 0.44463906 0.31900263 0.3429959 0.3617679 -0.3163692 0.31167108 0.33826974 -0.34178606 -0.24338186 -0.44437066 -0.34187195 -0.3747316 0.4183406 -0.25096765 -0.36758104
73 -0.34138083 0.46391568 0.34619674 0.36222002 0.3742618 -0.3154517 0.3287742 0.31006294 -0.3224591 -0.26732993 -0.4330905 -0.35448804 -0.40609214 0.4392355 -0.27087075 -0.3515279
74 -0.3541381 0.4750297 0.32634532 0.34729192 0.37594587 -0.32383287 0.29683396 0.36093688 -0.34011713 -0.21088551 -0.42843416 -0.31590077 -0.40693483 0.4739645 -0.2016329 -0.39019358
75 -0.32229656 0.41159087 0.31386167 0.37022942 0.3680713 -0.31290585 0.2997032 0.3195143 -0.3134289 -0.27649117 -0.38206467 -0.31433108 -0.3659524 0.38696843 -0.25345454 -0.36736932
76 -0.3203734 0.4231451 0.312195 0.36178312 0.36668116 -0.3296301 0.3203274 0.31910327 -0.34213746 -0.25783843 -0.4190463 -0.33723015 -0.3703894 0.4108906 -0.2665861 -0.35477033
77 -0.3344458 0.44637206 0.31867892 0.359945 0.37109998 -0.32329044 0.31619173 0.33959913 -0.34007385 -0.2575773 -0.4349735 -0.34148288 -0.37824443 0.4150349 -0.26489267 -0.36592865
78 -0.33680177 0.4537947 0.32102624 0.36572766 0.379487 -0.31225133 0.31686395 0.3311895 -0.32988787 -0.24790637 -0.43280816 -0.34929863 -0.381324 0.42660508 -0.26386964 -0.36142325
79 -0.3152948 0.43226895 0.3212188 0.3545772 0.3572337 -0.31427968 0.30625996 0.3315269 -0.33218887 -0.24429502 -0.4270547 -0.3298081 -0.359277 0.41616943 -0.25464183 -0.35144988
80 -0.3592504 0.4808043 0.3477562 0.3716857 0.38909698 -0.32936743 0.33177274 0.350272 -0.36625233 -0.27876157 -0.45544058 -0.3710916 -0.3690947 0.43819308 -0.26281485 -0.3848885
81 -0.354645 0.43784496 0.3133235 0.36583155 0.3605197 -0.3394084 0.30691227 0.35072833 -0.37168494 -0.24200906 -0.44321284 -0.35395825 -0.37614694 0.41990954 -0.23902607 -0.40525845
82 -0.4387033 0.5588334 0.5207412 0.47412106 0.48322812 -0.3770531 0.39401025 0.4418653 -0.49704754 -0.37996453 -0.5940603 -0.3671288 -0.488775 0.56121254 -0.28107512 -0.5358296
83 -0.58544666 0.5825026 0.42607635 0.57966304 0.5427235 -0.45731962 0.43997532 0.4968049 -0.36191094 -0.5163609 -0.5822033 -0.46526414 -0.5563901 0.57844615 -0.55120087 -0.6129258
84 -0.33883718 0.45153663 0.31899622 0.37203088 0.37717783 -0.315253 0.31935748 0.3296828 -0.33630538 -0.27019882 -0.45324406 -0.35198775 -0.39361808 0.41722438 -0.25903186 -0.38427037
85 -0.34520423 0.45270398 0.3249613 0.36288553 0.37051582 -0.31939015 0.31124577 0.33273503 -0.34474304 -0.25824478 -0.4415639 -0.36148334 -0.38905993 0.41681987 -0.25670773 -0.37115538
86 -0.3481491 0.45026767 0.31671733 0.36696762 0.3718967 -0.32442677 0.3149217 0.33578128 -0.35913077 -0.26035747 -0.4388499 -0.35949197 -0.37741694 0.42532977 -0.2627083 -0.36730552
87 -0.32527238 0.42615724 0.32325193 0.347023 0.35503656 -0.31880623 0.31261235 0.34545 -0.3342505 -0.2509753 -0.42773923 -0.32914066 -0.36173907 0.41234824 -0.2710426 -0.3617862
88 -0.33615842 0.45055416 0.31990722 0.36017027 0.36956257 -0.32398108 0.31123757 0.34156665 -0.34182277 -0.25154245 -0.4376663 -0.35122874 -0.3795063 0.41580737 -0.26264322 -0.3625925
89 -0.2928686 0.4005342 0.32856604 0.34071648 0.38110736 -0.3788749 0.3439403 0.28075004 -0.34509802 -0.27884215 -0.42662644 -0.34125954 -0.3752898 0.4857213 -0.277807 -0.347901
90 -0.35633144 0.53735334 0.46234262 0.48389822 0.45923275 -0.40406606 0.4246731 0.3520185 -0.35833782 -0.33232284 -0.5220043 -0.42634958 -0.44467244 0.55812573 -0.38895184 -0.41015315
91 -0.33694357 0.5034044 0.33573043 0.3595809 0.39962518 -0.31889752 0.28275758 0.3433205 -0.34637958 -0.25627714 -0.43715686 -0.38746914 -0.39944267 0.4218129 -0.248953 -0.35583898
92 -0.22918278 0.23243588 0.198751 0.24968281 0.2100731 -0.30454403 0.24334872 0.24224895 -0.24315006 -0.26892716 -0.26533574 -0.17159535 -0.2724082 0.2906827 -0.16537917 -0.34074134
93 -0.28856876 0.43742967 0.32661197 0.37002912 0.37618497 -0.3045866 0.27733493 0.30396864 -0.2767135 -0.26087865 -0.39171103 -0.31802097 -0.314135 0.38031584 -0.289039 -0.28187197
94 -0.36236063 0.505552 0.3505701 0.36577764 0.39797795 -0.3325098 0.40245244 0.3101603 -0.34365925 -0.33447525 -0.505837 -0.3498257 -0.43829656 0.44462857 -0.2989035 -0.39047235
95 -0.2563513 0.41506106 0.2634536 0.39178455 0.35787582 -0.34586498 0.28843293 0.32528538 -0.33695674 -0.27059034 -0.36852694 -0.2893475 -0.32764256 0.3781146 -0.22330144 -0.35320488
96 -0.31766585 0.4629178 0.31742647 0.36822605 0.37654066 -0.3294674 0.33064714 0.3501545 -0.35159668 -0.2543342 -0.46957496 -0.33740515 -0.37181994 0.4231183 -0.26156965 -0.37863046
97 -0.51298195 0.5698027 0.40868172 0.459274 0.5322764 -0.37561542 0.5447654 0.40482646 -0.4449857 -0.3812492 -0.55899346 -0.41005695 -0.49455267 0.4731556 -0.4003257 -0.47666106
98 -0.3148353 0.42998037 0.26820007 0.40560338 0.38113564 -0.37081712 0.33817482 0.37659562 -0.34447575 -0.33928668 -0.3705054 -0.27411398 -0.35826677 0.35664013 -0.24827684 -0.3923347
99 -0.33724234 0.45349157 0.32249355 0.37506717 0.37828693 -0.3252737 0.31666005 0.33553374 -0.34652013 -0.2599486 -0.43563867 -0.35559243 -0.39207414 0.4289385 -0.26299727 -0.36844578
100 -0.30364025 0.39402324 0.3097882 0.3586045 0.33763003 -0.29900575 0.32519308 0.30075604 -0.35005793 -0.27690703 -0.4196589 -0.34532768 -0.32801455 0.40526763 -0.2611918 -0.34552515
101 -0.33820635 0.45623547 0.32167703 0.36594298 0.37784255 -0.31722695 0.3129599 0.33341512 -0.3394838 -0.25684723 -0.43461803 -0.35318187 -0.38820568 0.41679987 -0.2580768 -0.3606776
102 -0.33183897 0.4565534 0.37860635 0.37999076 0.38479987 -0.3576473 0.33957165 0.35212672 -0.39354047 -0.2987156 -0.50613075 -0.34898943 -0.39478013 0.44548798 -0.2598551 -0.42904413
103 -0.5033983 0.63053054 0.3326617 0.3471675 0.4090837 -0.3688202 0.38316286 0.3899888 -0.4517352 -0.2418278 -0.3997208 -0.48684037 -0.41664186 0.4635707 -0.3364603 -0.39837202
104 -0.332601 0.43537617 0.3225873 0.37154406 0.34836397 -0.3485245 0.29925522 0.4153087 -0.3623732 -0.23821153 -0.4082596 -0.3127138 -0.3503909 0.44910347 -0.23409593 -0.39085498
105 -0.34018305 0.44974205 0.31728086 0.3673544 0.37461957 -0.32451946 0.3114763 0.34158516 -0.34621996 -0.2551386 -0.43332487 -0.35015798 -0.38590628 0.41580963 -0.25605878 -0.37178016
106 -0.32098424 0.36475056 0.27582756 0.29332367 0.30802143 -0.29943597 0.292746 0.2958763 -0.31858113 -0.23860826 -0.4104393 -0.308103 -0.36351 0.3963661 -0.19773576 -0.38960212
107 -0.359198 0.47388616 0.33978358 0.386639 0.38378677 -0.3354116 0.35662478 0.34776372 -0.36396718 -0.27746603 -0.45240116 -0.36651346 -0.39537987 0.44400325 -0.27285695 -0.3630029
108 -0.33284646 0.4459586 0.31687433 0.35683447 0.36423337 -0.3233704 0.30455732 0.33713114 -0.34412235 -0.24818638 -0.4323372 -0.3532335 -0.3684814 0.4083646 -0.26455343 -0.36205092
109 -0.36709622 0.43655297 0.33673146 0.4219992 0.3873007 -0.3279114 0.30865344 0.31299236 -0.3622424 -0.26040676 -0.44237712 -0.38887864 -0.40277502 0.46992594 -0.2807196 -0.3762462
110 -0.33765242 0.45219785 0.31743014 0.3664007 0.37289938 -0.32151857 0.31214714 0.34304193 -0.34413522 -0.2556049 -0.43469182 -0.35285604 -0.37910876 0.4166928 -0.26002783 -0.36667368
111 -0.34160206 0.39181557 0.28924984 0.3580021 0.3568352 -0.2884915 0.29138312 0.28783855 -0.30054727 -0.27476996 -0.37014213 -0.3169663 -0.38658774 0.38987717 -0.21422255 -0.39944413
112 -0.34343278 0.48949662 0.3557163 0.3779572 0.4054997 -0.39422625 0.37220183 0.36499316 -0.36093292 -0.27901947 -0.49193883 -0.38450164 -0.39359257 0.47376546 -0.3140799 -0.4449886
113 -0.2774919 0.43753102 0.27406132 0.39157325 0.35719588 -0.32137325 0.22488059 0.3634951 -0.2938689 -0.25464246 -0.33971182 -0.27344394 -0.33270666 0.33701092 -0.1958695 -0.3656862
114 -0.39204293 0.43871635 0.36795798 0.44890106 0.4172218 -0.36116704 0.28547642 0.3489462 -0.4408568 -0.313312 -0.5092645 -0.41291526 -0.44439012 0.46340477 -0.27914214 -0.46308407
115 -0.31797388 0.43953386 0.32828206 0.39367545 0.38276413 -0.3302623 0.30809104 0.38991275 -0.3394276 -0.23233253 -0.45347622 -0.31901163 -0.37129354 0.40518045 -0.24953793 -0.37837854
116 -0.3349011 0.4501708 0.31977603 0.3686496 0.3736538 -0.32353476 0.31761086 0.33941478 -0.34275967 -0.26026115 -0.43782356 -0.35001406 -0.38232324 0.41950533 -0.2629923 -0.36711404
117 -0.33547232 0.45200774 0.3181926 0.36485943 0.37129846 -0.3224945 0.3115646 0.33975497 -0.34254777 -0.25470993 -0.43819332 -0.35159996 -0.38299012 0.41707444 -0.25802007 -0.36832458
118 -0.38316044 0.5137978 0.35367253 0.38607374 0.4096256 -0.34664446 0.36374396 0.31836787 -0.37560657 -0.27928033 -0.46530277 -0.3894806 -0.42316967 0.47545737 -0.30146515 -0.39392695
119 -0.2994807 0.3817293 0.30668375 0.32847753 0.3248305 -0.3165782 0.28477648 0.3205874 -0.31346196 -0.2448458 -0.3947632 -0.2990931 -0.33983493 0.36481982 -0.23724137 -0.3535603
120 -0.35221478 0.47579154 0.32344744 0.3832902 0.38216355 -0.35392156 0.3610214 0.34788874 -0.36714146 -0.28438884 -0.48197117 -0.36114034 -0.4097777 0.41937998 -0.30030772 -0.3821156
121 -0.35027537 0.45989865 0.33846748 0.40641576 0.4030239 -0.3245848 0.3092624 0.37387693 -0.3643305 -0.2604759 -0.48557675 -0.352726 -0.3958984 0.43621862 -0.27128085 -0.44276634
122 -0.2847964 0.34070307 0.28624642 0.34238136 0.3019688 -0.3360426 0.2938769 0.33155677 -0.31214312 -0.2956936 -0.33758366 -0.269876 -0.33369923 0.34883922 -0.24968183 -0.3682041
123 -0.34523612 0.4680455 0.35323656 0.345646 0.38475552 -0.30412704 0.33127365 0.3217227 -0.32333598 -0.26425037 -0.44438997 -0.36463258 -0.3992624 0.41332808 -0.28558844 -0.33996487
124 -0.33549234 0.45141742 0.32004127 0.36111104 0.37027025 -0.32615802 0.3122846 0.33965525 -0.34545055 -0.25692326 -0.4399081 -0.35035405 -0.3800186 0.41890308 -0.263194 -0.3666579
125 -0.34863 0.42475596 0.33522698 0.3236719 0.32552737 -0.33896923 0.34664118 0.34996468 -0.36195245 -0.24323237 -0.46991998 -0.35708597 -0.3774077 0.41529298 -0.24221773 -0.3889216
126 -0.33152223 0.44281045 0.32421318 0.37386295 0.37663272 -0.33951133 0.3102994 0.33403978 -0.3501525 -0.25281125 -0.41068092 -0.35367823 -0.382773 0.41762415 -0.2649554 -0.35584188
127 -0.3340065 0.42592004 0.31690696 0.3877271 0.3721235 -0.33156604 0.32471025 0.3233134 -0.3547056 -0.26527333 -0.40890226 -0.33123338 -0.38705546 0.42928606 -0.26429257 -0.36346516
128 -0.32932234 0.45663503 0.33303982 0.37153932 0.38100207 -0.3294909 0.3472428 0.35387596 -0.34255394 -0.24182677 -0.4636087 -0.3339296 -0.39152238 0.4372424 -0.26803052 -0.39303592
129 -0.33497295 0.4419505 0.3121138 0.34995186 0.3571278 -0.31255963 0.30637914 0.33799535 -0.34736165 -0.25398055 -0.44143292 -0.35214877 -0.37387446 0.4097582 -0.24626654 -0.37342212
130 -0.35595 0.48963317 0.3518468 0.38965192 0.42993203 -0.3136668 0.36147204 0.31939694 -0.35855025 -0.32449943 -0.44598994 -0.38490498 -0.45184115 0.4408606 -0.25649142 -0.35371777
131 -0.45762485 0.52843004 0.39157385 0.38178253 0.43574786 -0.34987745 0.32679072 0.40465236 -0.4328517 -0.37225106 -0.46056286 -0.38905406 -0.4417137 0.46832502 -0.26555157 -0.4607495
132 -0.32541656 0.40227973 0.3007029 0.32227737 0.33376488 -0.31245533 0.30376986 0.31571674 -0.3305093 -0.2444221 -0.4254781 -0.3313055 -0.36525226 0.40389255 -0.23730646 -0.3659546
133 -0.31932098 0.4503732 0.31185853 0.33973965 0.36304623 -0.33434495 0.28466272 0.34626934 -0.3303394 -0.22262135 -0.42755407 -0.32800213 -0.3678994 0.39888602 -0.25416863 -0.34896165
134 -0.3407045 0.4419422 0.320839 0.3338858 0.35214195 -0.31706947 0.29955074 0.34517694 -0.3423334 -0.23880051 -0.44950202 -0.35224834 -0.37880662 0.41032538 -0.2513929 -0.36875257
135 -0.32121155 0.43274918 0.30680954 0.34612468 0.35601515 -0.3095549 0.3074475 0.31876594 -0.3309302 -0.25341827 -0.41893673 -0.3331186 -0.35008603 0.39778188 -0.26061824 -0.34991008
136 -0.33995762 0.44919613 0.31909674 0.3627478 0.3736396 -0.32911915 0.31535524 0.3407159 -0.34589574 -0.25680313 -0.43085387 -0.3533571 -0.38211277 0.41314465 -0.2654999 -0.36740983
137 -0.39590204 0.52589154 0.36217397 0.3907887 0.44433 -0.3445986 0.3524003 0.37887093 -0.4015949 -0.2680732 -0.5235353 -0.38926378 -0.42083645 0.45667934 -0.30842158 -0.45515853
138 -0.31829423 0.4453729 0.3275932 0.35631266 0.37550277 -0.30068174 0.2962461 0.3081105 -0.31037155 -0.24937765 -0.42289418 -0.34247854 -0.3459134 0.4056358 -0.2748439 -0.31531078
139 -0.29208443 0.40708613 0.3047949 0.35678574 0.35123482 -0.32065758 0.30362377 0.29829973 -0.321331 -0.26684156 -0.40289718 -0.32731062 -0.3449488 0.39770097 -0.24980421 -0.33372942
140 -0.3363507 0.43331856 0.31464636 0.33569503 0.35858187 -0.31104884 0.29530874 0.31668448 -0.33145732 -0.23317192 -0.43081054 -0.34660897 -0.3719212 0.4017399 -0.24949557 -0.3526011
141 -0.33002418 0.43946287 0.31662565 0.36534038 0.36590177 -0.32495067 0.3183023 0.33217987 -0.33613428 -0.26587337 -0.42124343 -0.3390075 -0.37959856 0.41244686 -0.26288167 -0.36397293
142 -0.3319186 0.4561522 0.31535694 0.37035713 0.38262796 -0.32592875 0.31424674 0.34057614 -0.33481717 -0.25701833 -0.42541385 -0.33726922 -0.3904172 0.41895792 -0.26495603 -0.36479074
143 -0.2925447 0.42334667 0.28461823 0.35971797 0.33860987 -0.3256497 0.2957577 0.35379243 -0.36002025 -0.26036647 -0.4088647 -0.3165043 -0.3367002 0.3826781 -0.22971797 -0.37180173
144 -0.3323078 0.44965023 0.3209549 0.3655442 0.37202224 -0.32470647 0.31690738 0.33569717 -0.34171504 -0.25880638 -0.43695763 -0.34948948 -0.38077492 0.42247736 -0.2648432 -0.36471057
145 -0.32638767 0.43717098 0.31443676 0.35186523 0.3597559 -0.31704998 0.30681238 0.32844958 -0.33846447 -0.25419784 -0.42705238 -0.3397193 -0.37080538 0.40301546 -0.25259352 -0.35962945
146 -0.31473574 0.42116356 0.33665386 0.33734563 0.34575817 -0.3260066 0.31627524 0.3185937 -0.32805187 -0.22933625 -0.45340574 -0.32574105 -0.3785321 0.42160174 -0.25394657 -0.3628699
147 -0.33022872 0.45636946 0.3133665 0.3632431 0.37487426 -0.33807886 0.31309202 0.34606868 -0.35954872 -0.252114 -0.44369644 -0.3580558 -0.3701659 0.41968077 -0.26689616 -0.3739789
148 -0.3503691 0.4754101 0.3340367 0.31576738 0.3682384 -0.33130544 0.32200626 0.3112639 -0.35981655 -0.25020653 -0.43315253 -0.34995845 -0.37383026 0.43352282 -0.26962394 -0.37134236
149 -0.2728657 0.4015623 0.27143893 0.37724617 0.33395648 -0.35327372 0.28862944 0.36993083 -0.33777818 -0.29446518 -0.34744608 -0.26529318 -0.34103173 0.3537713 -0.23241675 -0.38942724
150 -0.3319017 0.44129682 0.3185968 0.35521796 0.36411607 -0.32032508 0.3120667 0.34126392 -0.339023 -0.25497404 -0.43197995 -0.34231326 -0.37414348 0.41506684 -0.26347345 -0.36368036
151 -0.30607918 0.45406958 0.30893236 0.37158453 0.3720946 -0.31679994 0.27736497 0.3651079 -0.31656724 -0.24125072 -0.41011405 -0.30787867 -0.35075977 0.3990465 -0.23973241 -0.36377537
152 -0.3360264 0.4490964 0.32001764 0.36662048 0.3710046 -0.3250303 0.31494212 0.34402385 -0.3485783 -0.25812235 -0.44120327 -0.35138118 -0.37957138 0.4183898 -0.2604035 -0.3706633
153 -0.32590497 0.44860655 0.30905077 0.35940278 0.37235647 -0.3225166 0.30798528 0.33720323 -0.33669817 -0.24939942 -0.4269309 -0.3312191 -0.38028747 0.42339626 -0.2532489 -0.36940196
154 -0.32252908 0.44520906 0.3245388 0.3482196 0.3633569 -0.31601223 0.32378796 0.35594833 -0.3370553 -0.22480221 -0.47685745 -0.32961684 -0.38715965 0.41770855 -0.2554733 -0.37673002
155 -0.31269336 0.39700702 0.3018567 0.3056515 0.32146257 -0.29360664 0.3135935 0.31296432 -0.32585558 -0.24519825 -0.45876238 -0.33135572 -0.3424659 0.42611662 -0.23400742 -0.35594806
156 -0.33748257 0.47274023 0.34091488 0.32341188 0.3788289 -0.3086945 0.3281932 0.2917494 -0.3134404 -0.25195906 -0.4488433 -0.3594184 -0.4013782 0.43333018 -0.2695521 -0.3405127
157 -0.33168942 0.42686602 0.30425426 0.3574851 0.3524819 -0.31010157 0.31722996 0.33375624 -0.34335244 -0.25393513 -0.4232137 -0.34947315 -0.36303335 0.41360924 -0.2605597 -0.3595052
158 -0.3704493 0.47910416 0.5582236 0.46137336 0.52073383 -0.48708 0.3621833 0.49273753 -0.44910014 -0.38613877 -0.7812679 -0.33447605 -0.4121649 0.49635085 -0.32869184 -0.7318392
159 -0.3395926 0.4581944 0.31805208 0.3753048 0.3768768 -0.33185908 0.32084966 0.34625408 -0.34952322 -0.26153514 -0.43201336 -0.35900667 -0.3801206 0.42869356 -0.26441 -0.37358937
160 -0.3241234 0.4145486 0.37476766 0.3157981 0.33214033 -0.28456298 0.33450955 0.31803712 -0.35908824 -0.29743683 -0.5036706 -0.34899595 -0.3691002 0.41838974 -0.2200171 -0.41914383
161 -0.41486683 0.4528903 0.4164176 0.4600098 0.37892163 -0.44096628 0.44046736 0.4744948 -0.46889228 -0.2654912 -0.5826809 -0.28535774 -0.3660333 0.55040777 -0.31445152 -0.5427716
162 -0.41640127 0.5898185 0.46953046 0.5289061 0.3835403 -0.39320087 0.54944676 0.34436736 -0.40106162 -0.55759954 -0.61389154 -0.38525212 -0.6741134 0.6295743 -0.31886634 -0.39809105
163 -0.32204965 0.4471878 0.31977245 0.3926344 0.37674856 -0.34724683 0.30354947 0.33239162 -0.37730226 -0.29275677 -0.41559362 -0.36557057 -0.38699195 0.41971672 -0.24705553 -0.3598282
164 -0.34453776 0.45827392 0.32796064 0.37012646 0.37730315 -0.3263002 0.3253442 0.34181255 -0.34741393 -0.25721404 -0.44747576 -0.35630876 -0.3845982 0.42957112 -0.26855484 -0.37667215
165 -0.35589644 0.50836515 0.34765118 0.4229855 0.37515682 -0.34925035 0.37243924 0.34353852 -0.35873568 -0.30676994 -0.4359272 -0.39989206 -0.4334762 0.4768551 -0.29027808 -0.32882223
166 -0.35617158 0.4466085 0.3272454 0.40509513 0.3681208 -0.30808446 0.26169053 0.31662723 -0.35463163 -0.25668538 -0.36718583 -0.37215668 -0.35550898 0.4314894 -0.24777937 -0.3288348
167 -0.36417723 0.51988095 0.35994998 0.3772075 0.40729037 -0.3480835 0.33743685 0.36576062 -0.39351976 -0.2626935 -0.46068794 -0.39357197 -0.39057976 0.4550706 -0.27464852 -0.3799182
168 -0.3381749 0.44966403 0.32092053 0.36210686 0.37037534 -0.3230506 0.31359556 0.34060082 -0.3434064 -0.25356537 -0.4393573 -0.3505163 -0.38301602 0.4193785 -0.26067019 -0.36836293
169 -0.37563398 0.4722909 0.3467467 0.45566925 0.41558543 -0.3736341 0.40122658 0.4013632 -0.33599496 -0.34360954 -0.51904714 -0.38062912 -0.41202265 0.5065973 -0.34111172 -0.47940156
170 -0.33029673 0.37855446 0.30278656 0.2750901 0.30329168 -0.36093816 0.2553841 0.30064008 -0.3131213 -0.2318466 -0.37760228 -0.32267722 -0.3498245 0.2987245 -0.2521872 -0.33801457
171 -0.30249017 0.2827669 0.3173002 0.24458566 0.2638363 -0.29428437 0.25904492 0.2192697 -0.30558506 -0.22147596 -0.33492234 -0.30616245 -0.27972314 0.27716774 -0.28836378 -0.2530774
172 -0.33939415 0.43023986 0.30672854 0.34699723 0.36660022 -0.31701463 0.3142553 0.34676164 -0.34853852 -0.23698908 -0.44435638 -0.33124745 -0.37570396 0.40705368 -0.23629516 -0.38791442
173 -0.33630213 0.43318892 0.32297826 0.36863223 0.37634826 -0.3276582 0.2829975 0.34672186 -0.33707923 -0.25526404 -0.4172223 -0.33653343 -0.38998458 0.4082544 -0.25594193 -0.38890857
174 -0.2961058 0.40719447 0.3135185 0.2855003 0.3355896 -0.29465917 0.2717455 0.31127155 -0.29022968 -0.21652487 -0.4118821 -0.2923352 -0.313614 0.39483202 -0.26255316 -0.31477764
175 -0.35077152 0.38589108 0.3406853 0.3339371 0.37257656 -0.31283563 0.30861497 0.31678653 -0.34501517 -0.22949427 -0.44352853 -0.31349334 -0.38963038 0.39632374 -0.23350994 -0.40959245
176 -0.3033138 0.43849772 0.3248026 0.36297724 0.36322197 -0.30904904 0.3108334 0.35931677 -0.3377648 -0.24474736 -0.44905004 -0.30875462 -0.34255654 0.39828444 -0.24166118 -0.38533312
177 -0.34857833 0.45657864 0.28326046 0.3497468 0.3737596 -0.3257175 0.30744228 0.34251395 -0.35453808 -0.23956516 -0.43629563 -0.33842507 -0.38218325 0.41342214 -0.23622112 -0.40785164
178 -0.3691274 0.4574103 0.31924492 0.4156726 0.39720172 -0.36552036 0.3320164 0.36165488 -0.38606983 -0.2751673 -0.4942901 -0.37668765 -0.40649933 0.4553718 -0.310197 -0.42108753
179 -0.3383922 0.41792747 0.31264484 0.2862942 0.33546075 -0.2827817 0.2806755 0.31937832 -0.3068226 -0.21368569 -0.44045722 -0.32281545 -0.3574402 0.41231048 -0.23085251 -0.3636778
180 -0.33783758 0.43974295 0.33585033 0.33232865 0.35970214 -0.31605428 0.32910404 0.3065357 -0.33365026 -0.25927716 -0.4226833 -0.3436399 -0.39200568 0.42566097 -0.2602053 -0.36006624
181 -0.34492886 0.43892127 0.31285012 0.38731763 0.37356776 -0.3213147 0.31803316 0.36920506 -0.34949055 -0.25282452 -0.44724452 -0.34925175 -0.3825804 0.4215949 -0.25020683 -0.37734863
182 -0.33219412 0.41729537 0.32401067 0.3363655 0.33216828 -0.3325025 0.28922558 0.35390845 -0.3495845 -0.24468777 -0.42471117 -0.34283414 -0.37685454 0.37754473 -0.24116248 -0.361015
183 -0.31515616 0.49533305 0.38757798 0.39827165 0.38661507 -0.41391352 0.40411007 0.32207662 -0.39305255 -0.3176415 -0.49591404 -0.40758595 -0.39889395 0.4407861 -0.33528343 -0.35603803
184 -0.3445389 0.44070584 0.34843114 0.36164114 0.35775807 -0.31185776 0.3036578 0.35727167 -0.3619278 -0.26102495 -0.425835 -0.35079515 -0.32927796 0.41730452 -0.2580758 -0.38160065
185 -0.33546698 0.45039484 0.3216533 0.359441 0.37209576 -0.3206943 0.31145805 0.34305525 -0.34310737 -0.2530484 -0.43956968 -0.34952036 -0.37812525 0.41735828 -0.26042333 -0.36678812
186 -0.34610227 0.45466655 0.3266492 0.3796514 0.37188435 -0.29622215 0.31297085 0.2992877 -0.32983372 -0.2600604 -0.40938354 -0.39188543 -0.381995 0.4227993 -0.26992756 -0.3273054
187 -0.34336635 0.40729737 0.29706606 0.33763263 0.35885102 -0.3178579 0.3118688 0.2751882 -0.3319472 -0.26981503 -0.37422043 -0.31617296 -0.3828055 0.42619318 -0.27301896 -0.39420357
188 -0.33922082 0.435583 0.32180467 0.34380785 0.35886842 -0.31885538 0.318199 0.33214322 -0.34332606 -0.2497719 -0.44170597 -0.35078827 -0.3798473 0.4200318 -0.2636183 -0.361988
189 -0.32984728 0.43861213 0.32659176 0.34752974 0.3682826 -0.328546 0.28669858 0.312188 -0.3376729 -0.26374102 -0.4357432 -0.34894052 -0.37243423 0.38233638 -0.26597306 -0.36592072
190 -0.27462873 0.33209354 0.27686083 0.3083518 0.29203135 -0.32087117 0.25517765 0.3056807 -0.28338516 -0.24189918 -0.34030083 -0.25329226 -0.3188305 0.33622527 -0.21529207 -0.35404995
191 -0.34821367 0.4401342 0.319071 0.39616752 0.37009817 -0.33169836 0.33037755 0.35609233 -0.36842725 -0.25985262 -0.4420143 -0.37526423 -0.38635105 0.44654736 -0.27062044 -0.36464763
192 -0.34600028 0.46891862 0.31912228 0.36582217 0.38045913 -0.3150367 0.33297217 0.34295738 -0.35531658 -0.25893447 -0.48751298 -0.3461977 -0.38342857 0.41908452 -0.25880095 -0.39082703
193 -0.34816873 0.44226462 0.33545485 0.33706585 0.3675555 -0.31148395 0.32100847 0.3262106 -0.36081502 -0.2704044 -0.44120616 -0.3554662 -0.38023782 0.4195713 -0.24794176 -0.3963237
194 -0.33864287 0.4397472 0.32130885 0.35894433 0.3652665 -0.32265154 0.31473672 0.3408281 -0.3467416 -0.25307754 -0.43837017 -0.3511344 -0.37917337 0.40977517 -0.2598363 -0.36606187
195 -0.360828 0.43955034 0.3539249 0.37076923 0.37092578 -0.37926924 0.35888422 0.38889077 -0.40307176 -0.24107346 -0.49907967 -0.3357865 -0.36802432 0.43547085 -0.27950203 -0.45874238
196 -0.37716037 0.46036017 0.36593798 0.40477708 0.37850857 -0.3745505 0.3635807 0.40008792 -0.399917 -0.2705565 -0.4979987 -0.32165295 -0.3831742 0.4727248 -0.28245008 -0.4465589
197 -0.308556 0.52017426 0.44623193 0.44229788 0.42290938 -0.41312772 0.4042897 0.31888673 -0.44308245 -0.34332815 -0.5791766 -0.41680604 -0.43432468 0.5711517 -0.29781076 -0.43998516
198 -0.27382892 0.39032814 0.28623727 0.34937665 0.34533718 -0.3143934 0.30792934 0.29154333 -0.3268066 -0.26569313 -0.39405808 -0.30649233 -0.31819147 0.39536443 -0.25358266 -0.32659316
199 -0.32374033 0.44589883 0.31103486 0.37422857 0.37679926 -0.33266324 0.31057322 0.33379284 -0.33833557 -0.25512734 -0.4168894 -0.33930907 -0.37742156 0.4118976 -0.2660546 -0.35660025
200 -0.40797806 0.6103773 0.31344134 0.3516667 0.39881086 -0.3738734 0.35248756 0.3410293 -0.42655265 -0.28538513 -0.43110877 -0.46658722 -0.45118424 0.47481328 -0.29792565 -0.357421
201 -0.3401749 0.44571224 0.3263317 0.3539015 0.36554384 -0.3171444 0.29844794 0.3381848 -0.32717872 -0.24445316 -0.43000993 -0.3495313 -0.3746137 0.40333638 -0.26661733 -0.3521013
202 -0.32917032 0.44885617 0.33914137 0.35993975 0.3785257 -0.33142766 0.30478147 0.34427655 -0.3467211 -0.2595717 -0.45357856 -0.34787592 -0.38357636 0.4193124 -0.25964895 -0.37897766
203 -0.3192303 0.44552478 0.34213173 0.4044719 0.3836262 -0.3239784 0.30488175 0.3461943 -0.33708522 -0.27119094 -0.43035808 -0.36230558 -0.39738953 0.43521044 -0.27801445 -0.34955248
204 -0.3325612 0.44790792 0.31212655 0.36242837 0.37108472 -0.32693663 0.31083328 0.34017667 -0.34517848 -0.2551724 -0.43231562 -0.34374484 -0.38055167 0.41750008 -0.2531961 -0.37658045
205 -0.3395151 0.45016828 0.319282 0.36659792 0.37103358 -0.32396367 0.31156 0.34098786 -0.34305516 -0.2564544 -0.43106475 -0.3551486 -0.3783135 0.4149505 -0.2625185 -0.36456853
206 -0.33328122 0.4337063 0.308751 0.35957795 0.3651777 -0.32818624 0.31562224 0.34364462 -0.33935913 -0.25979954 -0.41669452 -0.33050984 -0.37054816 0.40661094 -0.2615971 -0.37834764
207 -0.39410403 0.48472917 0.39125472 0.47807172 0.42628205 -0.3621939 0.32902578 0.3926559 -0.4267686 -0.34377584 -0.51256377 -0.4334239 -0.41159973 0.5174378 -0.26353127 -0.44535926
208 -0.29129612 0.40792125 0.35399857 0.3763577 0.37516132 -0.33348364 0.34391657 0.29800123 -0.36835897 -0.32093892 -0.4788247 -0.31564677 -0.3415822 0.4120091 -0.2602127 -0.39164346
209 -0.3118453 0.44541913 0.33083427 0.38778898 0.36057526 -0.35711396 0.30652776 0.3521002 -0.34735113 -0.2661356 -0.42631677 -0.35034388 -0.36727175 0.42231825 -0.25218317 -0.3881226
210 -0.33568424 0.45297968 0.31830648 0.36543104 0.37307745 -0.32434303 0.31231195 0.34426364 -0.3432959 -0.2545577 -0.43856254 -0.34999532 -0.38102785 0.4185043 -0.26036906 -0.36900344
211 -0.3410502 0.4316986 0.31930843 0.33827776 0.35479036 -0.31268317 0.31122467 0.33704206 -0.3349948 -0.24955724 -0.43625402 -0.341976 -0.3783781 0.41700763 -0.2573411 -0.37139374
212 -0.3350719 0.45405677 0.32533735 0.3620037 0.3738401 -0.33011258 0.31118026 0.34241852 -0.34807095 -0.25873947 -0.44234237 -0.35176915 -0.37852636 0.42014465 -0.26332492 -0.36880267
213 -0.32809794 0.40477142 0.29433924 0.3208332 0.3421633 -0.30142385 0.3006058 0.30364358 -0.33517957 -0.23710743 -0.42251366 -0.32996988 -0.366866 0.40723646 -0.22594652 -0.37360674
214 -0.36250326 0.47127074 0.38762802 0.38731143 0.42336857 -0.32291934 0.36786065 0.3482309 -0.33467895 -0.2626237 -0.4906054 -0.34499407 -0.42223954 0.46329948 -0.28092036 -0.42627975
215 -0.3268226 0.42096555 0.309465 0.3490792 0.3534399 -0.32466748 0.30389124 0.33782786 -0.33408374 -0.2414789 -0.4203862 -0.3259471 -0.36251476 0.38928318 -0.26275036 -0.35613543
216 -0.33898532 0.45617393 0.34975308 0.39601463 0.39035925 -0.3278497 0.32453772 0.3377364 -0.35053158 -0.26302436 -0.45660785 -0.36221492 -0.41664365 0.4507087 -0.26064214 -0.3860332
217 -0.36418888 0.44955713 0.32600978 0.3713243 0.36982104 -0.30448848 0.3370088 0.35286915 -0.36629057 -0.27154553 -0.45526862 -0.36190596 -0.37700245 0.43562838 -0.24253324 -0.38188165
218 -0.3374565 0.44859245 0.31082708 0.37605962 0.3737201 -0.32752606 0.30877215 0.3453469 -0.34902596 -0.26275223 -0.43509975 -0.3474909 -0.38384533 0.41965443 -0.25724763 -0.37813848
219 -0.30819297 0.46164736 0.31668532 0.38837472 0.40708736 -0.4103474 0.3146001 0.31773323 -0.36303246 -0.32143483 -0.3862186 -0.34093514 -0.3541543 0.41182238 -0.28298962 -0.3888912
220 -0.2936071 0.43221694 0.31546834 0.38584137 0.3732458 -0.41268206 0.33934328 0.395209 -0.3801843 -0.26114964 -0.42660177 -0.31280372 -0.37681267 0.45134735 -0.2946744 -0.4041953
221 -0.52233773 0.72201514 0.460803 0.5917984 0.598796 -0.4731628 0.4463182 0.45888197 -0.45971477 -0.44956455 -0.6811025 -0.53719044 -0.61962116 0.6174853 -0.46747786 -0.60491776
222 -0.36535752 0.4098922 0.34393287 0.33387473 0.35128373 -0.29274932 0.32790375 0.29494837 -0.3177169 -0.25996113 -0.44473103 -0.37715873 -0.37627316 0.41681135 -0.2922598 -0.33815083
223 -0.3366642 0.43619838 0.33879977 0.34680787 0.35007846 -0.32161942 0.30797797 0.32820734 -0.3544909 -0.25515538 -0.41947776 -0.36770344 -0.35242447 0.41647178 -0.28620514 -0.33027023
224 -0.39320397 0.5045547 0.4000204 0.4316871 0.39622846 -0.34494328 0.32250065 0.3701765 -0.38675934 -0.31583858 -0.45647326 -0.39137146 -0.45971 0.49231118 -0.27751812 -0.39519274
225 -0.56794035 0.63204366 0.5378597 0.63698095 0.5787384 -0.49187702 0.41445255 0.5412731 -0.49461612 -0.39920986 -0.4960641 -0.596607 -0.45148036 0.7291718 -0.41872627 -0.5348717
226 -0.26655272 0.34024173 0.27795985 0.3448154 0.29792535 -0.30227914 0.3135978 0.28838894 -0.33788988 -0.29023236 -0.3914398 -0.31533563 -0.29447854 0.3664748 -0.2353065 -0.3292999
227 -0.3336037 0.42689994 0.3400979 0.39244547 0.36554432 -0.33662394 0.3375605 0.32934022 -0.34970787 -0.27865046 -0.46055904 -0.3567863 -0.40319347 0.4463769 -0.27703232 -0.37545103
228 -0.38043606 0.48287967 0.34135574 0.3934596 0.42737427 -0.34569514 0.34181094 0.38756964 -0.37117574 -0.2688828 -0.48831496 -0.36535934 -0.40812695 0.44264436 -0.28570446 -0.43981785
229 -0.32265657 0.3894173 0.3240309 0.29292193 0.29998574 -0.3081535 0.2658753 0.35036373 -0.28828532 -0.23876673 -0.41065446 -0.30877358 -0.33723742 0.36167496 -0.2510094 -0.34174916
230 -0.31151122 0.4383619 0.3599286 0.3934501 0.3639152 -0.28120255 0.33332393 0.31100875 -0.3550049 -0.31082535 -0.43657956 -0.36393481 -0.32375616 0.40468067 -0.27604967 -0.34499112
231 -0.3376017 0.4451028 0.3204264 0.35602888 0.36877394 -0.32235914 0.30370906 0.33805507 -0.35060576 -0.25179458 -0.4437696 -0.3536687 -0.37571403 0.4257045 -0.2536441 -0.37225375
232 -0.29808244 0.3938836 0.34784353 0.33043978 0.33272755 -0.29807115 0.21420076 0.30885887 -0.19134273 -0.25984427 -0.32912436 -0.2744944 -0.30467516 0.31052992 -0.28827074 -0.26451167
233 -0.34166571 0.41847792 0.30767134 0.33512357 0.34534335 -0.2812277 0.27706718 0.32118028 -0.31399924 -0.2485281 -0.4207283 -0.3342299 -0.3657604 0.38757545 -0.20893775 -0.3840795
234 -0.34573558 0.4522242 0.33956778 0.39115363 0.38916737 -0.35235354 0.33364284 0.36245373 -0.3360223 -0.26805222 -0.4665838 -0.355725 -0.39217606 0.4351672 -0.29821795 -0.42373657
235 -0.32708943 0.43642816 0.31803197 0.36694053 0.3740441 -0.32082766 0.31431365 0.33025393 -0.3505811 -0.270948 -0.44149008 -0.34253025 -0.37261754 0.4112235 -0.25510976 -0.36691836
236 -0.33931735 0.4449613 0.31163478 0.36251953 0.36951375 -0.3109229 0.30611408 0.3345524 -0.34010908 -0.25495645 -0.4270822 -0.35142356 -0.37150887 0.41174257 -0.2509878 -0.36843133
237 -0.33549583 0.44260252 0.31461728 0.3671893 0.37117317 -0.32172573 0.31421456 0.33355987 -0.33972612 -0.26399857 -0.4232585 -0.34608227 -0.3774627 0.41575366 -0.26329654 -0.36617526
238 -0.32729322 0.4506214 0.29818568 0.37967584 0.36485997 -0.3277273 0.31660008 0.34465775 -0.35827136 -0.26840785 -0.4259827 -0.35305345 -0.35884836 0.4027389 -0.26169565 -0.361732
239 -0.34457827 0.44445005 0.35618842 0.40245777 0.36110106 -0.30989447 0.3445963 0.3231824 -0.33488077 -0.26689586 -0.4547381 -0.37965745 -0.41028383 0.47491878 -0.28293315 -0.3482447
240 -0.34200755 0.37520796 0.3269032 0.38476306 0.35695902 -0.33107838 0.2701197 0.30242956 -0.36874032 -0.25907138 -0.42358643 -0.36337516 -0.3931164 0.46184584 -0.22837588 -0.42884296
241 -0.31193233 0.41327477 0.30231032 0.3775137 0.37027836 -0.30584773 0.2855947 0.32252637 -0.3062988 -0.27508107 -0.3562409 -0.29436904 -0.35539192 0.38331527 -0.25039473 -0.37059405
242 -0.33659923 0.44920465 0.31812832 0.36307734 0.3717428 -0.32331145 0.3120883 0.34131512 -0.3438517 -0.25430736 -0.43768248 -0.35054663 -0.37966764 0.41951722 -0.26018018 -0.36918354
243 -0.36305588 0.49747106 0.3417489 0.36378798 0.40877867 -0.34340477 0.326605 0.38812238 -0.34014025 -0.2548537 -0.4671498 -0.3638116 -0.41164377 0.42819622 -0.2820589 -0.42354488
244 -0.33440986 0.40827852 0.3118645 0.3258094 0.33253902 -0.30908725 0.31050542 0.33852306 -0.35743842 -0.22359003 -0.45411646 -0.34661764 -0.36395124 0.40685928 -0.23779672 -0.37681735
245 -0.33744818 0.43794337 0.32081756 0.3644757 0.3695772 -0.32002065 0.308901 0.33463684 -0.33488572 -0.25455928 -0.42280236 -0.3440286 -0.37934652 0.40655893 -0.2633252 -0.36567324
246 -0.3358124 0.44841343 0.3270937 0.38650343 0.38466215 -0.33536953 0.31922784 0.34893772 -0.3550614 -0.25984526 -0.41493326 -0.36152703 -0.37381384 0.43478575 -0.26177984 -0.36207148
247 -0.33901286 0.44589257 0.32279024 0.37289938 0.37089455 -0.31919077 0.31421417 0.34647438 -0.34634754 -0.2557638 -0.43185756 -0.3525597 -0.37607127 0.42036375 -0.25936687 -0.36945975
248 -0.4728558 0.51453054 0.35364696 0.4454921 0.43004882 -0.38392583 0.3485363 0.40851206 -0.49190164 -0.266979 -0.45892447 -0.4484551 -0.40727314 0.5616777 -0.348953 -0.4984668
249 -0.33324158 0.4403415 0.33069584 0.38383868 0.39140365 -0.32853338 0.2907286 0.34685192 -0.34303677 -0.28050867 -0.44978318 -0.33754122 -0.39597705 0.42755955 -0.25003245 -0.39807904
250 -0.34779283 0.4727956 0.3020899 0.3784906 0.3713317 -0.3321607 0.30296773 0.34325397 -0.3452519 -0.24497844 -0.42797667 -0.37549293 -0.37694094 0.42684752 -0.25378358 -0.38932216
251 -0.34670222 0.45360515 0.30730504 0.3735595 0.37356895 -0.32737923 0.33233753 0.3544601 -0.35122928 -0.25609985 -0.45180106 -0.35306007 -0.38447407 0.41149756 -0.2735169 -0.37007764
252 -0.3448221 0.45287368 0.34755334 0.35106948 0.37799013 -0.34669462 0.34535313 0.35957178 -0.36614427 -0.27601588 -0.4797532 -0.33106852 -0.39048687 0.41290033 -0.26074892 -0.4109493
253 -0.3349039 0.44351524 0.32153258 0.36967862 0.3741132 -0.3177457 0.31121218 0.3420536 -0.33411914 -0.259866 -0.43596208 -0.34461588 -0.3818678 0.41650182 -0.2590646 -0.37185463
254 -0.37701902 0.42828888 0.37857994 0.47850135 0.41918728 -0.40928626 0.34369496 0.42154083 -0.39207274 -0.28970593 -0.52512443 -0.37045145 -0.36642092 0.51547885 -0.32855126 -0.50051993
255 -0.3614296 0.47126427 0.35141665 0.40683082 0.39681765 -0.3642498 0.31218085 0.38013083 -0.40435717 -0.27778322 -0.47071594 -0.38195682 -0.39811447 0.45846704 -0.2728235 -0.41122407
256 -0.28901517 0.41173616 0.3085185 0.3126594 0.34121966 -0.3240482 0.262128 0.33148783 -0.27973866 -0.23206761 -0.3818472 -0.27670494 -0.32784736 0.37653306 -0.26380402 -0.32267436
257 -0.32361093 0.40998542 0.3550287 0.39411432 0.36187047 -0.28978324 0.28007254 0.33618763 -0.29432824 -0.28658068 -0.406507 -0.30928978 -0.3558757 0.41983834 -0.2631733 -0.31847343
258 -0.33598498 0.4555484 0.3206481 0.36327407 0.37346718 -0.32149193 0.31005692 0.337932 -0.34381646 -0.25497004 -0.4371188 -0.3538437 -0.37950027 0.41940317 -0.26264822 -0.36384204
259 -0.45992365 0.5266086 0.45449102 0.46898404 0.44434246 -0.34475896 0.3401777 0.45191926 -0.4425719 -0.27279902 -0.5041807 -0.4026662 -0.4491252 0.536739 -0.2984346 -0.5200879
260 -0.3150181 0.43546703 0.30971333 0.3737552 0.3702228 -0.30364516 0.30463386 0.3167601 -0.33476046 -0.26291928 -0.4166558 -0.34251174 -0.35013288 0.40261745 -0.25492713 -0.34514394
261 -0.29589182 0.4449917 0.3555321 0.30875733 0.3520071 -0.33563137 0.32590628 0.33465737 -0.3541635 -0.27719092 -0.49615088 -0.34367526 -0.31742525 0.40996987 -0.294268 -0.33549878
262 -0.3161956 0.49131557 0.35301656 0.33672962 0.37369198 -0.3514072 0.32099795 0.32575193 -0.33103952 -0.2553459 -0.40464962 -0.34601745 -0.3704383 0.4542668 -0.30017143 -0.33591497
263 -0.3293254 0.42425996 0.30531377 0.3523934 0.35855818 -0.3594769 0.28612942 0.3476365 -0.3309935 -0.24978617 -0.38729545 -0.30941978 -0.38941196 0.37543306 -0.24856639 -0.38531792
264 -0.3441476 0.29028994 0.30326766 0.2290589 0.19730741 -0.29411444 0.24801667 0.31327057 -0.3416719 -0.22125037 -0.38811713 -0.33094007 -0.31735554 0.2640177 -0.21556565 -0.3356589
265 -0.33360842 0.4437521 0.32199088 0.3484633 0.3641118 -0.32221022 0.3045683 0.33605173 -0.3336777 -0.24510792 -0.43366447 -0.34493473 -0.37483442 0.40772927 -0.26498577 -0.35358182
266 -0.33980995 0.420035 0.30763662 0.34048188 0.35195148 -0.29675508 0.29853916 0.30603185 -0.33838695 -0.24558343 -0.42318612 -0.35043076 -0.3700096 0.40297246 -0.23089586 -0.36757067
267 -0.31935903 0.44148672 0.30443406 0.3623105 0.36646527 -0.33035058 0.2953272 0.33335608 -0.34152666 -0.24513412 -0.41517818 -0.33630243 -0.3706664 0.39590025 -0.24830459 -0.357498
268 -0.34125522 0.45493424 0.3272947 0.36742967 0.37606832 -0.31716275 0.31907883 0.34086925 -0.34133643 -0.2615311 -0.43793553 -0.34953097 -0.3860622 0.4144904 -0.26134542 -0.36930993
269 -0.3415889 0.42600238 0.32833278 0.351623 0.35988408 -0.29631174 0.3115581 0.2728663 -0.31164327 -0.24915898 -0.41813415 -0.37320086 -0.37290514 0.41468987 -0.27861318 -0.32623428
270 -0.33324265 0.43593973 0.32831722 0.39560604 0.38132212 -0.31047076 0.3288195 0.36058885 -0.3250629 -0.23882976 -0.45161155 -0.32741857 -0.37616545 0.42354178 -0.2713663 -0.37336013
271 -0.27156836 0.33446625 0.27901652 0.24997199 0.2873484 -0.34364507 0.24728474 0.33651936 -0.20713136 -0.24884193 -0.3036664 -0.16758825 -0.3334761 0.3626147 -0.2541305 -0.35923144
272 -0.32456014 0.47110072 0.35784858 0.4442034 0.35358188 -0.33446065 0.3121542 0.38489038 -0.31096116 -0.3384493 -0.373852 -0.31062868 -0.38616133 0.4441697 -0.2496335 -0.3779756
273 -0.34546822 0.46961343 0.3302581 0.34397796 0.35361013 -0.32355425 0.33780706 0.3874002 -0.34779432 -0.26447225 -0.4475743 -0.3590885 -0.34838852 0.42187947 -0.287363 -0.34189257
274 -0.34069967 0.38341162 0.3561592 0.23921864 0.27919415 -0.30358577 0.26779923 0.33834586 -0.3133884 -0.1977419 -0.45058617 -0.3449698 -0.32069024 0.34885272 -0.28807452 -0.29585087
275 -0.33042923 0.41606182 0.30332592 0.2919989 0.33141583 -0.29534397 0.27842298 0.32334882 -0.3046267 -0.21648523 -0.43782672 -0.31878313 -0.36110145 0.40847054 -0.22114335 -0.3666247
276 -0.3609987 0.5067902 0.32428902 0.36780876 0.42492384 -0.40651184 0.43001682 0.41699022 -0.44214126 -0.3004276 -0.57728815 -0.34388775 -0.35960943 0.40417913 -0.28517687 -0.45928377
277 -0.33080226 0.46214217 0.2755427 0.39622504 0.38380492 -0.3494704 0.31416032 0.33375221 -0.3571673 -0.26764438 -0.3925664 -0.3579375 -0.35523343 0.38867077 -0.28303483 -0.34388554
278 -0.33730024 0.45685923 0.32295066 0.35309243 0.37095597 -0.3178296 0.3121601 0.33762947 -0.33587906 -0.25270084 -0.44036895 -0.34900725 -0.3766802 0.4204457 -0.25710776 -0.36613554
279 -0.32028642 0.4157017 0.33888698 0.3778375 0.37340465 -0.3485055 0.32416412 0.3188405 -0.3690457 -0.2655578 -0.4427796 -0.35221812 -0.37562543 0.4312125 -0.269944 -0.3601101
280 -0.32433122 0.4350373 0.3159307 0.32927826 0.35103086 -0.30937704 0.28429803 0.3307325 -0.30337447 -0.23663644 -0.41897166 -0.32492027 -0.36087328 0.40053913 -0.25044268 -0.34726688
281 -0.35353675 0.4754309 0.39471424 0.41389376 0.42018488 -0.38010052 0.37407094 0.31885839 -0.3784254 -0.28007406 -0.45080438 -0.38566056 -0.41665077 0.5295838 -0.30058008 -0.3852513
282 -0.33693534 0.45003733 0.3174821 0.3688873 0.37211242 -0.32053828 0.31148696 0.3405945 -0.34242278 -0.25235114 -0.43167523 -0.35453507 -0.3803741 0.4199629 -0.26095545 -0.36460152
283 -0.33428046 0.45102617 0.31630415 0.3675056 0.37274197 -0.32042965 0.31332967 0.33868927 -0.3433015 -0.25756496 -0.4345501 -0.35164407 -0.37790054 0.41559842 -0.2603695 -0.36345312
284 -0.33605504 0.45332173 0.31729084 0.3641342 0.3710968 -0.32231927 0.3128033 0.3430827 -0.34460783 -0.25393292 -0.43868148 -0.35205686 -0.381523 0.41829723 -0.25881732 -0.36728758
285 -0.31110704 0.41887707 0.31183788 0.36262503 0.3636009 -0.30615333 0.31076366 0.29293463 -0.33600566 -0.26481807 -0.4060729 -0.34108788 -0.34874105 0.40131044 -0.26073217 -0.32760084
286 -0.33110264 0.42742267 0.35639122 0.40521327 0.39850122 -0.33262166 0.31242102 0.38236064 -0.3417726 -0.28417972 -0.48594996 -0.3206439 -0.41085127 0.42489338 -0.25118306 -0.42775148
287 -0.32589164 0.4416585 0.31716347 0.3509957 0.35244632 -0.29785594 0.29228517 0.36485565 -0.32723445 -0.2534465 -0.4276717 -0.32517874 -0.34332025 0.39561906 -0.25304192 -0.36078367
288 -0.32252252 0.4579082 0.3075808 0.3660194 0.37704548 -0.31211352 0.30133066 0.33693784 -0.3334629 -0.24810688 -0.43407634 -0.33976054 -0.3689471 0.42068574 -0.24447012 -0.36306694
289 -0.34388265 0.4391893 0.31194043 0.38381106 0.37603503 -0.3377598 0.3100577 0.3713155 -0.35872045 -0.27657983 -0.41971925 -0.3463031 -0.3984355 0.4151393 -0.23969701 -0.38078383
290 -0.35212496 0.4475182 0.3278915 0.34679607 0.38605398 -0.3367747 0.31072825 0.36399043 -0.35130048 -0.2572868 -0.4360876 -0.34768587 -0.39510775 0.3995251 -0.2516787 -0.37965947
291 -0.3685571 0.4723804 0.35663366 0.37076178 0.3914385 -0.3441925 0.34104565 0.3383858 -0.35044515 -0.25987542 -0.42693347 -0.3647556 -0.40675125 0.44705406 -0.2826058 -0.34198543
292 -0.23280977 0.24477682 0.2492232 0.30273354 0.25609496 -0.3089023 0.20873846 0.2326633 -0.2115251 -0.28197107 -0.2278899 -0.20131922 -0.26695868 0.2472349 -0.20498969 -0.30134553
293 -0.33749187 0.45344642 0.31851515 0.36830693 0.3742182 -0.32354516 0.31397295 0.34474394 -0.3465934 -0.25809562 -0.43660313 -0.35169235 -0.38197967 0.41748238 -0.25982305 -0.37048677
294 -0.33403307 0.45165017 0.3194731 0.36526492 0.3722488 -0.3232699 0.31301007 0.34305936 -0.34436396 -0.25469264 -0.43769792 -0.3503918 -0.38112634 0.4187063 -0.25956872 -0.36635113
295 -0.34216514 0.45324373 0.31115055 0.38175595 0.3785887 -0.32899246 0.3218326 0.35687947 -0.34609947 -0.25758725 -0.4372625 -0.3557298 -0.3826269 0.4245528 -0.2641722 -0.37036088
296 -0.32108247 0.44532472 0.303634 0.34901673 0.37558135 -0.3090137 0.3034894 0.31660104 -0.32196343 -0.23974264 -0.43331462 -0.33132643 -0.36783043 0.42520058 -0.24752122 -0.35432538
297 -0.34581494 0.46779743 0.5238511 0.5458784 0.49244562 -0.20515981 0.3362899 0.27317417 -0.38075924 -0.39973482 -0.62789893 -0.33190444 -0.7172555 0.5661843 -0.22704042 -0.5195725
298 -0.3816005 0.50303453 0.35215896 0.4526647 0.44162223 -0.3305414 0.39220923 0.37420952 -0.3956046 -0.33064067 -0.54424936 -0.38798302 -0.46846068 0.45627397 -0.2967711 -0.4310835
299 -0.30845952 0.4925005 0.36702046 0.36263293 0.3782679 -0.3275821 0.37081683 0.3387073 -0.35438594 -0.26513726 -0.4905367 -0.34349892 -0.3950308 0.44311452 -0.26399776 -0.37609342
300 -0.32321855 0.44511083 0.31302148 0.39069155 0.3850051 -0.31925738 0.2965112 0.3320155 -0.3330306 -0.26974612 -0.4091798 -0.32376516 -0.37213975 0.41792223 -0.2561541 -0.37417942
301 -0.32883787 0.44617698 0.31841803 0.3639618 0.37009528 -0.32326394 0.3166911 0.33450845 -0.34731022 -0.25683987 -0.4376242 -0.34776768 -0.3713944 0.41790718 -0.26098135 -0.36307845
302 -0.54910284 0.5067377 0.3181071 0.55636066 0.5135665 -0.33566132 0.37919527 0.33463424 -0.54052037 -0.24282737 -0.38955036 -0.53953546 -0.50079393 0.67681664 -0.29484057 -0.44186026
303 -0.32064763 0.44344258 0.3124089 0.35209972 0.3602087 -0.3181742 0.30947998 0.34231615 -0.34294385 -0.23938622 -0.44459063 -0.33117345 -0.3646462 0.40650073 -0.24857953 -0.37339938
304 -0.31874228 0.42633045 0.31065032 0.3609596 0.37032512 -0.32155368 0.30606014 0.29882747 -0.331549 -0.25030887 -0.40988445 -0.3438333 -0.36098287 0.40011632 -0.2698605 -0.3328765
305 -0.3496837 0.3943373 0.34995842 0.36069778 0.33520395 -0.33162063 0.32046106 0.32266024 -0.40218043 -0.28019896 -0.44267002 -0.3996741 -0.33609965 0.4192602 -0.2783589 -0.37095416
306 -0.3505639 0.4569036 0.32197466 0.36772177 0.37748742 -0.32672867 0.32827622 0.3455557 -0.35074076 -0.25737837 -0.45289323 -0.3571173 -0.38686264 0.42817122 -0.26867867 -0.3805424
307 -0.33591002 0.44983652 0.31962726 0.36489686 0.3694504 -0.32209802 0.3135296 0.34050906 -0.34709698 -0.2581843 -0.44364145 -0.35192028 -0.37999144 0.4158344 -0.259974 -0.36714536
308 -0.3214289 0.42135912 0.3338296 0.37412155 0.37513036 -0.36988372 0.30611074 0.40145007 -0.38317424 -0.2539286 -0.47371858 -0.3156952 -0.38004103 0.3865075 -0.23830906 -0.4244034
309 -0.3000349 0.4079316 0.3815929 0.47517288 0.38781404 -0.39618182 0.44666773 0.34857577 -0.42207727 -0.37460065 -0.6142878 -0.32052463 -0.44387025 0.49188477 -0.28172255 -0.4578952
310 -0.28068823 0.41632694 0.33525422 0.39725915 0.39046058 -0.36347374 0.35616618 0.31076398 -0.36696613 -0.2835061 -0.4105275 -0.34956542 -0.35399935 0.45662892 -0.27785355 -0.34315386
311 -0.33814627 0.44734168 0.31135717 0.36840084 0.37189326 -0.32378104 0.31123728 0.34060273 -0.34577665 -0.2595098 -0.4342503 -0.34704292 -0.3833804 0.4184282 -0.25706804 -0.37548336
312 -0.3578739 0.44351003 0.3272314 0.3647565 0.3751385 -0.3350811 0.33812484 0.31450558 -0.355213 -0.27322432 -0.42129913 -0.35649794 -0.39164492 0.4192729 -0.28334844 -0.364521
313 -0.33647794 0.4364795 0.31795603 0.3705944 0.36819106 -0.30890507 0.30788746 0.34531194 -0.34303984 -0.26733652 -0.42373914 -0.3462107 -0.36691314 0.40287295 -0.2516432 -0.3654783
314 -0.3234415 0.43150634 0.30922428 0.37239328 0.36875173 -0.3185382 0.30994183 0.32559547 -0.34530002 -0.25929323 -0.41502288 -0.34716046 -0.36053848 0.41083238 -0.26080018 -0.35066023
315 -0.4583711 0.63502514 0.45054173 0.45163414 0.4710467 -0.4686951 0.41006914 0.4905441 -0.4273883 -0.31695247 -0.5723767 -0.42557245 -0.452415 0.5893677 -0.3535767 -0.5563567
316 -0.35419688 0.44509727 0.36855656 0.38577572 0.39652288 -0.36769792 0.3282547 0.35566443 -0.3872519 -0.2932746 -0.483294 -0.36299 -0.40096778 0.42999744 -0.30343857 -0.4344511
317 -0.3342163 0.45169976 0.3181688 0.36473197 0.37111664 -0.32205698 0.31143066 0.33973473 -0.34312445 -0.25368032 -0.43399966 -0.3517758 -0.38044694 0.4182025 -0.25920996 -0.36354774
318 -0.34496632 0.47938818 0.32742688 0.3798909 0.39559355 -0.3218063 0.31979585 0.36226332 -0.35326186 -0.2672748 -0.44933698 -0.35564017 -0.3874974 0.41772318 -0.25745934 -0.37205404
319 -0.370039 0.45119083 0.3393301 0.33909848 0.35850176 -0.3146179 0.31543416 0.32722032 -0.35322124 -0.23534401 -0.45681405 -0.37852564 -0.40828958 0.43542716 -0.26628175 -0.3681643
320 -0.2773108 0.36003566 0.27024013 0.3260931 0.31963155 -0.29527304 0.26530427 0.2906394 -0.31191233 -0.25137064 -0.35046807 -0.27653545 -0.31003046 0.35291994 -0.21250518 -0.35029522
321 -0.35757548 0.48498088 0.28685424 0.35267493 0.38231415 -0.3815533 0.35224912 0.38140312 -0.41349798 -0.23579296 -0.43491343 -0.35871723 -0.37828606 0.38191915 -0.25305107 -0.38882175
322 -0.32577848 0.42889628 0.33249193 0.3369374 0.35551298 -0.3348235 0.31779054 0.34706914 -0.33836097 -0.23279676 -0.44275084 -0.32517037 -0.3637522 0.4217771 -0.25412363 -0.39392784
323 -0.3360224 0.45393872 0.31733984 0.36745036 0.3739728 -0.32386523 0.3114644 0.34304422 -0.34316352 -0.2567326 -0.4360802 -0.35074237 -0.38130334 0.41666088 -0.25960362 -0.36925846
324 -0.34300995 0.44967583 0.32403752 0.3572672 0.3656971 -0.3236014 0.30532667 0.34269285 -0.34587345 -0.26438087 -0.43249422 -0.34806827 -0.38455763 0.4059676 -0.25860745 -0.3678923
325 -0.32480606 0.4593589 0.31403148 0.39286482 0.38870582 -0.34184754 0.3278052 0.3573154 -0.33411172 -0.29800805 -0.40751484 -0.353754 -0.34650624 0.41467172 -0.2960991 -0.36367637
326 -0.31612453 0.4638857 0.30353776 0.41464433 0.41103458 -0.35822576 0.31293023 0.3742087 -0.36272132 -0.30989045 -0.4378144 -0.32788742 -0.34200484 0.42150885 -0.24650751 -0.42053244
327 -0.32705075 0.44025213 0.32880616 0.35296482 0.35907614 -0.30229962 0.3032437 0.33937472 -0.33117595 -0.25491327 -0.43366143 -0.3462303 -0.34911695 0.4039944 -0.2710161 -0.3416535
328 -0.36472806 0.38530108 0.31735128 0.2458522 0.3221914 -0.3295006 0.2822073 0.30052042 -0.286594 -0.19903857 -0.4154101 -0.30812126 -0.4105222 0.39975047 -0.25053775 -0.37341464
329 -0.36903796 0.48436788 0.3309915 0.36382776 0.39646366 -0.32416716 0.3332387 0.35683924 -0.36592072 -0.2607899 -0.47796032 -0.38478857 -0.3881409 0.42294297 -0.27644527 -0.4036561
330 -0.32184857 0.45412368 0.30496934 0.37269974 0.37180635 -0.32780808 0.28297007 0.33904353 -0.33384672 -0.25063598 -0.40963277 -0.33592466 -0.36664787 0.37967667 -0.25089383 -0.3565112
331 -0.34235665 0.477071 0.32723054 0.38522232 0.37989885 -0.36510783 0.3422277 0.35796693 -0.37197798 -0.26165926 -0.44747347 -0.37592292 -0.3750945 0.4410968 -0.275626 -0.35579857
332 -0.30247855 0.46662137 0.31774548 0.35652798 0.3810494 -0.35163072 0.32933548 0.34592995 -0.3269119 -0.26262274 -0.44371974 -0.32168424 -0.36915123 0.42407724 -0.2657973 -0.36448693
333 -0.3030225 0.4367855 0.28442037 0.4166637 0.36049765 -0.3712034 0.28275457 0.39954907 -0.38535833 -0.26050034 -0.42476195 -0.34275323 -0.33606094 0.40702507 -0.23225027 -0.42048955
334 -0.4908399 0.56341994 0.4867003 0.56129116 0.64808464 -0.48399878 0.3731594 0.5570342 -0.55936706 -0.21363045 -0.45876035 -0.5560018 -0.56767416 0.59132254 -0.37337586 -0.5934219
335 -0.2987925 0.40336114 0.29975113 0.34734392 0.35398346 -0.30868945 0.3116205 0.289303 -0.33440182 -0.25729182 -0.40956354 -0.3291105 -0.33605456 0.40073487 -0.2596838 -0.33032736
336 -0.3338758 0.4529183 0.31684348 0.36516455 0.37211758 -0.32350054 0.3133619 0.34278503 -0.34477168 -0.2563896 -0.435648 -0.34696478 -0.37932387 0.41515097 -0.2564496 -0.36802766
337 -0.33435082 0.4510038 0.3196682 0.36225072 0.37101755 -0.3216731 0.3109281 0.3390869 -0.34374782 -0.25659838 -0.4353939 -0.35015374 -0.37854257 0.415456 -0.25822017 -0.36528444
338 -0.32725236 0.4414493 0.31911585 0.3698492 0.37291402 -0.3219274 0.3221619 0.31892553 -0.3459174 -0.26247507 -0.42655513 -0.35224408 -0.37508684 0.42206812 -0.2635686 -0.35182658
339 -0.3401343 0.45390543 0.31983653 0.36366078 0.37353292 -0.31842703 0.31277138 0.33790746 -0.3419171 -0.2522593 -0.43803158 -0.35375676 -0.38402733 0.4215575 -0.25954288 -0.3648851
340 -0.30862597 0.40008196 0.2977127 0.33915085 0.33710912 -0.3118785 0.2723468 0.31640935 -0.31038415 -0.24811132 -0.3835763 -0.3102223 -0.34512967 0.36550364 -0.23437673 -0.34917098
341 -0.33593535 0.4063445 0.3749304 0.42382887 0.39280486 -0.34017536 0.32487932 0.36631888 -0.34330156 -0.3276053 -0.47356424 -0.3296536 -0.41870442 0.4412977 -0.24836577 -0.42060626
342 -0.56418866 0.5622915 0.4774428 0.54980975 0.47163 -0.38102475 0.25802532 0.47478598 -0.3348755 -0.23706952 -0.38746542 -0.42875051 -0.53690493 0.6862968 -0.35271576 -0.5398562
343 -0.37451273 0.48093155 0.3369521 0.37593523 0.40418604 -0.35094458 0.3195891 0.36487594 -0.36536098 -0.26945433 -0.46702713 -0.3822866 -0.40606847 0.43267113 -0.2964971 -0.42555112
344 -0.3444134 0.45252696 0.32143587 0.36123472 0.36931953 -0.31387982 0.30410922 0.34251758 -0.3434802 -0.2585138 -0.42736596 -0.35057983 -0.37471017 0.41246772 -0.2553222 -0.37147635
345 -0.26737782 0.30382442 0.2601048 0.3342721 0.28779015 -0.29431686 0.21935712 0.27532107 -0.26810473 -0.2736026 -0.300556 -0.2311599 -0.31268147 0.30480868 -0.17164089 -0.3673667
346 -0.3252002 0.45542338 0.30808794 0.38340312 0.38456002 -0.37003255 0.3714852 0.35062408 -0.3659123 -0.26665652 -0.48196688 -0.34802148 -0.38214004 0.42320612 -0.2956313 -0.3936364
347 -0.2948105 0.37953043 0.29880717 0.31970719 0.3232021 -0.3084863 0.29835343 0.33531383 -0.3305938 -0.2215581 -0.41581607 -0.2881863 -0.33256882 0.4042694 -0.23321952 -0.37697557
348 -0.32995158 0.43709663 0.31435227 0.34067807 0.36424097 -0.30864862 0.3079718 0.3154036 -0.3257835 -0.24282318 -0.44024748 -0.34455764 -0.36905733 0.42092773 -0.25502983 -0.3511008
349 -0.31636596 0.5571684 0.39660162 0.3733907 0.4558082 -0.53155124 0.37986076 0.44687608 -0.49780142 -0.25717765 -0.6041522 -0.42614916 -0.3243415 0.48077956 -0.37854344 -0.50430995
350 -0.35160995 0.4889222 0.35190597 0.36781105 0.39045638 -0.34895283 0.32587776 0.32458943 -0.36584157 -0.26896736 -0.4463219 -0.3977206 -0.39254752 0.4418092 -0.28557175 -0.3696006
351 -0.33603433 0.4526724 0.31988856 0.36004508 0.37294847 -0.32704687 0.31597066 0.33777666 -0.3449146 -0.25723705 -0.43486708 -0.35255533 -0.38168296 0.42106694 -0.260112 -0.37201244
352 -0.34593692 0.45027325 0.31659147 0.36811048 0.372823 -0.31589967 0.31657648 0.3471464 -0.33855456 -0.2554002 -0.44075862 -0.3450804 -0.3948863 0.41621512 -0.25766134 -0.37617096
353 -0.29121864 0.41569838 0.2741627 0.35725036 0.34218657 -0.34231514 0.2698863 0.34665567 -0.3257296 -0.24905087 -0.37814915 -0.29371706 -0.35691062 0.36933148 -0.21266317 -0.3728885
354 -0.47751874 0.6366919 0.5519856 0.529653 0.54908675 -0.47234756 0.42718512 0.47012755 -0.54614 -0.41325682 -0.62400776 -0.48552775 -0.5289795 0.6326754 -0.3571205 -0.58165395
355 -0.29233918 0.40154687 0.2893518 0.3361094 0.33954966 -0.30899414 0.28637555 0.32223314 -0.32836118 -0.24899125 -0.39186135 -0.30004427 -0.33025825 0.38547155 -0.23662111 -0.3536176
356 -0.30466247 0.43973255 0.31339097 0.38217497 0.4018614 -0.38115826 0.24540618 0.3698502 -0.37321877 -0.24233392 -0.39495465 -0.30782288 -0.36363897 0.4068106 -0.22530368 -0.40332875
357 -0.331155 0.44346988 0.3187427 0.36902493 0.37433738 -0.31902474 0.3082047 0.3353913 -0.33687028 -0.26149487 -0.42077518 -0.3395773 -0.37853783 0.4143512 -0.25909534 -0.36842883
358 -0.33405682 0.37886265 0.31309134 0.31111208 0.33021593 -0.31548876 0.25157478 0.30126828 -0.31698486 -0.22793175 -0.39884233 -0.3156273 -0.36757168 0.34357804 -0.23700677 -0.36068368
359 -0.3200035 0.43842328 0.3058147 0.36769798 0.36962464 -0.31675044 0.32807037 0.3365799 -0.34667668 -0.24472226 -0.45327884 -0.33360028 -0.36313236 0.41721368 -0.25165987 -0.37148437
360 -0.32692054 0.44630086 0.30879438 0.3751382 0.37177968 -0.31618798 0.30239338 0.34983698 -0.33758518 -0.25675032 -0.42600238 -0.3321989 -0.37380028 0.40518743 -0.24505916 -0.37314323
361 -0.33011723 0.41071236 0.30010346 0.2666257 0.33314443 -0.28677696 0.27060267 0.31461382 -0.29483086 -0.20032033 -0.42781335 -0.29705104 -0.35874942 0.41579908 -0.21954095 -0.37183872
362 -0.33697826 0.46052098 0.3335542 0.36029252 0.38540736 -0.31995273 0.31141317 0.33797827 -0.33183047 -0.26657623 -0.44112754 -0.3320908 -0.39454553 0.41971797 -0.25211656 -0.38893214
363 -0.34874725 0.441541 0.32836866 0.37766445 0.37680468 -0.32549736 0.31695014 0.3356586 -0.36350283 -0.27164677 -0.45245823 -0.35936362 -0.3785745 0.42699027 -0.25157624 -0.39394805
364 -0.3960561 0.47382063 0.31658044 0.3197205 0.3885527 -0.32491866 0.30065274 0.3385186 -0.36069715 -0.26203015 -0.40232715 -0.39454973 -0.3675733 0.37367466 -0.2787009 -0.3633126
365 -0.29512197 0.36800238 0.28897518 0.3583935 0.35021418 -0.32182658 0.30081686 0.2946278 -0.3073147 -0.2834855 -0.34348816 -0.27996844 -0.34864128 0.37836248 -0.24676298 -0.3634341
366 -0.33571297 0.46191528 0.32495695 0.37082466 0.38140252 -0.3295027 0.3202573 0.3189185 -0.3244517 -0.26998562 -0.44858107 -0.35677454 -0.38964176 0.43128026 -0.30426934 -0.3582944
367 -0.33558664 0.45166093 0.32750973 0.36371914 0.37618977 -0.33573425 0.35087237 0.34452656 -0.3551244 -0.2690195 -0.47005013 -0.3321442 -0.3799203 0.44439435 -0.2558632 -0.4008109
368 -0.25590837 0.30101982 0.4548456 0.5866768 0.44843072 -0.43389487 0.410907 0.45352942 -0.40586323 -0.3419809 -0.6670618 -0.22890842 -0.50832045 0.5725729 -0.28945988 -0.5933002
369 -0.3278172 0.4819034 0.3201848 0.43867004 0.44517887 -0.30316272 0.28830275 0.32801363 -0.36687407 -0.29940024 -0.4126826 -0.3451134 -0.4015321 0.41886812 -0.21492232 -0.3746189
370 -0.33602288 0.45165205 0.31845134 0.3645635 0.37193194 -0.32219845 0.31280407 0.34191474 -0.34290916 -0.25450718 -0.43787354 -0.35095894 -0.380915 0.4179782 -0.26030663 -0.36671683
371 -0.3368675 0.451066 0.32233354 0.3703688 0.37473834 -0.3206657 0.31307212 0.33838674 -0.33959645 -0.25883132 -0.43557915 -0.35200816 -0.38625422 0.41836855 -0.2632592 -0.3674612
372 -0.33595788 0.4507227 0.31731126 0.36752048 0.37307447 -0.3244097 0.31183282 0.34378105 -0.34381127 -0.25434348 -0.43392986 -0.3486436 -0.3807813 0.4190671 -0.2604323 -0.36728027
373 -0.30912536 0.44057834 0.30050585 0.36873007 0.3667099 -0.33094865 0.30256268 0.33632606 -0.35038602 -0.254756 -0.4237519 -0.33964914 -0.36183688 0.41084617 -0.24558426 -0.36411107
374 -0.34763297 0.43103385 0.35631025 0.35873947 0.35833865 -0.29341418 0.28783724 0.3497207 -0.25985733 -0.31699935 -0.37611577 -0.3062513 -0.3704422 0.36503792 -0.28696856 -0.34439677
375 -0.3193183 0.22385857 0.231629 0.2091521 0.20579825 -0.24486423 0.2444802 0.18918948 -0.24425489 -0.22922537 -0.34741995 -0.2611107 -0.3533552 0.34079376 -0.09092425 -0.4205465
376 -0.33723897 0.48375148 0.38546723 0.45462805 0.4681921 -0.35866836 0.40211785 0.44141594 -0.34288007 -0.33124733 -0.5049671 -0.33976308 -0.4542515 0.44088602 -0.27018544 -0.42117056
377 -0.32491824 0.42776877 0.3092155 0.35889113 0.36229828 -0.32331568 0.30532628 0.33025527 -0.3298132 -0.26020873 -0.40905425 -0.32895803 -0.37332878 0.4036227 -0.25641543 -0.36537424
378 -0.3348883 0.40344718 0.29747108 0.3109047 0.3445411 -0.304277 0.31214952 0.26563415 -0.35060778 -0.23214638 -0.43739375 -0.36085016 -0.3544968 0.4059914 -0.23691365 -0.34618303
379 -0.30054507 0.3632928 0.26642215 0.32033658 0.33361673 -0.28157172 0.3094107 0.23815194 -0.32176265 -0.25001124 -0.40925667 -0.32356268 -0.34145674 0.40836614 -0.2038659 -0.35454834
380 -0.340271 0.4954006 0.33483636 0.39740962 0.39051917 -0.33773658 0.29618517 0.33284968 -0.35417795 -0.27273417 -0.38926506 -0.41037858 -0.33291778 0.4399975 -0.30258915 -0.34230492
381 -0.34161738 0.41743198 0.31301203 0.36521643 0.36193296 -0.3248094 0.32877985 0.34268427 -0.35030857 -0.2667242 -0.425484 -0.3450682 -0.37416586 0.406949 -0.2636314 -0.3637228
382 -0.36794075 0.47328708 0.33810043 0.44615805 0.41216475 -0.3589023 0.3562444 0.38535103 -0.34560186 -0.28708643 -0.47331908 -0.391758 -0.40040237 0.486135 -0.30960715 -0.41704273
383 -0.39734456 0.4967378 0.30232257 0.42314446 0.41343707 -0.38837236 0.39710668 0.4163434 -0.37963355 -0.25865898 -0.45047498 -0.4045577 -0.36059383 0.47709337 -0.34270793 -0.40935537
384 -0.33265927 0.44683102 0.320318 0.36633798 0.37241542 -0.3274024 0.3133079 0.33481178 -0.34768292 -0.25296673 -0.4408066 -0.35061648 -0.38063014 0.4241533 -0.26203513 -0.36935562
385 -0.30971515 0.4059733 0.30228263 0.34615982 0.35251117 -0.3114278 0.29417095 0.30682552 -0.32497662 -0.2541597 -0.39106023 -0.31721896 -0.34763318 0.38616562 -0.2531758 -0.346856
386 -0.33107743 0.44219574 0.30981585 0.35721168 0.36633667 -0.32459503 0.31108513 0.3350861 -0.342286 -0.2517298 -0.4305406 -0.3465365 -0.37281778 0.41201422 -0.261742 -0.3674201
387 -0.34776926 0.4719828 0.3198757 0.37347993 0.403511 -0.33307704 0.3345776 0.32222116 -0.34594235 -0.24994549 -0.41111904 -0.3796253 -0.38532674 0.4393848 -0.29680377 -0.33077905
388 -0.33082217 0.40444523 0.34635997 0.25148904 0.3130666 -0.31573927 0.24632351 0.33090025 -0.29591265 -0.18450476 -0.4206434 -0.31126547 -0.3351099 0.35468486 -0.28285804 -0.30207482
389 -0.3269443 0.46434394 0.3594205 0.40911552 0.37646115 -0.33208397 0.37133774 0.34107476 -0.38416755 -0.29009485 -0.4910304 -0.34475076 -0.39259392 0.4559115 -0.2558804 -0.37388328
390 -0.31242368 0.42980632 0.30698636 0.36023548 0.36188453 -0.3175533 0.3115249 0.3258899 -0.34393725 -0.25539505 -0.42724162 -0.33759287 -0.35749528 0.41138226 -0.25367573 -0.35554582
391 -0.38484916 0.50284594 0.34273827 0.39892867 0.41431737 -0.36110324 0.30432597 0.3320422 -0.35912842 -0.2831167 -0.4817682 -0.3741836 -0.4463795 0.47255513 -0.32720798 -0.4432186
392 -0.31983128 0.41492295 0.32691115 0.34223726 0.35194808 -0.3121903 0.31826797 0.33079705 -0.32568133 -0.26678902 -0.41753381 -0.32619742 -0.34835428 0.4087121 -0.28910172 -0.34198326
393 -0.3865881 0.48227844 0.32510844 0.38434657 0.39771256 -0.3393672 0.30422127 0.40182832 -0.36181465 -0.25364494 -0.4706708 -0.36917594 -0.37915468 0.4455401 -0.27903813 -0.4498136
394 -0.46673763 0.67038673 0.44098377 0.5334402 0.47992823 -0.5021194 0.4763155 0.5810208 -0.49311566 -0.31937757 -0.4779539 -0.5035273 -0.43120825 0.610159 -0.34500682 -0.46158385
395 -0.33222336 0.45057964 0.3196282 0.36497766 0.36988294 -0.32238168 0.31517577 0.33835018 -0.34747332 -0.25749016 -0.43887258 -0.35358205 -0.3762336 0.41935018 -0.2622401 -0.3643669
396 -0.31264096 0.4411098 0.33740103 0.3265527 0.3489038 -0.32987887 0.33712018 0.3282632 -0.34316057 -0.23959409 -0.47277778 -0.34116676 -0.360809 0.41525665 -0.28146708 -0.3479013
397 -0.34204033 0.44854805 0.32629487 0.36387303 0.38244373 -0.3189134 0.30995184 0.3447537 -0.34383824 -0.2529224 -0.44491634 -0.3492613 -0.38746923 0.42039785 -0.25479755 -0.3851367
398 -0.33899167 0.4469716 0.33048162 0.38051227 0.37491885 -0.31795892 0.34388548 0.348863 -0.3402127 -0.27072224 -0.46320438 -0.33601972 -0.39616108 0.43778542 -0.26085025 -0.3826168
399 -0.35928148 0.45436734 0.35924894 0.4797018 0.3943856 -0.3244962 0.31456244 0.366879 -0.3582934 -0.24915037 -0.46887076 -0.38412175 -0.45156208 0.513725 -0.27492896 -0.4153897
400 -0.34798068 0.44452247 0.30814478 0.37205604 0.39042616 -0.31408757 0.28712204 0.29596475 -0.34541506 -0.24338411 -0.40121594 -0.40250668 -0.3760451 0.434058 -0.25696075 -0.36464122
401 -0.35135216 0.45669425 0.33178937 0.39663363 0.3813109 -0.33818966 0.34173426 0.37651247 -0.35911524 -0.283436 -0.46956623 -0.35535976 -0.38275543 0.44174635 -0.27099738 -0.40367803
402 -0.3182936 0.46585953 0.40294147 0.37943593 0.39856485 -0.4071145 0.36669818 0.337318 -0.3996745 -0.363586 -0.5371929 -0.35341534 -0.40863264 0.4457216 -0.29496115 -0.41877258
403 -0.3425754 0.43576413 0.31544447 0.35183463 0.36889192 -0.34316954 0.32260597 0.3197901 -0.3401516 -0.2746639 -0.40248948 -0.34161898 -0.35979366 0.43033218 -0.2809152 -0.3811283
404 -0.33422703 0.4575007 0.3297753 0.37554774 0.3762581 -0.32364655 0.3148007 0.34279636 -0.3436565 -0.26543066 -0.42637774 -0.35593024 -0.36654073 0.4119201 -0.2678933 -0.37585765
405 -0.29232475 0.42485812 0.30222967 0.39142385 0.37099704 -0.29827437 0.30133283 0.31438997 -0.3330542 -0.27972966 -0.39745367 -0.32863045 -0.32740527 0.39400044 -0.25058717 -0.33926654
406 -0.33390528 0.44667223 0.3233825 0.3686736 0.3751914 -0.32584375 0.31334275 0.33940962 -0.34401202 -0.25496036 -0.43605313 -0.34816942 -0.37906632 0.4203314 -0.2628795 -0.37178007
407 -0.3418886 0.46088073 0.33552775 0.38764688 0.38416457 -0.36028582 0.3249875 0.3625841 -0.37183315 -0.26233688 -0.45081052 -0.3771618 -0.38028914 0.43594775 -0.2826877 -0.39091867
408 -0.3535927 0.4924019 0.4068148 0.41923335 0.40911388 -0.3279604 0.35316446 0.34302175 -0.37645435 -0.30804253 -0.5144897 -0.37765777 -0.44036674 0.47342798 -0.2508777 -0.41719323
409 -0.34051684 0.4376099 0.33526018 0.3444729 0.35665378 -0.3170962 0.28874627 0.32925606 -0.30796406 -0.24457341 -0.42283642 -0.34637216 -0.37195712 0.38967153 -0.2715334 -0.3373216
410 -0.33332595 0.44679165 0.3159884 0.3630059 0.36935222 -0.32012522 0.31058958 0.3393029 -0.34140122 -0.25373623 -0.43281025 -0.34795466 -0.37774295 0.41442493 -0.2582373 -0.3647972
411 -0.36149362 0.51306003 0.36716107 0.39918858 0.41174456 -0.4129858 0.33925277 0.37329745 -0.4046661 -0.28202188 -0.44640517 -0.43141997 -0.390059 0.4707052 -0.3220738 -0.39095777
412 -0.3007789 0.37585083 0.2954729 0.31925923 0.30732572 -0.29941195 0.29547194 0.3268782 -0.34453815 -0.25466388 -0.40856147 -0.31722376 -0.32068932 0.37468058 -0.23449583 -0.35576075
413 -0.3377504 0.38822 0.28223723 0.30244112 0.3177235 -0.286228 0.26752406 0.2995487 -0.31028506 -0.22511663 -0.40548626 -0.32343313 -0.37046474 0.37778732 -0.18403918 -0.38707256
414 -0.36237335 0.4461931 0.36414504 0.3411359 0.35595676 -0.3300025 0.34837365 0.37425557 -0.3304505 -0.33110598 -0.49570668 -0.32823282 -0.40297428 0.37143958 -0.27147532 -0.39740786
415 -0.34027344 0.44552115 0.32393196 0.35821453 0.37825653 -0.33077753 0.30979466 0.33537662 -0.34628323 -0.2519521 -0.43779078 -0.3395689 -0.3788921 0.41639915 -0.25903043 -0.3880762
416 -0.338032 0.46977985 0.3171218 0.38052014 0.37389463 -0.3434956 0.29504773 0.35583055 -0.38208666 -0.24479075 -0.4218266 -0.37616533 -0.3612184 0.42029244 -0.255161 -0.36426517
417 -0.32882917 0.4487845 0.28280434 0.36797267 0.36397228 -0.3319888 0.3148552 0.34163105 -0.35488373 -0.24249671 -0.42356488 -0.33951825 -0.37927687 0.42582956 -0.23557463 -0.384903
418 -0.35363507 0.40768015 0.32909265 0.41579688 0.3562323 -0.33085042 0.3147035 0.3277194 -0.34967583 -0.30196387 -0.4250104 -0.36600175 -0.35957524 0.37275943 -0.2813612 -0.3508286
419 -0.35820633 0.4403929 0.32373318 0.2963974 0.3422636 -0.33507898 0.34053805 0.36489034 -0.35382608 -0.25483012 -0.46488476 -0.3259498 -0.3378515 0.42641142 -0.2920934 -0.39548364
420 -0.38793033 0.4436078 0.35013244 0.3891787 0.3847615 -0.29356107 0.29067805 0.32261857 -0.3175184 -0.23697084 -0.38640758 -0.38245523 -0.37157702 0.47014284 -0.24900316 -0.3937149
421 -0.33051345 0.46273932 0.33576885 0.37076077 0.38118616 -0.34244126 0.3402169 0.31457928 -0.35093418 -0.26755902 -0.43201616 -0.3708983 -0.37745345 0.4482413 -0.30022556 -0.33529848
422 -0.375761 0.4341126 0.34720355 0.45137647 0.41950843 -0.37941298 0.29585233 0.39867982 -0.3896576 -0.25287843 -0.4704016 -0.37716848 -0.40205163 0.4929333 -0.30515316 -0.45690668
423 -0.32843256 0.4331333 0.30809215 0.34874862 0.3609282 -0.30868414 0.31198588 0.31976148 -0.34139338 -0.24765675 -0.4391312 -0.34768313 -0.3678744 0.41695246 -0.24791832 -0.35971543
424 -0.33232716 0.44550186 0.31545395 0.36175266 0.36803645 -0.32013428 0.31121272 0.33791882 -0.34135985 -0.253326 -0.43334484 -0.34677804 -0.37615752 0.41426754 -0.25825346 -0.36442468
425 -0.3438137 0.45942515 0.3343148 0.42119586 0.39977223 -0.3522564 0.3571015 0.37071723 -0.37848815 -0.29832676 -0.4582125 -0.3688695 -0.37747368 0.4424023 -0.28987274 -0.38591796
426 -0.33256656 0.47864178 0.31899512 0.3741384 0.39685264 -0.37675527 0.3289899 0.34661496 -0.3809813 -0.27765414 -0.45945632 -0.38220096 -0.3670853 0.42035624 -0.28412908 -0.37946382
427 -0.34771675 0.44133216 0.32193393 0.36735004 0.37887278 -0.31138158 0.33132368 0.33872414 -0.33135247 -0.25955096 -0.45225513 -0.34228882 -0.37247512 0.41626674 -0.26817814 -0.37276787
428 -0.33419794 0.4563298 0.32140255 0.36391252 0.37324178 -0.3260631 0.30956918 0.34218 -0.3437582 -0.2551845 -0.43693775 -0.35174236 -0.38051948 0.4188421 -0.2609883 -0.36703598
429 -0.28031993 0.42557755 0.29692468 0.37416002 0.36282507 -0.3378266 0.31675783 0.32651708 -0.35082 -0.26615387 -0.4178526 -0.31136638 -0.3315673 0.3984531 -0.24418752 -0.355652
430 -0.33381733 0.44240746 0.3230856 0.357285 0.37633967 -0.2902431 0.30459324 0.32057703 -0.32560974 -0.25034747 -0.44103682 -0.335817 -0.3744072 0.40511367 -0.24414107 -0.3632294
431 -0.33243626 0.4547237 0.31575558 0.3628035 0.3720339 -0.32406873 0.30933884 0.3444582 -0.3426435 -0.25082657 -0.4357118 -0.34574133 -0.37931386 0.41618103 -0.25777695 -0.3660747
432 -0.3296576 0.44082114 0.3160759 0.36170286 0.36699355 -0.32259664 0.31490174 0.33578774 -0.340519 -0.25788903 -0.42724022 -0.34092346 -0.3760429 0.4142363 -0.2611508 -0.3665452
433 -0.31529152 0.4203332 0.304982 0.37317255 0.36948854 -0.29927915 0.30351108 0.29616946 -0.32271987 -0.26553947 -0.390049 -0.3393936 -0.34289363 0.3942091 -0.26215377 -0.3427137
434 -0.31639174 0.44852415 0.3077898 0.34869844 0.3552747 -0.3351961 0.29780757 0.32510486 -0.34970894 -0.24933 -0.4173526 -0.3313113 -0.37805018 0.3838314 -0.2376407 -0.36042744
435 -0.3303419 0.4386872 0.31477538 0.35733256 0.36069915 -0.31604844 0.30923107 0.33928913 -0.34344453 -0.25469404 -0.43193007 -0.34547338 -0.37002677 0.40988526 -0.2551572 -0.36453256
436 -0.4610666 0.75596243 0.77308744 0.36732554 0.63351893 -0.39964023 0.33343697 0.40771684 -0.6337925 -0.37527847 -0.72566515 -0.5128867 -0.47284752 0.57721114 -0.31123394 -0.66818774
437 -0.3462454 0.43158498 0.3342393 0.42136428 0.3809712 -0.327179 0.2798071 0.3197581 -0.36651483 -0.30510518 -0.42314705 -0.37196052 -0.37672496 0.40724304 -0.26552522 -0.39110032
438 -0.32933703 0.43403044 0.3191082 0.40125582 0.3858282 -0.31181905 0.32446522 0.30395746 -0.33358052 -0.28048933 -0.39336175 -0.35695392 -0.36870578 0.40270767 -0.27570054 -0.33227515
439 -0.32299903 0.4375512 0.322334 0.36409763 0.36554825 -0.31669247 0.31475753 0.31271946 -0.33949 -0.27329057 -0.4210733 -0.341102 -0.36536616 0.39886123 -0.26476708 -0.35297927
440 -0.334614 0.45789632 0.3188421 0.37205458 0.37719625 -0.3311302 0.3172203 0.34565046 -0.34921688 -0.258461 -0.44073215 -0.35362113 -0.3811087 0.42093906 -0.26629505 -0.3692552
441 -0.35760403 0.4635333 0.34754795 0.38146 0.38668793 -0.33578187 0.34393892 0.33242303 -0.35362887 -0.2490615 -0.4439551 -0.3739573 -0.4036294 0.4558181 -0.29139337 -0.35913652
442 -0.33696187 0.45038533 0.32014298 0.36132073 0.37147504 -0.3225566 0.31336084 0.33948344 -0.34088266 -0.25427988 -0.43634033 -0.34946102 -0.38251504 0.4164806 -0.26378784 -0.36455357
443 -0.32878387 0.45673528 0.32615852 0.3522528 0.37202585 -0.32692218 0.31480157 0.3459785 -0.35792825 -0.25666818 -0.4594994 -0.35421622 -0.36468625 0.41568926 -0.25438604 -0.3717677
444 -0.35715815 0.4571674 0.33141893 0.38208023 0.38078362 -0.32324636 0.3110195 0.35992634 -0.35366824 -0.2565734 -0.43956968 -0.361201 -0.38381073 0.4353714 -0.2617241 -0.38948953
445 -0.29136994 0.3993597 0.2881 0.34392697 0.3475797 -0.32356313 0.29185432 0.29245752 -0.33772126 -0.2560984 -0.39559028 -0.30692053 -0.32640907 0.38835415 -0.24637583 -0.34963477
446 -0.35643142 0.44579804 0.3251243 0.44875792 0.39967853 -0.34743196 0.34898576 0.42257345 -0.41591263 -0.26042512 -0.4951341 -0.3591544 -0.40096417 0.45072657 -0.26327533 -0.41748708
447 -0.30814472 0.3423702 0.2935881 0.327931 0.32484677 -0.31905723 0.29200745 0.27914178 -0.28797138 -0.2785544 -0.33561823 -0.27992177 -0.35389662 0.36091137 -0.25525805 -0.3564525
448 -0.3365686 0.44140482 0.33382183 0.36196065 0.3596531 -0.3261084 0.32570496 0.34358248 -0.36021075 -0.26965284 -0.4457861 -0.35617813 -0.36657265 0.41695035 -0.2690971 -0.38531232
449 -0.35777277 0.40654737 0.33523726 0.38538393 0.33187675 -0.32050735 0.3574515 0.33011848 -0.36516982 -0.29873127 -0.39779207 -0.34121588 -0.3713286 0.43240386 -0.27366674 -0.3955177
450 -0.3653754 0.47088674 0.32622388 0.33449352 0.37726125 -0.31670848 0.2885466 0.31307918 -0.3347884 -0.2458171 -0.42649758 -0.38248706 -0.38360372 0.44323257 -0.26645377 -0.35805947
451 -0.33276254 0.43208438 0.3008058 0.32431385 0.352227 -0.29692197 0.29157206 0.31100217 -0.32958746 -0.23528919 -0.43004185 -0.33341697 -0.36263266 0.3972638 -0.22475211 -0.37543303
452 -0.31681216 0.47431415 0.3548786 0.40013474 0.42169797 -0.37243968 0.34341228 0.37180573 -0.33896464 -0.27325693 -0.46492448 -0.37102193 -0.4036109 0.44829774 -0.2965492 -0.3875071
453 -0.3293497 0.46796846 0.3197773 0.38170654 0.38220236 -0.3323617 0.3142309 0.34038833 -0.35043982 -0.2684046 -0.43284258 -0.3642164 -0.38298678 0.4218409 -0.26225868 -0.36733702
454 -0.33380023 0.44717464 0.31977305 0.37108815 0.37176988 -0.32226288 0.31528777 0.3396189 -0.34457162 -0.2631026 -0.43546063 -0.35168287 -0.37713555 0.41745672 -0.26280996 -0.36607558
455 -0.37053275 0.51071596 0.33949178 0.36381507 0.40299782 -0.3408803 0.31813416 0.36111888 -0.3760921 -0.29321045 -0.4423842 -0.39522418 -0.40525386 0.41790384 -0.25821072 -0.37837446
456 -0.340664 0.4597796 0.32457396 0.32036957 0.3601008 -0.32469705 0.33405712 0.34031075 -0.34363574 -0.25481045 -0.4638959 -0.32566053 -0.38447475 0.40226454 -0.26079798 -0.38511503
457 -0.31391892 0.40899903 0.296765 0.3217031 0.32802898 -0.31431124 0.30134276 0.3566432 -0.34965482 -0.22765356 -0.43809804 -0.31366238 -0.3548585 0.4118715 -0.2242221 -0.39122322
458 -0.32757127 0.39912605 0.32988453 0.34778184 0.3487127 -0.3093383 0.3763391 0.29790193 -0.38028324 -0.30043375 -0.48929185 -0.3022692 -0.3480121 0.45316094 -0.2043275 -0.3979591
459 -0.33862948 0.46436518 0.31911415 0.36338297 0.37437618 -0.33791918 0.310886 0.34989735 -0.34666187 -0.25601968 -0.4307648 -0.3483397 -0.36709502 0.41255346 -0.26948386 -0.37344724
460 -0.32414573 0.44311994 0.3435045 0.34476945 0.3667347 -0.3451969 0.309386 0.3398265 -0.35424036 -0.24933021 -0.44789517 -0.36375776 -0.36429563 0.41152203 -0.279442 -0.34807742
461 -0.57150215 0.6168338 0.5253855 0.5380563 0.5198047 -0.43520668 0.31574798 0.42130747 -0.44793287 -0.47420752 -0.49862856 -0.60301626 -0.5057771 0.60861266 -0.37680373 -0.58348507
462 -0.3774088 0.4233948 0.3760855 0.26211357 0.31852877 -0.23837397 0.30133942 0.29552236 -0.32365698 -0.21193817 -0.5214349 -0.4062794 -0.33279952 0.39487076 -0.27182257 -0.3004292
463 -0.29776618 0.41248167 0.29594153 0.34515244 0.31796077 -0.34226626 0.2656164 0.37117746 -0.36659247 -0.2357899 -0.39454386 -0.3214862 -0.33474618 0.33733708 -0.23251826 -0.35378242
464 -0.32270563 0.44466776 0.33818394 0.35459062 0.36762387 -0.3299534 0.30732515 0.32586378 -0.3469513 -0.25771564 -0.43388948 -0.34768155 -0.36316648 0.42477366 -0.2647794 -0.3755966
465 -0.35838306 0.49544594 0.32897273 0.43235773 0.4127177 -0.34794998 0.36157984 0.3911796 -0.32889506 -0.28618473 -0.4487283 -0.36874822 -0.45865685 0.45529503 -0.28755695 -0.367521
466 -0.30428413 0.43244123 0.31226867 0.37261212 0.3656635 -0.3404198 0.29860985 0.34331197 -0.3355546 -0.25648504 -0.3986946 -0.31198302 -0.36263314 0.4034463 -0.2423344 -0.37714446
467 -0.33885878 0.45004714 0.341938 0.40013772 0.3815189 -0.36374488 0.33899665 0.35388768 -0.3841693 -0.28834635 -0.4768791 -0.36291024 -0.39610374 0.45443815 -0.27331764 -0.40083206
468 -0.33461574 0.44930944 0.31901625 0.35994902 0.36920875 -0.3189707 0.3145486 0.34629044 -0.34170392 -0.25123936 -0.44215173 -0.34681484 -0.3785327 0.4165279 -0.25982577 -0.36608472
469 -0.33223236 0.475796 0.32580552 0.37587777 0.3808012 -0.3329512 0.3569482 0.3618429 -0.36063966 -0.29263622 -0.48300582 -0.34785837 -0.39657578 0.42003542 -0.25906545 -0.38452208
470 -0.32323262 0.59046215 0.42228213 0.4104681 0.39920673 -0.39006647 0.41718924 0.37848133 -0.38943833 -0.30117774 -0.4963707 -0.41181687 -0.4076168 0.4976322 -0.34116954 -0.35071203
471 -0.33674008 0.4461854 0.31336993 0.35058048 0.3656736 -0.32941255 0.30366647 0.34072375 -0.33554524 -0.24443173 -0.4297886 -0.34030476 -0.38938054 0.41347402 -0.2513441 -0.3705736
472 -0.3175668 0.42246315 0.31920338 0.31315598 0.34399214 -0.31303707 0.2862639 0.33948284 -0.31701615 -0.2318851 -0.4234808 -0.3142283 -0.3468292 0.39870805 -0.25690702 -0.34779623
473 -0.39119834 0.47402298 0.30129385 0.32646617 0.3718059 -0.3635405 0.3343149 0.3879186 -0.36992228 -0.2510462 -0.44328168 -0.3683557 -0.37195998 0.3813498 -0.29522866 -0.3772491
474 -0.33469468 0.44800407 0.33385298 0.36704993 0.37044105 -0.32142422 0.3302563 0.36871406 -0.35353166 -0.252884 -0.45918572 -0.32551184 -0.36957765 0.42143795 -0.24853382 -0.3971572
475 -0.35128805 0.49879092 0.340931 0.35144427 0.39206347 -0.33034816 0.32049727 0.34260938 -0.35430565 -0.26186407 -0.44201466 -0.3791275 -0.3851312 0.42736438 -0.27186427 -0.36056253
476 -0.3367581 0.45540777 0.34415415 0.3773109 0.37991974 -0.315989 0.3202323 0.3611206 -0.3294811 -0.2778096 -0.46434107 -0.3287041 -0.39461118 0.43443975 -0.25075144 -0.38536772
477 -0.3503824 0.45088667 0.3330133 0.36697102 0.36937398 -0.3201165 0.32041782 0.33803102 -0.34301308 -0.2603518 -0.43838802 -0.3609916 -0.3828957 0.42487046 -0.2722436 -0.37727898
478 -0.34174392 0.4556748 0.3257964 0.36873347 0.3810788 -0.31638297 0.31364676 0.34826 -0.34599555 -0.26332855 -0.44440165 -0.34806225 -0.3813706 0.4147752 -0.25566554 -0.37653992
479 -0.35747975 0.43658856 0.41292924 0.40477842 0.35377362 -0.33116984 0.305143 0.41150746 -0.34938687 -0.32045478 -0.48638433 -0.33947203 -0.3712911 0.42684135 -0.2907161 -0.4353724
480 -0.33383378 0.44839263 0.32033885 0.3731002 0.37140438 -0.3190458 0.30590418 0.35546315 -0.3441092 -0.2615641 -0.46024522 -0.33967248 -0.39017963 0.4149964 -0.23952413 -0.3931515
481 -0.3361828 0.44862464 0.31792477 0.36361533 0.3711949 -0.3243613 0.31289515 0.33996224 -0.34608793 -0.25440413 -0.43415132 -0.35597214 -0.37744138 0.4175 -0.2627381 -0.36344403
482 -0.3159227 0.4074735 0.305973 0.38152927 0.37424493 -0.30525526 0.30153462 0.29591596 -0.31285974 -0.28186056 -0.3636348 -0.3155738 -0.35632855 0.38857764 -0.26521248 -0.35286164
483 -0.3355864 0.44542855 0.3247171 0.37321478 0.3731213 -0.32816058 0.32796407 0.34078133 -0.34763637 -0.2691846 -0.44141787 -0.34977663 -0.37927902 0.42498398 -0.27009913 -0.3736039
484 -0.3523421 0.46010342 0.4524337 0.439376 0.39268705 -0.34206495 0.42244145 0.21001634 -0.55794513 -0.30132663 -0.73448515 -0.38502696 -0.45953298 0.5002634 -0.3774256 -0.51573926
485 -0.38290063 0.4693008 0.46232584 0.51738346 0.45104903 -0.4487368 0.3493977 0.43453184 -0.5077906 -0.35058555 -0.6047971 -0.4081109 -0.44278625 0.552544 -0.29739863 -0.54184544
486 -0.30739963 0.42740044 0.33626524 0.3637506 0.3752211 -0.3093981 0.30240363 0.31561938 -0.3197954 -0.2667895 -0.4380466 -0.32800433 -0.377376 0.41027364 -0.25241265 -0.36692232
487 -0.3569299 0.45334548 0.32782596 0.40784356 0.40446612 -0.33342317 0.3136938 0.35522637 -0.35659784 -0.27669948 -0.4614485 -0.3515033 -0.42991346 0.42231113 -0.26604173 -0.3807165
488 -0.332618 0.45088214 0.32132465 0.36428446 0.37402633 -0.32320535 0.31257948 0.34101483 -0.34701028 -0.25898153 -0.4404825 -0.35043535 -0.38014868 0.41700587 -0.26171967 -0.36682242
489 -0.3333769 0.45279536 0.32409015 0.3697316 0.3744934 -0.32643494 0.31151694 0.34313783 -0.34916392 -0.26134127 -0.44119662 -0.35173833 -0.3771367 0.42196053 -0.25697905 -0.3709916
490 -0.3404197 0.4399955 0.31665295 0.34876928 0.36060548 -0.31445912 0.30850515 0.32677567 -0.3429814 -0.24937534 -0.43429384 -0.35211337 -0.380585 0.40991005 -0.25044033 -0.3643301
491 -0.34415206 0.52580994 0.4463126 0.42238155 0.4268936 -0.3894239 0.42535093 0.31117448 -0.43421832 -0.22648428 -0.467673 -0.3982016 -0.4365192 0.6030571 -0.3345733 -0.37889287
492 -0.351917 0.44976002 0.32588577 0.37785074 0.39893544 -0.3306392 0.30579647 0.35449666 -0.35818088 -0.27252918 -0.4607103 -0.3492346 -0.3927106 0.4150763 -0.2555245 -0.39894402
493 -0.3999725 0.60607004 0.43229508 0.45633912 0.3711854 -0.45158163 0.3638068 0.36083752 -0.35918874 -0.31114843 -0.6119485 -0.4589294 -0.56761277 0.6834889 -0.38368988 -0.62350786
494 -0.3241424 0.44477853 0.32417473 0.36691737 0.3714261 -0.32568973 0.29675785 0.33745456 -0.3471617 -0.24707475 -0.42651516 -0.35108876 -0.37452498 0.42089254 -0.25799918 -0.3658917
495 -0.31904152 0.4346858 0.29538262 0.34566525 0.35019693 -0.3166982 0.3041338 0.34839746 -0.35140336 -0.24499592 -0.43662587 -0.33243924 -0.3658802 0.4145454 -0.22870524 -0.3816353
496 -0.38397467 0.49578625 0.4061861 0.45085353 0.42838037 -0.37209752 0.3157768 0.3411733 -0.39238366 -0.26626244 -0.44957682 -0.43311742 -0.46224493 0.5307774 -0.31827474 -0.42221248
497 -0.34481984 0.5328194 0.37047383 0.40309888 0.40148792 -0.37392196 0.36040467 0.36956093 -0.34940574 -0.31224212 -0.44088507 -0.40691516 -0.4169289 0.46015137 -0.30024406 -0.34110162
498 -0.32848087 0.39644465 0.32813606 0.36794907 0.34757274 -0.3475172 0.30389142 0.3367086 -0.3820743 -0.28622693 -0.42234468 -0.34928882 -0.36986488 0.40358573 -0.2661601 -0.37658063
499 -0.31335485 0.4134674 0.30426684 0.35194132 0.3666991 -0.3158942 0.32395637 0.3090882 -0.3366308 -0.25764075 -0.41747424 -0.32948402 -0.3523649 0.41362634 -0.25671953 -0.3458491
500 -0.3266918 0.44205457 0.31554642 0.3595173 0.36765614 -0.3193012 0.31173012 0.33722392 -0.3394172 -0.24658968 -0.43239367 -0.3413884 -0.3699805 0.4186964 -0.26031443 -0.36199108
501 -0.37776828 0.4394086 0.34254104 0.35901996 0.3643649 -0.30559373 0.337814 0.3637559 -0.41349024 -0.2828133 -0.4885309 -0.3552035 -0.35980982 0.36440563 -0.23931193 -0.39286268
502 -0.35004002 0.39057678 0.34081694 0.3284484 0.33059135 -0.2796352 0.31747437 0.32347578 -0.29021937 -0.27563512 -0.42469972 -0.3272266 -0.36261973 0.42385504 -0.2539419 -0.37868866
503 -0.22014013 0.3982057 0.2424878 0.38481656 0.3532255 -0.3445105 0.2928532 0.313604 -0.3517757 -0.2693144 -0.35791886 -0.26811343 -0.29764643 0.38081867 -0.22154583 -0.33895195
504 -0.33383965 0.4375359 0.3313463 0.35426873 0.3556447 -0.31113774 0.30555794 0.31901821 -0.35791725 -0.24704783 -0.4453159 -0.37117627 -0.38972747 0.43882522 -0.2446781 -0.38028643
505 -0.37675226 0.49044317 0.34667838 0.3876411 0.41292495 -0.35640144 0.33322448 0.35017303 -0.37486115 -0.30271262 -0.4648944 -0.3862355 -0.41456032 0.44809893 -0.2780327 -0.4068407
506 -0.34269002 0.4633693 0.3300716 0.36463252 0.38118365 -0.32455048 0.3325643 0.3442783 -0.3394171 -0.2912734 -0.48097023 -0.34464508 -0.41090515 0.41578558 -0.25706792 -0.39283228
507 -0.3325906 0.42363274 0.31481165 0.345933 0.34988767 -0.3112115 0.3173488 0.34827432 -0.34700805 -0.24543227 -0.44436792 -0.33211762 -0.37383577 0.4108514 -0.23542023 -0.3855532
508 -0.32712823 0.43368304 0.31446064 0.36180052 0.35500038 -0.30355355 0.29975703 0.34553245 -0.3413124 -0.2555198 -0.42630604 -0.340727 -0.3568179 0.3988558 -0.2461615 -0.36785445
509 -0.3362909 0.4525614 0.31513375 0.3642402 0.3720197 -0.32632244 0.3107367 0.3476277 -0.34610358 -0.25249404 -0.43428323 -0.34914973 -0.37610906 0.41571504 -0.2593607 -0.3675328
510 -0.33674905 0.479108 0.3344048 0.36010656 0.375867 -0.33908138 0.33831573 0.3520065 -0.35098213 -0.26526028 -0.45457935 -0.34690484 -0.38621038 0.43413442 -0.26705518 -0.38333717
511 -0.31815547 0.45837855 0.31321365 0.3551548 0.38931087 -0.36019456 0.33138156 0.30090368 -0.3335254 -0.28207985 -0.3984173 -0.36279318 -0.3691963 0.42641544 -0.30758777 -0.37077227
512 -0.32444638 0.42828646 0.30487382 0.34775212 0.35677338 -0.3156081 0.30691323 0.3273752 -0.34212777 -0.24562621 -0.4290748 -0.3373186 -0.36839363 0.41095513 -0.24406016 -0.36728886
513 -0.3121828 0.42067373 0.33319685 0.3236003 0.36042577 -0.32580438 0.31145972 0.3153424 -0.29374266 -0.27106327 -0.41921914 -0.2954996 -0.35991937 0.4333934 -0.28130454 -0.36394912
514 -0.33380786 0.45013392 0.31737742 0.36692324 0.3716002 -0.32355157 0.3140313 0.34277302 -0.34326306 -0.25554433 -0.43786535 -0.34927735 -0.38215867 0.41857132 -0.26004055 -0.3689568
515 -0.32702622 0.42149836 0.306325 0.3395593 0.34913713 -0.31023225 0.30943003 0.33005086 -0.34537932 -0.23880267 -0.437315 -0.33433494 -0.37025362 0.41328698 -0.23546425 -0.3789235
516 -0.35510725 0.50153995 0.34680352 0.41218677 0.38083097 -0.36575717 0.30442756 0.40190187 -0.39375213 -0.269622 -0.45395687 -0.42575347 -0.3544318 0.43256125 -0.3159542 -0.3857648
517 -0.33250353 0.48281577 0.36203063 0.35322702 0.37680972 -0.36706448 0.33393073 0.3287585 -0.37990138 -0.27720967 -0.4850613 -0.3800431 -0.3825094 0.42906132 -0.28341404 -0.3794473
518 -0.3369561 0.44456866 0.32216406 0.36090904 0.37197247 -0.3258089 0.31325606 0.3404937 -0.34163457 -0.2576942 -0.4372344 -0.34270176 -0.37608516 0.4108094 -0.26714373 -0.36999536
519 -0.3656893 0.42161426 0.32194978 0.41040227 0.39424378 -0.3694194 0.32129753 0.333925 -0.3165027 -0.33674255 -0.374406 -0.35025844 -0.37202173 0.43673444 -0.31266126 -0.41594
520 -0.31505254 0.44849938 0.31962803 0.34772712 0.37540427 -0.32482883 0.34683794 0.34101516 -0.33014932 -0.30814838 -0.44361204 -0.31479824 -0.36007065 0.37844115 -0.2575812 -0.3745303
521 -0.31455046 0.4845808 0.30976227 0.35059357 0.3638032 -0.35406944 0.31804696 0.32034937 -0.36405718 -0.24857663 -0.45951435 -0.33959502 -0.38251388 0.45885444 -0.21311513 -0.41510603
522 -0.54112965 0.64378864 0.5871707 0.48989478 0.5449421 -0.4611615 0.33416152 0.42140585 -0.4728919 -0.45817918 -0.6003107 -0.53682643 -0.6088756 0.59804434 -0.39077437 -0.6130064
523 -0.35777038 0.486537 0.33954552 0.40860307 0.43393114 -0.41099223 0.35472646 0.4244321 -0.45157248 -0.2928507 -0.5136433 -0.3996458 -0.38632327 0.42381087 -0.28714234 -0.44259956
524 -0.32199827 0.43650344 0.32109198 0.3940008 0.36914265 -0.35988823 0.32171777 0.34203088 -0.37142202 -0.29997796 -0.43078437 -0.357601 -0.3731662 0.4094606 -0.27683413 -0.3671097
525 -0.34997162 0.4325563 0.34056246 0.39812836 0.3784921 -0.35182846 0.34325945 0.35211688 -0.3697 -0.256238 -0.44710577 -0.35254568 -0.39558136 0.4554352 -0.28210863 -0.39832884
526 -0.34064308 0.46013802 0.32882705 0.36228654 0.3737181 -0.33357015 0.3193749 0.3422298 -0.3400157 -0.25381175 -0.43483412 -0.36055866 -0.39129284 0.4325474 -0.27179146 -0.36380672
527 -0.28279004 0.40540338 0.30331957 0.26834095 0.327742 -0.4215611 0.22978662 0.38575035 -0.28678644 -0.18877375 -0.32346457 -0.21327083 -0.368738 0.3346703 -0.2900066 -0.3405072
528 -0.33189163 0.43675435 0.31196252 0.35671213 0.3650893 -0.31479865 0.3049604 0.33137703 -0.33768675 -0.252714 -0.42690614 -0.3430878 -0.36955813 0.4112752 -0.25274748 -0.3668486
529 -0.32572094 0.4299302 0.31219086 0.34317222 0.3530141 -0.311794 0.31139803 0.3291585 -0.33536834 -0.25176185 -0.44196635 -0.34106332 -0.36628345 0.4183628 -0.24974248 -0.36245194
530 -0.34291038 0.45476475 0.31224412 0.388064 0.37571713 -0.33213013 0.30552107 0.35093674 -0.3509566 -0.27596435 -0.45121577 -0.36062086 -0.39510274 0.42581448 -0.26262254 -0.37512857
531 -0.3358298 0.45244277 0.3193711 0.36299717 0.36970425 -0.32522258 0.3108548 0.34572396 -0.34469885 -0.25335747 -0.43824568 -0.35093164 -0.38045833 0.4156933 -0.2601311 -0.36622137
532 -0.35060886 0.4535473 0.323685 0.37145987 0.36271802 -0.29189768 0.2923636 0.33080128 -0.3329473 -0.28374943 -0.40700775 -0.36327013 -0.36689657 0.40231478 -0.24119729 -0.3664799
533 -0.33574533 0.44615906 0.31751734 0.351485 0.36741844 -0.31622264 0.31022403 0.33011764 -0.33588278 -0.24767587 -0.4389785 -0.3493786 -0.37747353 0.4185676 -0.25765526 -0.3597809
534 -0.33078787 0.42399517 0.29741666 0.34306493 0.352301 -0.30790046 0.29993117 0.32964534 -0.33412674 -0.24495298 -0.4246742 -0.3317778 -0.37285548 0.4082779 -0.23058951 -0.37896585
535 -0.43522322 0.59075487 0.37646994 0.43109518 0.34750775 -0.45573387 0.45363277 0.39510068 -0.5581832 -0.31472313 -0.46273386 -0.45555773 -0.41750517 0.541557 -0.30712056 -0.34341013
536 -0.3783121 0.5049523 0.30319667 0.3812118 0.43172777 -0.41694814 0.31707317 0.3990287 -0.4611265 -0.23707025 -0.5430551 -0.43336606 -0.39839995 0.41429478 -0.32306194 -0.49577194
537 -0.3626013 0.4450862 0.29292798 0.3619228 0.36918023 -0.32539985 0.3152485 0.37540725 -0.36969706 -0.24419892 -0.44056216 -0.35176992 -0.3647087 0.42193583 -0.24144341 -0.41979945
538 -0.3366732 0.45380723 0.32010582 0.3864664 0.39180547 -0.31188494 0.31934345 0.34944752 -0.3256805 -0.28088066 -0.43998834 -0.3308279 -0.39045715 0.4148698 -0.26291376 -0.37327263
539 -0.308899 0.414859 0.31825387 0.37670195 0.40280157 -0.33990946 0.35554814 0.28004572 -0.32143322 -0.33902037 -0.41171795 -0.31107208 -0.36583722 0.4188138 -0.29461077 -0.38303325
540 -0.43423396 0.52972424 0.38755786 0.4782065 0.442544 -0.36529392 0.45162034 0.45988974 -0.38256794 -0.22439916 -0.53185415 -0.3589366 -0.40760538 0.5686384 -0.330033 -0.49533224
541 -0.31069815 0.43928468 0.2993615 0.35815027 0.36457923 -0.33307242 0.31369883 0.36479312 -0.33181816 -0.23858008 -0.42967093 -0.29627427 -0.35408285 0.41500103 -0.2582086 -0.38970542
542 -0.3239812 0.432055 0.3163135 0.3614165 0.3597201 -0.31291592 0.3146807 0.32914877 -0.3458017 -0.26088125 -0.43096164 -0.34959793 -0.3590444 0.4071982 -0.2629985 -0.35152963
543 -0.33975205 0.43712026 0.3655309 0.41181782 0.39889807 -0.37444338 0.34588817 0.34965947 -0.35089752 -0.31933224 -0.5320932 -0.35120887 -0.42084193 0.43516496 -0.31698868 -0.4502606
