2708 128
0 -0.05826214 -0.085518956 0.028026177 0.058521383 -0.11092153 -0.06826128 -0.124780774 -0.1274966 0.025027666 0.12592936 -0.11345745 0.05929418 0.096974336 -0.04991772 0.034877315 0.08410469 0.05913847 0.03542088 -0.14030617 0.12367602 0.02778913 -0.06785006 0.08959359 0.086097166 0.023812516 0.08324971 0.15797125 -0.025328532 -0.01716606 0.023019027 -0.08790514 0.08599202 -0.10334123 0.09659066 0.019200101 0.051688205 0.090424925 0.031739313 0.11430201 0.08074279 0.10395808 0.038329665 0.082379535 -0.07639894 0.027270691 0.07636538 -0.008009197 0.009207133 -0.17317346 0.02261642 0.1290685 0.097417705 0.04881169 -0.0696828 0.07463933 -0.06534383 -0.04668039 -0.0068208147 -0.03700208 -0.10467375 0.024965884 0.034198858 -0.023982704 -0.123604275 -0.028315632 0.088126175 -0.056130983 -0.012152133 0.01932367 -0.03321289 -0.07347415 0.13208985 0.118897595 -0.009203016 0.045766547 0.034283902 -0.033877514 0.09733235 0.060499124 0.044970438 -0.13685864 0.10131194 -0.051335044 0.06711443 -0.013550848 -0.021307245 0.09943189 -0.013598023 0.017282207 0.05351576 -0.019428851 -0.109550476 -0.054886356 0.028698057 0.10815513 0.111545764 -0.086457334 0.017641889 0.10509317 -0.14004892 0.11333401 0.07124498 0.13160196 -0.11525314 -0.14099315 0.06948047 0.08656545 0.124365136 0.032087974 -0.09555461 -0.049043346 0.081287816 -0.08641584 0.12052711 0.115743384 -0.07307633 0.06935096 -0.09417692 0.022001058 -0.004590418 -0.072511226 -0.08987187 0.05730865 0.08420287 -0.014115926 -0.031270027 -0.02959624 -0.0001563672
1 -0.069116704 -0.09073193 0.043924123 0.034276627 -0.120805 -0.056547433 -0.13998362 -0.13787238 0.019055916 0.13651283 -0.12189987 0.03257031 0.0977701 -0.042258948 0.02862985 0.099558964 0.061196536 0.04462732 -0.14917822 0.12811053 0.0225983 -0.08315175 0.10771874 0.10887915 -0.009520711 0.075765565 0.15950596 -0.03715454 -0.030207895 0.032889973 -0.10274199 0.09966366 -0.13650297 0.09327755 0.041283224 0.03946041 0.098298475 0.012165219 0.121794276 0.09944516 0.11320735 0.031244759 0.096176535 -0.107286625 0.033196565 0.06426207 0.026022185 0.021821516 -0.1635149 0.016867468 0.12589131 0.098271616 0.06205846 -0.05728341 0.072657764 -0.07229843 -0.050454862 -0.014088236 -0.0086424425 -0.107972905 0.025051646 0.031267934 -0.046556488 -0.13243404 -0.022418987 0.07569756 -0.07479358 -0.0089922445 0.014474372 -0.050927352 -0.09689102 0.13400422 0.106421 0.013710613 0.0511435 0.030151378 -0.011650719 0.11469959 0.07399451 0.057645533 -0.15093799 0.102578774 -0.032463703 0.08696581 -0.042719457 -0.008443791 0.09136442 -0.0028152782 0.030243412 0.031015623 0.011949801 -0.11953352 -0.07363312 0.0022394154 0.11857038 0.13506398 -0.09103208 -0.009171189 0.10798301 -0.13411653 0.12519759 0.070427135 0.16165505 -0.12251064 -0.14269683 0.061916664 0.11965459 0.12486868 0.040094905 -0.11407636 -0.0703352 0.1087891 -0.10670694 0.15122189 0.12931547 -0.059020676 0.059859026 -0.08014489 0.046186678 0.011984113 -0.09399882 -0.08486077 0.07301775 0.10212957 -0.007608502 -0.06503893 -0.041946143 0.015685892
2 -0.06971042 -0.093814924 0.03945627 0.03669571 -0.12148014 -0.058014415 -0.14070861 -0.14133322 0.017801493 0.13818732 -0.12610066 0.03609279 0.100690536 -0.04567403 0.029841585 0.09909671 0.06619666 0.04304724 -0.15292476 0.13613749 0.023228452 -0.080671065 0.10683486 0.10340114 -0.0020186584 0.07887887 0.16090497 -0.033029858 -0.03165646 0.031832792 -0.100599654 0.10141195 -0.137725 0.09606689 0.036118902 0.045731794 0.097955585 0.015228273 0.123460844 0.09602557 0.1098533 0.028586082 0.096395105 -0.10312438 0.027011845 0.07135275 0.019179223 0.022202548 -0.16686875 0.019386234 0.123372965 0.100095466 0.064523965 -0.062420435 0.07452174 -0.074727446 -0.049512208 -0.0072900057 -0.014687585 -0.10507536 0.024663493 0.033295747 -0.04340898 -0.13456395 -0.02052681 0.07827223 -0.0745969 -0.008211077 0.013791032 -0.04798087 -0.0938783 0.13520567 0.11101503 0.011742505 0.04862438 0.03082717 -0.014647702 0.11080399 0.07189739 0.05721637 -0.1517881 0.104042724 -0.03230747 0.085776135 -0.0391459 -0.015638633 0.09362195 -0.0017084549 0.026763096 0.035189863 0.008549884 -0.114592575 -0.07599554 0.007209155 0.12212885 0.1308902 -0.094811186 -0.0034202468 0.10691946 -0.13733886 0.12815541 0.076897584 0.15690339 -0.12170556 -0.14470212 0.06274518 0.119659804 0.123152934 0.03849691 -0.11278179 -0.06315872 0.109929875 -0.10131496 0.14572094 0.13573217 -0.062811024 0.06318134 -0.08025146 0.042171497 0.009961172 -0.090798564 -0.085592866 0.072320156 0.101711474 -0.0018900081 -0.05665161 -0.04218637 0.016551748
3 -0.06584596 -0.088194616 0.034573358 0.044971455 -0.11968353 -0.063334815 -0.14370492 -0.12925188 0.022069814 0.1351964 -0.11993852 0.044165637 0.105028905 -0.054341126 0.03632073 0.0874082 0.059318956 0.03387603 -0.15276457 0.12864818 0.029796982 -0.070268035 0.1043122 0.10290926 0.0032963348 0.0746685 0.16183887 -0.031610526 -0.024533182 0.032413743 -0.09260161 0.100795045 -0.12360143 0.09946172 0.02832875 0.046126198 0.09224513 0.017895484 0.11781358 0.08886147 0.11727581 0.034726895 0.08998379 -0.09352774 0.029720249 0.0691167 0.0076132724 0.014032168 -0.16194467 0.017681278 0.13155715 0.09756789 0.06119047 -0.06565974 0.077709824 -0.06463453 -0.045880534 -0.013067694 -0.016437622 -0.105794 0.02356149 0.033418622 -0.03681302 -0.13202271 -0.029715933 0.08600403 -0.07137628 -0.012774394 0.014075607 -0.04297071 -0.08978263 0.1375858 0.11049631 0.0040386603 0.040754803 0.02768315 -0.025720699 0.10769446 0.07021689 0.045392957 -0.14540692 0.0947171 -0.03815733 0.07637437 -0.030125802 -0.017339619 0.096547246 -0.006178313 0.025254345 0.048795834 -0.0021225903 -0.11573095 -0.07110904 0.008255422 0.11691262 0.12887262 -0.090557545 0.009816267 0.09724629 -0.13502693 0.120312035 0.06877908 0.14640926 -0.12235705 -0.14030245 0.07036084 0.10335786 0.13028747 0.041825272 -0.10203421 -0.06108554 0.091912486 -0.100568116 0.13913363 0.12757383 -0.07038355 0.06350483 -0.09100811 0.036838003 0.008281814 -0.08715597 -0.084599584 0.060363844 0.09645085 -0.011446805 -0.052456126 -0.033222638 0.00778943
4 -0.07466927 -0.090507686 0.036332346 0.041497618 -0.124306165 -0.06139046 -0.13716273 -0.13531004 0.02236117 0.13363342 -0.1314332 0.04398613 0.0984679 -0.05391019 0.031454697 0.089956746 0.0697988 0.051257566 -0.14661653 0.13829322 0.02675318 -0.077520415 0.104918495 0.10832538 0.002241597 0.085782215 0.15956022 -0.038319554 -0.03786017 0.026225641 -0.09535369 0.10381412 -0.1279476 0.09905556 0.03725569 0.05074137 0.09838492 0.013470965 0.11597885 0.09860389 0.109977454 0.03936538 0.09431054 -0.10740674 0.022506852 0.07929743 0.015823118 0.029094113 -0.16756262 0.018819928 0.13680892 0.1088099 0.06930474 -0.06515081 0.07859788 -0.06856795 -0.052856717 -0.008308804 -0.020308165 -0.104604036 0.025715757 0.032952514 -0.04621757 -0.13333125 -0.022089845 0.08277201 -0.07759766 -0.003666832 0.019934572 -0.050021827 -0.08740155 0.13184875 0.11589228 0.0066485954 0.044837106 0.031289995 -0.012566103 0.11188825 0.06579845 0.06793185 -0.14175701 0.10049645 -0.04127906 0.080885686 -0.0384418 -0.013876425 0.09826225 0.0008522653 0.02616131 0.043947473 0.00342769 -0.115620695 -0.074858524 0.008613988 0.11871508 0.13080364 -0.09775818 -0.002374865 0.107585385 -0.14122589 0.12114035 0.07722154 0.15062499 -0.11706681 -0.1419751 0.068153985 0.11368635 0.1253183 0.04341753 -0.10896182 -0.052328583 0.10158686 -0.10236131 0.14079432 0.12946631 -0.06824271 0.06609125 -0.08945356 0.047241133 0.010550786 -0.09138523 -0.08932587 0.06923625 0.095514625 -0.0045948 -0.059654504 -0.041423846 0.017133344
5 -0.06482427 -0.09451106 0.025835793 0.05591859 -0.11681363 -0.054581195 -0.13883895 -0.13901131 0.02297229 0.13610137 -0.12014434 0.050032638 0.098838635 -0.054099362 0.03660474 0.09581496 0.06791351 0.029953549 -0.1527816 0.13678472 0.031204157 -0.07637667 0.09333162 0.09986279 0.016784484 0.07933639 0.16081348 -0.023496006 -0.023729602 0.040192526 -0.08686015 0.09650302 -0.1286676 0.09981193 0.029413352 0.057929408 0.10507843 0.023597118 0.11678142 0.08972689 0.11494443 0.03491729 0.08901426 -0.090367556 0.023838094 0.07196497 0.015136345 0.011392599 -0.16779266 0.020346822 0.12620181 0.10479419 0.05004897 -0.07288672 0.079031326 -0.07198209 -0.043827534 -0.010934884 -0.028828442 -0.10171291 0.015087755 0.04122767 -0.033252127 -0.13446683 -0.029905546 0.08887499 -0.060050495 -0.014771123 0.020376224 -0.038823582 -0.08814506 0.13973404 0.1206604 0.004023818 0.043508627 0.032102965 -0.026345398 0.10664269 0.07144386 0.051408663 -0.14558421 0.10212244 -0.03465141 0.075669706 -0.021942435 -0.02410699 0.09673188 -0.0037560565 0.022187283 0.05034611 -0.011248702 -0.1051007 -0.06517276 0.02103749 0.11311082 0.1220445 -0.08422624 0.016619565 0.113815285 -0.13725783 0.123641185 0.074514434 0.14323488 -0.12109303 -0.13614713 0.06001965 0.10279405 0.11745494 0.025974967 -0.110428475 -0.062801585 0.10153525 -0.09628401 0.13980651 0.1216722 -0.06863587 0.07105844 -0.08901652 0.02276408 -0.0073930733 -0.08218256 -0.091850825 0.068183415 0.10156107 -0.007869497 -0.03985688 -0.030391062 0.004956495
6 -0.07947411 -0.09892283 0.041893564 0.044249296 -0.12793444 -0.065136276 -0.1426064 -0.14153974 0.019598633 0.14153384 -0.14073761 0.045309335 0.1053907 -0.05255312 0.03143177 0.097310744 0.07652271 0.050324384 -0.15233213 0.14758568 0.022175932 -0.08289505 0.11303394 0.1084615 0.0056108464 0.09065766 0.16673115 -0.047896124 -0.044968463 0.026259307 -0.10283245 0.11187586 -0.13872068 0.10040736 0.035017878 0.056882612 0.09964547 0.014709676 0.12269601 0.10214555 0.11363608 0.035627827 0.09817851 -0.10779955 0.02083487 0.08766128 0.018781438 0.032302596 -0.17617184 0.023692722 0.13591336 0.108494006 0.072138846 -0.065529704 0.08476028 -0.07146956 -0.05744823 -0.006932657 -0.024853073 -0.110767074 0.032005236 0.03421609 -0.049597465 -0.1369769 -0.02360273 0.082231365 -0.08353814 0.00080734305 0.019665206 -0.054857172 -0.09768027 0.1399606 0.12307006 0.010223274 0.045087926 0.031343017 -0.0111072995 0.11644907 0.07547378 0.07221096 -0.149697 0.10604486 -0.04042208 0.08523372 -0.03826469 -0.015185026 0.10134901 -0.0034589428 0.029158214 0.038913198 0.00748098 -0.11813136 -0.081226945 0.0058710845 0.12657775 0.135063 -0.1055187 -0.006398415 0.11014765 -0.14944045 0.12821235 0.08493012 0.1598891 -0.123722106 -0.14710796 0.074490376 0.12411369 0.12730129 0.04459516 -0.11593242 -0.054312844 0.112537116 -0.104792215 0.14360604 0.13484226 -0.0737803 0.072245985 -0.09219764 0.05178369 0.014055479 -0.099438116 -0.094663665 0.07614059 0.10185984 -0.0020182175 -0.065862626 -0.04677876 0.019347334
7 -0.06622569 -0.08957342 0.03144891 0.043173257 -0.116488405 -0.059505817 -0.1422522 -0.1372837 0.021950947 0.13981232 -0.12856723 0.043154147 0.093158245 -0.0406698 0.026351612 0.091106504 0.070987485 0.037338473 -0.15037724 0.14287353 0.024995102 -0.08754281 0.10086715 0.114149764 0.0013690698 0.07272999 0.15881965 -0.029559596 -0.031893797 0.032802366 -0.101180576 0.10180485 -0.13203116 0.08872243 0.037157528 0.05030716 0.09760608 0.0099503845 0.11280346 0.08878155 0.11092412 0.026884615 0.087741196 -0.100317225 0.021014111 0.07669552 0.023028461 0.027082559 -0.16403703 0.016951123 0.12679857 0.095918775 0.05993906 -0.07223881 0.08035273 -0.07007667 -0.059952725 -0.008314147 -0.023094017 -0.09877082 0.019197006 0.031687114 -0.042437673 -0.13732523 -0.0236097 0.0788055 -0.06591861 0.0015660599 0.01203031 -0.04147607 -0.08692251 0.13656636 0.11595041 0.011345955 0.045178093 0.03189146 -0.01220773 0.1113918 0.07506301 0.05696705 -0.14929874 0.10025732 -0.026163012 0.08080374 -0.039439872 -0.02039004 0.094299145 0.0045314007 0.020949138 0.044626474 0.012701674 -0.10901989 -0.06244967 0.0035399785 0.1117616 0.12851885 -0.08841504 0.0029669814 0.107657015 -0.13196103 0.12549423 0.071728714 0.14867936 -0.11760915 -0.13368307 0.06269728 0.11450472 0.11328161 0.03204319 -0.11589721 -0.055103656 0.10532596 -0.10349209 0.13916057 0.1300682 -0.062422145 0.06438839 -0.07983964 0.04878301 0.0049278196 -0.08834036 -0.09192664 0.074382596 0.101649135 -0.001016265 -0.055471897 -0.03684309 0.015741263
8 -0.07524851 -0.098465785 0.031879183 0.04068679 -0.12014159 -0.06798228 -0.1429336 -0.13232931 0.017440548 0.13854854 -0.1320998 0.046782754 0.10439828 -0.04604103 0.03131423 0.08462065 0.07326353 0.045591757 -0.1535859 0.13632259 0.02380674 -0.08484191 0.10149948 0.10975769 0.005213968 0.08642578 0.16336542 -0.045049686 -0.036586996 0.026474088 -0.09733097 0.106304556 -0.13488527 0.100321785 0.041998163 0.049357112 0.09532126 0.012437822 0.11926367 0.10192042 0.11103275 0.037892755 0.0929479 -0.1009875 0.026522193 0.07608012 0.015797652 0.024562873 -0.17079227 0.024362404 0.13103782 0.103544086 0.06484697 -0.06494642 0.08267607 -0.06880166 -0.0563867 -0.00859235 -0.021192934 -0.11043232 0.030096116 0.03364204 -0.047129586 -0.13378145 -0.021293677 0.083410546 -0.07575175 0.000623839 0.016065162 -0.05131439 -0.0904907 0.13572448 0.12101211 0.006236385 0.045904297 0.037970647 -0.012357816 0.112126835 0.06962248 0.06938453 -0.14658903 0.10446519 -0.03766915 0.08244405 -0.03196843 -0.015216121 0.09875207 -0.005578181 0.022894135 0.04356592 0.008063506 -0.1178567 -0.07025318 0.0066859126 0.12471842 0.127597 -0.09329779 -0.00372608 0.11121054 -0.1499529 0.13007109 0.0724393 0.15726425 -0.12248103 -0.14419417 0.07366743 0.11390691 0.12523922 0.04294445 -0.10923711 -0.054539207 0.10088118 -0.10702781 0.14473061 0.13082005 -0.068431385 0.07118179 -0.0907322 0.044298932 0.008098046 -0.09302702 -0.08970142 0.06635718 0.10160541 -0.0074490793 -0.061295375 -0.046562146 0.016691547
9 -0.07431492 -0.08905946 0.03764054 0.03758365 -0.1206374 -0.059474282 -0.13248353 -0.1292708 0.014603235 0.13282585 -0.13094763 0.041719355 0.09680594 -0.050746497 0.027645139 0.09023653 0.06724566 0.045783065 -0.14160341 0.13670486 0.019372016 -0.06832601 0.10320906 0.09309201 0.004575076 0.090472184 0.15585609 -0.04222622 -0.04264462 0.024014125 -0.08891764 0.10157882 -0.1255321 0.09236069 0.034555767 0.0490629 0.090071164 0.00519279 0.11312678 0.09673764 0.10127286 0.030216709 0.09104128 -0.10089575 0.0158447 0.079853125 0.015961329 0.032732308 -0.1589314 0.017747095 0.12898855 0.10473007 0.063871495 -0.06022069 0.07816122 -0.060426865 -0.047700718 -0.003640534 -0.017015152 -0.10325412 0.026674211 0.023887828 -0.046140257 -0.12574063 -0.017588612 0.07664807 -0.08219721 -0.0024451688 0.0180175 -0.04434721 -0.086776994 0.1252325 0.11406435 0.01054404 0.03639162 0.026351258 -0.0065521644 0.11361308 0.064589426 0.06560957 -0.1363585 0.097354725 -0.035738215 0.08179643 -0.03870083 -0.010193676 0.091517776 0.00016143266 0.028611265 0.03762322 0.0067786956 -0.11005186 -0.07962625 0.005952239 0.12145949 0.12788199 -0.09868635 -0.004450528 0.097170055 -0.1375784 0.120835125 0.08195728 0.15368074 -0.11163398 -0.13379376 0.07307449 0.117582664 0.11429639 0.043807868 -0.10648881 -0.040727973 0.102535255 -0.09159604 0.13093208 0.12806077 -0.067958444 0.065761074 -0.08651794 0.04778924 0.020809578 -0.08902743 -0.084162176 0.06958533 0.086158484 -0.0013114659 -0.059781604 -0.048451692 0.021520581
10 -0.0788552 -0.09491708 0.03196602 0.034308773 -0.1217283 -0.07081957 -0.14209874 -0.12988824 0.011189148 0.14449902 -0.12816492 0.04602054 0.09998286 -0.04140189 0.039323203 0.08488019 0.07490355 0.04100427 -0.1491995 0.14000589 0.023326447 -0.07359637 0.106888525 0.10194406 0.0001815795 0.08690065 0.15624751 -0.04049822 -0.03868919 0.022013452 -0.0921381 0.10636895 -0.13426694 0.10265503 0.03852685 0.05663407 0.083134204 0.0057261684 0.118022874 0.09867727 0.10307378 0.035323095 0.10208843 -0.09563376 0.016933966 0.07777698 0.014887567 0.019306602 -0.1631228 0.020287655 0.11867409 0.10382008 0.06571887 -0.062432934 0.082176276 -0.059999265 -0.05072899 -0.0054185716 -0.024939362 -0.10130635 0.028278079 0.029654032 -0.0550079 -0.13007842 -0.012822242 0.08323012 -0.08035419 0.011245393 0.011754146 -0.051648833 -0.091129616 0.13328405 0.10860878 0.007427669 0.045777425 0.038800895 -0.004847545 0.103960805 0.05982365 0.07077683 -0.14806883 0.10195818 -0.033467487 0.08589016 -0.030675055 -0.011497691 0.08580665 -0.007213537 0.02372177 0.033687036 0.011662568 -0.109269984 -0.08088505 0.0064407866 0.12352189 0.1251309 -0.10141581 -0.0055632507 0.10307709 -0.13462786 0.124533735 0.08457669 0.15125005 -0.11831619 -0.13954537 0.075071484 0.12109991 0.122141644 0.045404404 -0.10573932 -0.050694652 0.10439059 -0.09633075 0.13476844 0.13226219 -0.070790514 0.06649004 -0.09136995 0.046364486 0.016991735 -0.08867109 -0.09080919 0.06234789 0.09540122 0.006741952 -0.058548488 -0.04629591 0.018801956
11 -0.064888 -0.08366649 0.0387486 0.033415996 -0.11300544 -0.05560265 -0.12363103 -0.11292535 0.010172432 0.11529346 -0.110866524 0.035710268 0.08945379 -0.042505708 0.024064146 0.07895182 0.060902707 0.04392863 -0.12952581 0.11476797 0.01794593 -0.067899734 0.09403062 0.092366725 0.0042001675 0.077876374 0.14258738 -0.04070802 -0.03376602 0.019371634 -0.08255315 0.089962035 -0.113880105 0.08700291 0.042208925 0.04197893 0.080915265 0.0064880336 0.10842396 0.09087123 0.09365302 0.036994383 0.08335211 -0.099719316 0.014474171 0.06370686 0.017036593 0.03356838 -0.1530569 0.011317402 0.117194094 0.09492387 0.060975272 -0.048408557 0.06434415 -0.062361788 -0.04906343 -0.008442908 -0.012434561 -0.09740674 0.031052923 0.026801798 -0.038252704 -0.11737691 -0.01808092 0.067519315 -0.07732457 -0.00561913 0.016992971 -0.045886748 -0.07842773 0.112826385 0.10633062 0.011970849 0.040775955 0.030291023 -0.010309629 0.10026394 0.05389672 0.06255297 -0.12564696 0.09387837 -0.036654733 0.07161817 -0.03679875 -0.010800753 0.08616194 -0.0002694173 0.026774278 0.036891375 0.009462641 -0.10914651 -0.06928525 0.004874694 0.11111387 0.113910735 -0.0844315 -0.008069623 0.097713694 -0.12644093 0.109699264 0.06194613 0.14599356 -0.10800631 -0.13282259 0.0635489 0.09620863 0.1164863 0.03579379 -0.09710644 -0.04762633 0.08680515 -0.09125894 0.13045985 0.114072144 -0.05326788 0.06211321 -0.07807725 0.044668257 0.013793002 -0.07963338 -0.07112883 0.058743864 0.080581754 -0.010742534 -0.054411657 -0.04097501 0.023772769
12 -0.075859725 -0.097053856 0.03632097 0.03813746 -0.12550853 -0.068114795 -0.14471711 -0.13564941 0.01738387 0.14167774 -0.1304003 0.044887833 0.10468575 -0.04313787 0.030935854 0.08516905 0.073238514 0.05233786 -0.1609471 0.13948321 0.0275084 -0.086892165 0.10471301 0.11760899 0.0041133384 0.08591821 0.16548324 -0.04109866 -0.03733518 0.020421 -0.103252396 0.10990098 -0.13597395 0.10122967 0.04427068 0.053348947 0.096004985 0.011478131 0.12542999 0.10222461 0.1105704 0.039521858 0.10085575 -0.109935336 0.024599543 0.0798332 0.0148217 0.026056698 -0.17664158 0.02274989 0.13214123 0.10497564 0.07156483 -0.065357685 0.08348094 -0.07396957 -0.060976584 -0.0056156786 -0.020849817 -0.10951877 0.035429675 0.03672249 -0.047201402 -0.14166377 -0.018315477 0.08419579 -0.07692207 0.0036293808 0.017799951 -0.059722077 -0.09260285 0.13991873 0.1211325 0.006949769 0.053188298 0.0387455 -0.01534163 0.11288289 0.06649929 0.06883176 -0.15024723 0.10853032 -0.040814474 0.08653961 -0.035340838 -0.0168204 0.10024565 -0.006740404 0.022406483 0.04321491 0.011172719 -0.1230377 -0.07695742 0.0058570616 0.12686677 0.13268127 -0.09959321 -0.0037506707 0.11435239 -0.14886661 0.13141908 0.075805254 0.15607287 -0.12751977 -0.15379219 0.07164407 0.117668055 0.13274565 0.041765723 -0.11291667 -0.059398733 0.10716708 -0.108414784 0.15013574 0.13894157 -0.070643455 0.07046998 -0.087423876 0.049069688 0.00757681 -0.09273615 -0.09148549 0.069145724 0.10300675 -0.004440979 -0.06273397 -0.042025566 0.018328601
13 -0.08056732 -0.09903292 0.041336898 0.061457433 -0.12772453 -0.07413248 -0.1557499 -0.1525541 0.029036675 0.1524551 -0.14447892 0.050504874 0.105588146 -0.05458928 0.039039373 0.10421068 0.072287604 0.04463051 -0.16667208 0.14885244 0.026970027 -0.087178394 0.11153072 0.110589616 0.01409759 0.0873884 0.17309394 -0.034331597 -0.029847208 0.041052315 -0.10264264 0.112012714 -0.13726465 0.10780066 0.033834044 0.057774205 0.11834856 0.02106927 0.13067925 0.10249773 0.12005975 0.035731707 0.09743493 -0.1063934 0.026310805 0.079651676 0.008716291 0.025333416 -0.19043364 0.020987324 0.14125417 0.10869895 0.065483615 -0.079002604 0.090779334 -0.0878771 -0.051786307 -0.0116628865 -0.015493602 -0.110575154 0.027981248 0.041473918 -0.039695397 -0.1472591 -0.036193307 0.095357396 -0.08276514 -0.022157315 0.027977392 -0.040700033 -0.10259521 0.15094791 0.13188034 0.007153544 0.048513938 0.037705626 -0.023082064 0.12297447 0.083561435 0.060589433 -0.1635851 0.116564445 -0.041460793 0.08337897 -0.034968168 -0.022370748 0.11229264 -0.0026490507 0.025898084 0.058219872 -0.0047426727 -0.12394558 -0.075093016 0.016501278 0.13884729 0.14615627 -0.103630975 0.011292392 0.12628578 -0.15037571 0.13953121 0.08978917 0.16189535 -0.13428439 -0.1574204 0.07965151 0.12156691 0.137012 0.042268887 -0.11674042 -0.06599909 0.11561883 -0.112031326 0.15408093 0.1355743 -0.07548655 0.07398695 -0.095062435 0.0430168 0.0031788424 -0.0985023 -0.106805734 0.08136861 0.106574036 -0.0045493753 -0.05261614 -0.04475274 0.011978977
14 -0.07220417 -0.092993155 0.038849987 0.040483475 -0.12191708 -0.063344456 -0.14031738 -0.13471985 0.020085389 0.13648902 -0.12773097 0.043932788 0.09896022 -0.048250634 0.03111037 0.089625895 0.070908494 0.046639808 -0.14875668 0.13693017 0.024747722 -0.0784331 0.103236236 0.107802205 0.0033732294 0.08189343 0.15783264 -0.039715104 -0.03651963 0.027021449 -0.09650764 0.10415293 -0.1312357 0.09785322 0.038379006 0.05057823 0.09589713 0.012804271 0.11692296 0.09573754 0.109965615 0.037251655 0.09580826 -0.10396929 0.023582654 0.07828361 0.01831052 0.027015269 -0.16704263 0.019235838 0.12851949 0.10281455 0.06454196 -0.06614858 0.08048825 -0.067967035 -0.05575512 -0.009092642 -0.022726469 -0.10674828 0.027715653 0.033141814 -0.046766076 -0.13359219 -0.02391783 0.08090255 -0.073543526 0.0007895222 0.016631749 -0.052954473 -0.09124819 0.13456213 0.1138696 0.009588875 0.045999095 0.034173787 -0.014607331 0.10907073 0.06802663 0.064394586 -0.14725797 0.09948378 -0.038202226 0.08169539 -0.035811067 -0.0138757955 0.09465624 -0.0018328731 0.024772853 0.040851563 0.0069342926 -0.1136115 -0.074156955 0.0048804693 0.11864352 0.12909809 -0.0946055 -0.0036945343 0.10878096 -0.13847983 0.12265379 0.07335508 0.14948763 -0.11871447 -0.14062183 0.06804139 0.11122464 0.12457751 0.04095477 -0.1114423 -0.05725126 0.101971 -0.102820724 0.1391021 0.12902765 -0.06813938 0.06754934 -0.08798444 0.047378197 0.008544756 -0.09119746 -0.08917981 0.06826927 0.09793319 -0.004127009 -0.05790798 -0.03859971 0.013580829
15 -0.077465825 -0.099782825 0.03722705 0.046677016 -0.12815079 -0.06967585 -0.14673208 -0.13854177 0.018066347 0.1408032 -0.13228804 0.05090869 0.10786976 -0.05151141 0.034774207 0.094795756 0.07549015 0.050287038 -0.15859973 0.14157423 0.03061598 -0.08337896 0.107474595 0.11203025 0.0070295823 0.08818761 0.168162 -0.042250045 -0.036682926 0.028842356 -0.10295378 0.109684534 -0.13807105 0.10369978 0.042496808 0.05197525 0.106018335 0.017771436 0.1243246 0.10119944 0.11794094 0.040235594 0.102286935 -0.10861155 0.027991537 0.08476666 0.016798519 0.024712902 -0.17985117 0.02363767 0.13488218 0.10905994 0.063429214 -0.068821296 0.08466022 -0.071315885 -0.05948282 -0.009728305 -0.028325442 -0.11625689 0.03152977 0.036398355 -0.0489666 -0.14155191 -0.025707036 0.087481 -0.076099366 -0.0025754878 0.01847042 -0.059739836 -0.095906936 0.14078583 0.123587444 0.006276347 0.049987026 0.03805133 -0.022578472 0.113679506 0.070836686 0.069179475 -0.15621391 0.107749626 -0.046360135 0.087302946 -0.030480007 -0.015971063 0.10120088 -0.010236042 0.025438784 0.0442508 0.0041937493 -0.117994525 -0.07876765 0.009846401 0.122378506 0.13699207 -0.09822498 -0.002523357 0.11693048 -0.15237924 0.13094617 0.07518671 0.15687972 -0.12780978 -0.14961946 0.07317943 0.11345476 0.13259053 0.04224006 -0.11829739 -0.061864685 0.10469465 -0.105928965 0.14884833 0.13494793 -0.071746066 0.07472732 -0.095320985 0.04249608 0.0044177715 -0.09805287 -0.09464436 0.07205805 0.106420815 -0.009265292 -0.05988507 -0.041824702 0.011989023
16 -0.07461846 -0.09040299 0.03865232 0.039013803 -0.12796384 -0.06400315 -0.13879989 -0.13788263 0.022199456 0.1420539 -0.13299376 0.043857202 0.096488796 -0.05292713 0.0285077 0.09258664 0.075334325 0.04860343 -0.14775304 0.13295336 0.022936732 -0.07632983 0.10661791 0.10287096 -0.00028199377 0.08829488 0.1615898 -0.04337474 -0.03791493 0.024000596 -0.10109629 0.1027061 -0.13041908 0.09708804 0.038815588 0.051393706 0.098480634 0.014683692 0.11579792 0.10003826 0.11256086 0.035040542 0.10245824 -0.09780921 0.025096135 0.0788741 0.016556485 0.03095062 -0.16807008 0.01864119 0.13492301 0.10666653 0.06481407 -0.06119875 0.07725011 -0.065681495 -0.050288104 -0.0052401354 -0.02176436 -0.10627957 0.026444934 0.028396575 -0.051871855 -0.12798609 -0.02162688 0.081647076 -0.077225514 0.0043471768 0.0146977855 -0.052388012 -0.08981783 0.13211805 0.11056633 0.007899502 0.050173067 0.02940328 -0.01042768 0.11255756 0.06608727 0.066086136 -0.14703609 0.09677166 -0.0388403 0.089040436 -0.03855797 -0.007941927 0.09722024 -0.006466698 0.03057143 0.038806006 0.0053534918 -0.11135228 -0.08159864 0.0062583648 0.12429733 0.12874141 -0.09989111 -0.0097239055 0.09926806 -0.14109169 0.12391387 0.08168113 0.15380234 -0.121694915 -0.14105292 0.07241702 0.11874628 0.12183412 0.045737233 -0.10637206 -0.05069413 0.10656663 -0.10236965 0.13520546 0.13228402 -0.071411856 0.06597286 -0.09295827 0.04896754 0.015821164 -0.08724279 -0.09124892 0.06534234 0.09278384 -0.00073098624 -0.060703248 -0.044130683 0.012328129
17 -0.07705787 -0.095366955 0.037718996 0.043398023 -0.1246965 -0.06583538 -0.14222296 -0.13553688 0.019158619 0.13714567 -0.13386561 0.04397459 0.10125001 -0.049619187 0.03140166 0.09107515 0.07212575 0.048825778 -0.15125789 0.14157327 0.023438515 -0.08198501 0.10678585 0.10763073 0.0045203003 0.08701147 0.15921305 -0.04120893 -0.038769808 0.026677994 -0.09801311 0.106521666 -0.13294496 0.0990669 0.03717545 0.053519316 0.09729737 0.012114251 0.12027168 0.09979475 0.109735064 0.036386374 0.09381077 -0.10434446 0.020908147 0.07929895 0.01723027 0.029318765 -0.17059682 0.01854954 0.1323117 0.10246121 0.06680943 -0.064724594 0.082552955 -0.0712017 -0.054479565 -0.0076353536 -0.0213143 -0.10679754 0.029420843 0.03092504 -0.046437364 -0.13415255 -0.0229813 0.08151817 -0.08000208 -0.0012294389 0.01890773 -0.048687875 -0.091255024 0.13773951 0.12017648 0.007792112 0.04726978 0.033315707 -0.011028872 0.113119915 0.07072741 0.06689159 -0.14630444 0.10662497 -0.039202962 0.08303975 -0.037182514 -0.015977867 0.09758781 -0.0018337566 0.02524164 0.042490654 0.0083751995 -0.11666173 -0.07565206 0.006441284 0.12417013 0.12909257 -0.0971694 -0.0040244125 0.11127311 -0.14432177 0.1260297 0.07912593 0.15652299 -0.12086563 -0.14326233 0.071406804 0.11810002 0.12476283 0.042510435 -0.11156881 -0.05251859 0.10563411 -0.10391331 0.14196259 0.13020395 -0.06887027 0.070148505 -0.089216374 0.049384847 0.010785469 -0.09423714 -0.088771515 0.072576165 0.09823949 -0.0043015643 -0.06246689 -0.043311857 0.017463692
18 -0.06870861 -0.09241382 0.045989607 0.04704794 -0.12778488 -0.06366155 -0.14658287 -0.14138953 0.022965375 0.1393526 -0.12970933 0.046982713 0.10084146 -0.051726047 0.03480042 0.0974267 0.07160986 0.043799892 -0.15322177 0.13696624 0.030787122 -0.076672256 0.10896321 0.110262655 0.006233305 0.08220804 0.16348901 -0.037008867 -0.034418054 0.030161858 -0.102017164 0.105211385 -0.13147017 0.0986925 0.03973616 0.055506304 0.102166384 0.019024584 0.12180867 0.09527235 0.117873505 0.043061793 0.10088494 -0.10708952 0.02457701 0.0800954 0.017231643 0.026964104 -0.17890383 0.019602384 0.13632484 0.10655963 0.06498424 -0.0654633 0.08102987 -0.0741072 -0.056258082 -0.012899338 -0.024972206 -0.11060071 0.027900835 0.03581877 -0.043951336 -0.14129972 -0.026885362 0.08772737 -0.075771496 -0.007547469 0.020774335 -0.052388635 -0.09295141 0.14378616 0.1177512 0.00858321 0.055099785 0.034515314 -0.025271041 0.11418151 0.07247604 0.059429444 -0.15375522 0.10485924 -0.045685243 0.08447072 -0.036875416 -0.016711986 0.10238187 -0.0048821 0.026653238 0.04713965 0.0014195219 -0.12101295 -0.076506935 0.0126970345 0.12072634 0.13533191 -0.100975715 0.0016988106 0.11361315 -0.13820793 0.1254944 0.07533387 0.15468724 -0.1293799 -0.1485241 0.069322675 0.11191789 0.13316616 0.040829837 -0.11425995 -0.062607035 0.104613245 -0.10355593 0.14283 0.1336621 -0.07195299 0.07129093 -0.09582209 0.044645637 0.0058199205 -0.09333908 -0.09287532 0.07292863 0.10105643 -0.0057471045 -0.058048733 -0.039014168 0.009028636
19 -0.16524835 -0.13566199 0.07200814 -0.013752025 -0.20546523 -0.11774036 -0.22230598 -0.20316774 0.004507077 0.21563594 -0.20928709 0.053394422 0.1869451 -0.094429195 0.038459674 0.09541411 0.09507258 0.14567652 -0.22500879 0.19695188 0.004335761 -0.14415486 0.19795676 0.17923108 -0.080838226 0.1427052 0.2219532 -0.1520578 -0.11712135 -0.0097507145 -0.16249809 0.20451936 -0.20797887 0.16846988 0.11982329 0.037800986 0.13658006 -0.03425912 0.19170389 0.16542055 0.15375732 0.043164413 0.13707599 -0.21238226 0.05101514 0.119171664 0.052323993 0.06781974 -0.20300978 0.022537388 0.22644842 0.13312122 0.15551355 -0.06216816 0.12966947 -0.073655255 -0.10259604 -0.011887594 0.024543582 -0.18345225 0.07988476 0.011000341 -0.14202823 -0.19111392 0.0050763935 0.10475542 -0.167644 0.058305815 0.030213494 -0.14793193 -0.15873636 0.21001858 0.14113252 0.0027184049 0.074813366 0.032850534 0.065037444 0.17596604 0.08969724 0.17172402 -0.21180613 0.1471209 -0.073141314 0.15377839 -0.09593899 0.030263923 0.13097213 -0.009450179 0.03724786 0.018603124 0.09533133 -0.2044199 -0.16766867 -0.049071196 0.20264071 0.21360393 -0.17328036 -0.069810964 0.14180103 -0.250318 0.18370558 0.123203576 0.2537411 -0.15869464 -0.23152265 0.13803296 0.22606957 0.21134576 0.13108839 -0.15287407 -0.072661825 0.16711605 -0.18565741 0.2508059 0.2301105 -0.12465871 0.078169204 -0.15251607 0.15572268 0.07076487 -0.18130921 -0.113915995 0.07652791 0.15431476 -0.01055114 -0.19377309 -0.13606109 0.070261724
20 -0.07524907 -0.09417057 0.03913541 0.039977822 -0.12344713 -0.06401541 -0.141296 -0.13656965 0.01999275 0.13728729 -0.1310734 0.04483037 0.09985352 -0.050496098 0.031281304 0.09362533 0.070835136 0.048454788 -0.14765222 0.13674305 0.023837714 -0.08034554 0.10823051 0.10996449 -0.0011786679 0.08291763 0.16029294 -0.04352188 -0.03561796 0.025660666 -0.10310061 0.10655589 -0.13085698 0.098396614 0.03952331 0.048944045 0.095126875 0.0145349465 0.1197684 0.098273344 0.11408771 0.036040515 0.09962927 -0.102980025 0.026463196 0.079030834 0.016347112 0.027940173 -0.17162499 0.02049871 0.13350387 0.10221385 0.065016404 -0.06088431 0.07970899 -0.06736254 -0.055142086 -0.009746666 -0.01960369 -0.10778692 0.031236177 0.032029264 -0.047064453 -0.13088967 -0.021820547 0.08140627 -0.077739984 -2.6199035e-05 0.016883468 -0.05512684 -0.09301113 0.13513954 0.11504125 0.0073926346 0.0490377 0.031576365 -0.012958363 0.111265704 0.06992638 0.06508378 -0.14910832 0.09943654 -0.04021796 0.08356096 -0.038745455 -0.011696747 0.09763528 -0.0049399165 0.027241027 0.039383538 0.00967166 -0.115642525 -0.07673772 0.0047122827 0.12014398 0.13247651 -0.09943571 -0.007962581 0.10384261 -0.13889185 0.12391536 0.07815884 0.15447387 -0.12268574 -0.1444327 0.07197065 0.11651093 0.1243755 0.045070894 -0.11033511 -0.05578835 0.102953695 -0.10432697 0.14080802 0.13068955 -0.06912613 0.065929726 -0.09052854 0.050760597 0.014300864 -0.094463825 -0.090055555 0.06932467 0.098062575 -0.0073860674 -0.06308063 -0.04231616 0.016534977
21 -0.06760785 -0.088296026 0.03722191 0.036251243 -0.11902931 -0.053744514 -0.13084729 -0.1258602 0.021862958 0.12510519 -0.12072188 0.038804956 0.092384964 -0.050413318 0.026080927 0.089728236 0.06533869 0.041787755 -0.1444946 0.12085468 0.021770779 -0.071856365 0.095164366 0.101029895 0.0048719537 0.077759095 0.15481654 -0.030588605 -0.019683404 0.022204166 -0.08945352 0.093215264 -0.121082224 0.093621194 0.039228097 0.04695793 0.091892995 0.01629495 0.11892866 0.09632111 0.1061921 0.03764735 0.09064192 -0.09720569 0.027434623 0.06631626 0.011119478 0.026698392 -0.16501662 0.015687456 0.123239145 0.097454496 0.059801742 -0.056514304 0.06925525 -0.07192679 -0.044198662 -0.010588574 -0.012926758 -0.104659624 0.027093505 0.033807166 -0.034829587 -0.1267254 -0.025131445 0.075450346 -0.069317386 -0.009688771 0.015252865 -0.048296936 -0.08521082 0.12616588 0.11214664 0.005897746 0.047006678 0.031647854 -0.020729491 0.101737484 0.058421157 0.055212956 -0.13642731 0.09506785 -0.03912143 0.07842891 -0.035678 -0.015282152 0.09399024 -0.0030379572 0.02584551 0.042079616 0.003205536 -0.11034805 -0.07257738 0.008396631 0.11905835 0.11866441 -0.08467016 -0.00331405 0.10343188 -0.12790537 0.11868721 0.069630265 0.14924183 -0.122826956 -0.13813601 0.064074546 0.10505928 0.12294592 0.040476374 -0.10125294 -0.060364112 0.09474928 -0.099093825 0.13564321 0.121856436 -0.05903572 0.059010506 -0.08021605 0.0360789 0.00885253 -0.08179958 -0.080416456 0.060815513 0.08839465 -0.011242228 -0.04943636 -0.034487505 0.01582924
22 -0.07532914 -0.09515519 0.037946448 0.03560201 -0.124857396 -0.06613684 -0.13886628 -0.13018847 0.015707161 0.13393398 -0.13275494 0.039909054 0.100880206 -0.047300585 0.028115857 0.088395014 0.06957766 0.05233355 -0.15125453 0.1356283 0.021789152 -0.08027437 0.107927725 0.10769021 -0.00124024 0.08476722 0.16022319 -0.04342453 -0.037561737 0.021577341 -0.09974695 0.107009545 -0.13566029 0.096724935 0.041233297 0.04494606 0.09360481 0.012326699 0.11907432 0.10078332 0.107008554 0.037367575 0.095465645 -0.10870795 0.023684034 0.08076933 0.014580468 0.030864472 -0.16728221 0.016136244 0.13010594 0.10232266 0.071235225 -0.062343538 0.07719179 -0.06879479 -0.055670228 -0.004928981 -0.018048383 -0.11111073 0.030824821 0.030506218 -0.05078531 -0.13557628 -0.021480607 0.07483541 -0.082666926 0.000108910725 0.01158797 -0.055061966 -0.090712346 0.13104942 0.11573005 0.0090622585 0.046646558 0.035841394 -0.012459563 0.108277656 0.06460566 0.07066019 -0.1448639 0.10018953 -0.039038446 0.08369873 -0.04220606 -0.011844486 0.09451317 -0.004025348 0.026008913 0.035829134 0.012696987 -0.11628889 -0.07926041 0.0015305756 0.12346645 0.12981297 -0.096605055 -0.011104783 0.10592882 -0.14165553 0.12548411 0.07400851 0.1576404 -0.11943876 -0.14216428 0.07071225 0.11713769 0.12900732 0.046935335 -0.10805294 -0.053971365 0.09986564 -0.1059928 0.1439918 0.13245556 -0.06427823 0.062367685 -0.085440926 0.050759166 0.014997333 -0.0930424 -0.08211993 0.06585234 0.09655674 -0.007033555 -0.06351134 -0.04665383 0.018109804
23 -0.07847227 -0.10191142 0.039036386 0.03990582 -0.12760127 -0.05784242 -0.14077926 -0.13730493 0.0202421 0.13280226 -0.13437738 0.043950833 0.10358161 -0.05185994 0.027214073 0.09246342 0.065610595 0.060013436 -0.15418948 0.14541607 0.02211222 -0.08218839 0.102466 0.114532776 0.0050572953 0.09087775 0.16547239 -0.043417387 -0.038229 0.019792119 -0.102028646 0.11030124 -0.13323596 0.09503714 0.035459597 0.04863581 0.09793622 0.01604444 0.12493797 0.104954615 0.11564148 0.03816228 0.0935051 -0.1196132 0.02809393 0.086594 0.02378776 0.03677949 -0.17156121 0.019530967 0.1378968 0.10397698 0.069498375 -0.067144416 0.08502794 -0.07166457 -0.052765463 -0.007492523 -0.019039951 -0.11455978 0.03238151 0.032785494 -0.03923025 -0.13967448 -0.02589262 0.078312516 -0.0795066 -0.009356481 0.02150919 -0.060778044 -0.09916105 0.13593858 0.12625897 0.013893421 0.042892437 0.029187856 -0.012361184 0.11506558 0.0713111 0.07001824 -0.14297388 0.10433797 -0.044200394 0.080802135 -0.04247881 -0.015622312 0.10323425 -0.00326635 0.030530099 0.04159133 0.006692932 -0.12143107 -0.07567428 -0.0025797233 0.12264174 0.13480334 -0.09798362 -0.0076857023 0.11104096 -0.15012342 0.12219517 0.07687188 0.16438317 -0.12118276 -0.15054177 0.0708714 0.11582003 0.12969114 0.043113336 -0.121177495 -0.050403688 0.10476907 -0.10789659 0.15144674 0.13327388 -0.069479875 0.06536398 -0.087785035 0.050249007 0.010839407 -0.10125271 -0.088560775 0.07727991 0.09951444 -0.013528369 -0.06732247 -0.040445782 0.017594382
24 -0.07574589 -0.0955246 0.035701662 0.043879095 -0.12632562 -0.06442742 -0.14393099 -0.13744092 0.022213355 0.13993762 -0.1334229 0.045017067 0.10048815 -0.052452195 0.033557262 0.092037685 0.072684824 0.045655213 -0.15448079 0.14069735 0.024502352 -0.07820251 0.104990974 0.10423772 0.005718116 0.08856413 0.16051275 -0.037039183 -0.035010494 0.027562898 -0.09668189 0.1028387 -0.13370702 0.09897308 0.03302956 0.055221397 0.09781116 0.017256629 0.11931322 0.10017595 0.11236818 0.038144387 0.09492715 -0.100833654 0.023434665 0.07808085 0.017476892 0.026741203 -0.169198 0.01793977 0.13192333 0.104246214 0.065616325 -0.06548102 0.08082329 -0.071442164 -0.047745656 -0.007103569 -0.022576015 -0.10519311 0.025995703 0.03180367 -0.044421118 -0.13185452 -0.023350805 0.084115975 -0.07721813 -0.0032338612 0.018596778 -0.046231933 -0.091314934 0.13823077 0.11778977 0.008251071 0.04888562 0.031699423 -0.014023662 0.11058779 0.06938794 0.06308539 -0.14694953 0.10570962 -0.03907159 0.08309004 -0.034628466 -0.01670826 0.09857183 -0.004641762 0.027053777 0.042534035 0.0019801464 -0.11389973 -0.07632913 0.007941766 0.12567307 0.12666531 -0.09757494 -0.0024588034 0.10834476 -0.14394753 0.12468016 0.08036815 0.15401474 -0.12266831 -0.1446831 0.069731615 0.11649642 0.12539478 0.04161084 -0.109184876 -0.052821547 0.104704425 -0.103649184 0.14044873 0.1315613 -0.071289316 0.06971251 -0.09132921 0.043941453 0.010507429 -0.08970928 -0.09113344 0.070866965 0.09859525 -0.0014290591 -0.058026195 -0.04088258 0.011588272
25 -0.07738041 -0.09195643 0.038623158 0.051301174 -0.12585494 -0.0637942 -0.13871472 -0.13476595 0.027791098 0.13340607 -0.13198039 0.04971303 0.10206394 -0.058212962 0.03129763 0.094542526 0.06818418 0.047372006 -0.15072113 0.13431999 0.025684431 -0.08183173 0.108472325 0.106740564 0.007162933 0.08541793 0.16552855 -0.034618806 -0.027715528 0.02718414 -0.09722001 0.10524297 -0.12603989 0.10344267 0.031180823 0.051961794 0.10470394 0.019064637 0.122181386 0.09928879 0.11893691 0.03883119 0.09357155 -0.10012618 0.029001558 0.076644704 0.011254844 0.024375528 -0.17483374 0.016050857 0.14233238 0.10372557 0.06273517 -0.06742936 0.07979737 -0.06977042 -0.046928037 -0.010348922 -0.018659528 -0.10744896 0.02656788 0.033541813 -0.04066915 -0.1361015 -0.032790408 0.08383346 -0.07826351 -0.010951371 0.021171242 -0.049566783 -0.09286939 0.13653082 0.124658205 0.0048686247 0.045349233 0.029546825 -0.017220182 0.114827715 0.067774534 0.06363154 -0.14448749 0.10337801 -0.04298429 0.07892407 -0.032912612 -0.015827285 0.10058415 -0.0066739167 0.029444305 0.04796423 -0.0018517412 -0.11672794 -0.07587756 0.009322924 0.122781426 0.13281304 -0.09156546 -0.00046608225 0.10912632 -0.14467196 0.121169485 0.08050144 0.15576208 -0.12212036 -0.14634565 0.074643865 0.11327021 0.12990458 0.042868435 -0.11129769 -0.057365496 0.10385165 -0.107030116 0.14687885 0.12545668 -0.07032707 0.06369703 -0.09497462 0.039735384 0.007081368 -0.0920566 -0.09596614 0.06890086 0.09453041 -0.014540456 -0.058744617 -0.03519117 0.012659389
26 -0.07688612 -0.09423924 0.04482981 0.03681971 -0.12696454 -0.0642792 -0.14765166 -0.13806254 0.021061763 0.14041056 -0.1357855 0.039429132 0.101037584 -0.04796976 0.02890061 0.09605988 0.0735547 0.04975787 -0.15650097 0.1384116 0.025066882 -0.082747154 0.11237102 0.11440457 -0.004289984 0.08330619 0.16119033 -0.041307867 -0.03581049 0.027888354 -0.10555786 0.10705499 -0.13959187 0.095619544 0.043257084 0.04846441 0.10225636 0.011526339 0.12062719 0.10275925 0.11613842 0.037119925 0.09905193 -0.1114986 0.027589766 0.07701984 0.023550004 0.03284261 -0.17151356 0.017293181 0.13342683 0.10446485 0.068170555 -0.061361562 0.080788285 -0.07290847 -0.05553437 -0.010387777 -0.015212073 -0.110293426 0.029250793 0.02962843 -0.051764064 -0.13716295 -0.022472525 0.07908968 -0.08130345 -0.00042503607 0.016640281 -0.05562909 -0.09737214 0.138804 0.115893856 0.012013915 0.05338525 0.03438142 -0.013156518 0.115400426 0.07297012 0.06530406 -0.15438864 0.10426492 -0.040045585 0.089874774 -0.042978708 -0.011262536 0.09690654 -0.0034644357 0.027617143 0.03718322 0.015283627 -0.11903456 -0.0800497 -0.0008654343 0.1243439 0.13657343 -0.09762312 -0.011940695 0.11063647 -0.13990353 0.12953189 0.07499326 0.16078627 -0.12795892 -0.14613935 0.07082612 0.124392375 0.12907955 0.046916544 -0.11668692 -0.06101244 0.10930731 -0.11036827 0.14756851 0.135252 -0.06654632 0.06612889 -0.08799453 0.053992398 0.015267427 -0.09774017 -0.09025003 0.07524859 0.102625914 -0.004149385 -0.06761853 -0.04401487 0.015748594
27 -0.0713422 -0.089521475 0.03620739 0.035246097 -0.12488036 -0.06125868 -0.13777854 -0.13159367 0.018288448 0.13926403 -0.13114889 0.044184607 0.09819826 -0.049569014 0.030467432 0.08536457 0.07189035 0.046825163 -0.14931613 0.13599361 0.02779629 -0.071100324 0.102280416 0.10452312 0.0007883613 0.08778351 0.16025457 -0.038645387 -0.03904111 0.020065643 -0.09481797 0.101332724 -0.12729886 0.091577135 0.035679057 0.052557066 0.09313001 0.013387624 0.11406923 0.09616537 0.1094036 0.03746037 0.09539502 -0.106448814 0.021911716 0.08394568 0.017663779 0.029769849 -0.16118729 0.021517813 0.130869 0.10711808 0.06627188 -0.06674566 0.078199185 -0.06368469 -0.052169144 -0.0061734305 -0.023004921 -0.10430365 0.024990117 0.03125081 -0.049064536 -0.13219452 -0.018708287 0.08337793 -0.07558426 0.0012082653 0.016271746 -0.0526959 -0.08763653 0.13047428 0.10922911 0.010421584 0.043141413 0.028382171 -0.013069244 0.10962157 0.064169385 0.06384176 -0.14119819 0.09728811 -0.04035193 0.08454437 -0.035530284 -0.013837004 0.09651077 -0.003224526 0.027429678 0.040285554 0.002277309 -0.11117929 -0.07537175 0.003751235 0.11819062 0.12889089 -0.1004575 -0.00374116 0.09984919 -0.14263286 0.11966746 0.07655242 0.14861219 -0.11805168 -0.14036874 0.068020515 0.112149 0.12206998 0.043085944 -0.10819458 -0.04728425 0.09939755 -0.09734557 0.13542119 0.13598019 -0.07303522 0.06543619 -0.09150792 0.045198917 0.0105037065 -0.08770093 -0.091833375 0.06906765 0.09619878 0.0017367373 -0.05705563 -0.041201774 0.012163906
28 -0.088195406 -0.10284993 0.04129753 0.03609137 -0.14097914 -0.06655237 -0.15085335 -0.14363891 0.023282805 0.1405285 -0.14200065 0.04023955 0.10873001 -0.058492754 0.036939953 0.10302156 0.071859986 0.06392216 -0.15724866 0.14980882 0.024841778 -0.082690805 0.11517806 0.123160526 -0.0030881115 0.09327734 0.17781267 -0.045836844 -0.03758816 0.025458336 -0.10423807 0.11788449 -0.14512464 0.11366002 0.048172403 0.050497405 0.09857544 0.011133259 0.13684788 0.11238515 0.119444795 0.04315627 0.108044654 -0.12185321 0.03185561 0.08202525 0.01832756 0.032039564 -0.1842065 0.019053936 0.14301823 0.11177245 0.080719545 -0.062700205 0.086568445 -0.0772933 -0.058832478 -0.013365017 -0.017610868 -0.12565605 0.03357711 0.033837304 -0.049343657 -0.14787015 -0.031081397 0.08674432 -0.08861774 -0.0049133487 0.015857087 -0.064771906 -0.100622416 0.1441453 0.12532145 0.007673676 0.048751738 0.035530724 -0.0151131265 0.11896512 0.06757203 0.07759877 -0.15013109 0.108421326 -0.04450514 0.09349591 -0.050183896 -0.013457263 0.10620339 -0.0009119986 0.03411707 0.044174712 0.013173207 -0.13183834 -0.09064959 0.005140817 0.13475475 0.1421305 -0.10383178 -0.008181983 0.11850518 -0.14829852 0.13286497 0.085542254 0.17873241 -0.13379577 -0.15300637 0.08183374 0.12777144 0.14588003 0.055914734 -0.118005075 -0.064216934 0.110690266 -0.11679941 0.15404984 0.13942698 -0.06852549 0.06838045 -0.09342823 0.055042397 0.016452976 -0.111327074 -0.08649811 0.07222832 0.10322089 -0.007636701 -0.07713397 -0.04826127 0.025418233
29 -0.06788939 -0.09008601 0.035179384 0.044366077 -0.115840964 -0.065892875 -0.1437037 -0.13698609 0.017618997 0.14139594 -0.12953399 0.03972713 0.092220105 -0.040873867 0.033942264 0.084276706 0.06758893 0.0360802 -0.14671947 0.13021591 0.023453789 -0.081178844 0.10607582 0.10943594 -0.004440759 0.066916704 0.14872596 -0.03726758 -0.028997203 0.03378935 -0.10313552 0.105924785 -0.12719706 0.0909239 0.03694766 0.046619933 0.101438075 0.015558468 0.10988213 0.093198106 0.11308983 0.030618828 0.093126684 -0.09588002 0.020278677 0.0702823 0.014926575 0.025528777 -0.16483845 0.016358951 0.126875 0.09455861 0.059905995 -0.06673866 0.08095972 -0.07167851 -0.047308788 -0.0092875585 -0.015321994 -0.09574034 0.020185636 0.03246433 -0.046440903 -0.13464987 -0.023970379 0.07640203 -0.078066304 -0.009178908 0.012680176 -0.03952167 -0.09238862 0.13490866 0.10650439 0.007433163 0.050920565 0.039283596 -0.01071086 0.10637833 0.07717598 0.057632983 -0.15418364 0.096193165 -0.032261882 0.07908974 -0.03821415 -0.012631288 0.094830416 -0.0023223087 0.019004732 0.045835845 0.012013184 -0.10882663 -0.06472239 0.0019728704 0.11755595 0.12858373 -0.09513604 -0.0035166163 0.10498674 -0.12808207 0.12361947 0.07211767 0.15094866 -0.12012426 -0.13797733 0.06667398 0.11539402 0.12062305 0.041644145 -0.10634907 -0.053993925 0.10287278 -0.10415436 0.14340755 0.12400142 -0.06133373 0.056730743 -0.08668449 0.05035 0.00794749 -0.090704665 -0.08671355 0.06535857 0.098635495 -0.0068808477 -0.056219295 -0.04437053 0.011112574
30 -0.07831375 -0.09721307 0.0372011 0.037130844 -0.12266923 -0.065330595 -0.14065485 -0.13560675 0.016376069 0.13936427 -0.13453656 0.041868564 0.100326605 -0.04630407 0.03245388 0.089431114 0.07269473 0.05138314 -0.15097019 0.14052063 0.02179621 -0.08141929 0.10790007 0.1116144 -0.0014015315 0.084603176 0.15800974 -0.046819955 -0.040069655 0.022594394 -0.10071919 0.10990017 -0.13584255 0.09930818 0.04109868 0.05143634 0.09355557 0.0118176 0.11850556 0.10271629 0.10919913 0.037390962 0.09866696 -0.106516495 0.02216922 0.08122431 0.017451916 0.028874505 -0.16935125 0.021081284 0.12933452 0.10442092 0.07004482 -0.062000915 0.083839625 -0.069169655 -0.055312257 -0.007869822 -0.020858666 -0.108065106 0.032060776 0.03291676 -0.05161544 -0.13398248 -0.01859907 0.077635646 -0.080521055 0.004730794 0.016251026 -0.057621457 -0.09556243 0.13599892 0.115551546 0.0063849404 0.04911914 0.037623525 -0.008011125 0.10813149 0.06920156 0.072705925 -0.1482583 0.10153558 -0.039053246 0.08455766 -0.039066408 -0.010634536 0.094457746 -0.004141588 0.023906138 0.034550905 0.014463072 -0.11520197 -0.078476705 0.0023845024 0.12304096 0.12934507 -0.10073912 -0.010763417 0.108662 -0.1398872 0.12589896 0.07927546 0.15534206 -0.121852085 -0.14283353 0.0714487 0.122863874 0.12620254 0.04688698 -0.11002329 -0.055742793 0.1067437 -0.1061871 0.14294337 0.1301535 -0.06882907 0.065387 -0.08686531 0.0535367 0.014970245 -0.09635867 -0.08724624 0.06783455 0.099666126 -0.0035868555 -0.06491071 -0.046851173 0.018772218
31 -0.07357536 -0.09235546 0.02959952 0.0460926 -0.12853576 -0.058396593 -0.14287576 -0.13098368 0.017924141 0.1346363 -0.12346977 0.047553036 0.093425445 -0.05066004 0.037906222 0.09071532 0.06767166 0.04262062 -0.15080959 0.14092462 0.030827492 -0.0749965 0.09365881 0.10751694 0.010562116 0.08664352 0.15524629 -0.028286582 -0.0307872 0.029662907 -0.08963333 0.09843423 -0.12401801 0.09354218 0.037159756 0.05829875 0.09497446 0.012891015 0.12049121 0.09862874 0.10811875 0.040602688 0.09228855 -0.10739375 0.018672079 0.076831624 0.0229761 0.025514662 -0.16586225 0.01561489 0.12716863 0.099587016 0.057136856 -0.065084584 0.08039941 -0.070868276 -0.047108456 -0.01370378 -0.025611844 -0.10246597 0.02510238 0.033837333 -0.036328875 -0.13205145 -0.0221934 0.08901575 -0.070886195 -0.01191333 0.023773745 -0.04060747 -0.0856845 0.13632953 0.11630489 0.008016762 0.046391267 0.027864002 -0.02021508 0.10913743 0.06733576 0.057361864 -0.14195873 0.11008329 -0.04083868 0.07901563 -0.03164666 -0.022971472 0.09996356 -0.00351786 0.025979236 0.052029833 -0.004469717 -0.11252466 -0.07089067 0.012703135 0.117795475 0.12737219 -0.09639223 0.007896161 0.11263161 -0.13874693 0.118599735 0.07590042 0.15112275 -0.12290098 -0.13992184 0.060235128 0.10422678 0.11996672 0.032926865 -0.11087941 -0.05359853 0.09700246 -0.093800314 0.14138313 0.124956295 -0.06567887 0.07354965 -0.08924792 0.03644406 0.004473353 -0.08854963 -0.090172194 0.07689082 0.09984163 -0.00477518 -0.054098167 -0.03334459 0.013183804
32 -0.07088412 -0.09292196 0.037670385 0.03888239 -0.121083684 -0.062087614 -0.13664924 -0.13249058 0.017731905 0.13451105 -0.12829648 0.04169789 0.101105586 -0.049209744 0.028038131 0.0922713 0.06701317 0.046116382 -0.14901385 0.13600214 0.022707688 -0.07845664 0.10453138 0.10543903 0.001259644 0.083367005 0.16307245 -0.03879559 -0.035928663 0.025582569 -0.09613869 0.10392179 -0.13175312 0.09608804 0.03790911 0.047640827 0.09361598 0.013467891 0.119009346 0.09698648 0.108333014 0.03305267 0.09011924 -0.1066354 0.025562296 0.07761532 0.0162873 0.026905384 -0.16465054 0.01777277 0.12924367 0.10090765 0.06760031 -0.0632458 0.077485606 -0.06914576 -0.055647507 -0.008495905 -0.018900717 -0.10924548 0.027556684 0.032387216 -0.044900894 -0.13438739 -0.0234939 0.078427464 -0.075427994 -0.0019972883 0.014747803 -0.05240831 -0.091639325 0.13323843 0.11668554 0.008344309 0.042792015 0.030538226 -0.012693232 0.109734066 0.06841442 0.06483567 -0.14264745 0.09899644 -0.036856625 0.083206974 -0.03989849 -0.013131272 0.09429565 -0.0013495786 0.027600642 0.037015375 0.008188492 -0.114667416 -0.07555513 0.005496314 0.11812855 0.13061954 -0.0937605 -0.0028573498 0.10457863 -0.13849436 0.12348338 0.07532301 0.15321739 -0.12069896 -0.13840352 0.0682808 0.1148241 0.12423239 0.04274594 -0.10921164 -0.058158122 0.101356335 -0.10155084 0.14144942 0.13158208 -0.06638192 0.06405964 -0.08327492 0.04611502 0.012045192 -0.0908825 -0.08598835 0.06979169 0.09613535 -0.006015147 -0.05977512 -0.042510267 0.018188026
33 -0.07672473 -0.09132464 0.04067488 0.034245636 -0.12332693 -0.064762704 -0.13986494 -0.13227703 0.019111756 0.1361022 -0.13164042 0.04331491 0.09924589 -0.046677 0.02996563 0.09010601 0.07029903 0.05174171 -0.14654613 0.13666737 0.023286942 -0.079684705 0.10770122 0.10994258 -0.0031702928 0.08561647 0.15950164 -0.04304468 -0.039213445 0.022178387 -0.09790484 0.10587736 -0.13163306 0.09840986 0.04211163 0.047144815 0.09120335 0.0073918956 0.118450165 0.098918155 0.10889327 0.03765685 0.09659974 -0.10787264 0.025258442 0.07882026 0.020052524 0.029453404 -0.16587456 0.018997118 0.13183337 0.102645665 0.06746305 -0.06275264 0.08035485 -0.064070396 -0.057431523 -0.01029344 -0.018797277 -0.10872528 0.030258965 0.02814873 -0.051450416 -0.13344324 -0.02082661 0.07949181 -0.07957415 0.004476944 0.01612428 -0.056857523 -0.09092966 0.13161278 0.11322546 0.0096941255 0.045727648 0.032779653 -0.007880854 0.11219852 0.06524691 0.07072296 -0.1453315 0.101091616 -0.038205888 0.084274575 -0.040160753 -0.010567518 0.09328655 -0.0018726983 0.027054533 0.036628004 0.012958598 -0.11757366 -0.0769636 0.0013786037 0.12071048 0.13218233 -0.0963896 -0.010328357 0.10589015 -0.14003903 0.1220091 0.07647432 0.15643889 -0.11716124 -0.14137125 0.07288311 0.11740275 0.12503964 0.046877183 -0.11173019 -0.053692278 0.10255724 -0.10516247 0.14063811 0.13174632 -0.06818592 0.064820185 -0.08973591 0.051814117 0.014791507 -0.09538407 -0.09050043 0.069344796 0.09661569 -0.0032552572 -0.06621304 -0.04405412 0.018625002
34 -0.07970024 -0.09347931 0.04275809 0.045850173 -0.13370807 -0.062564895 -0.14709799 -0.14111747 0.028997228 0.14154717 -0.13810892 0.05168253 0.10206421 -0.05723687 0.03310563 0.10112761 0.08271606 0.049160477 -0.15769888 0.143986 0.029243872 -0.08261067 0.10825888 0.10785053 0.00837254 0.095766105 0.17009558 -0.035930935 -0.040544845 0.02905665 -0.09704439 0.103015505 -0.14009859 0.105552785 0.03963656 0.060765095 0.10253237 0.013250366 0.12341941 0.1027259 0.1184305 0.04619755 0.10598688 -0.10514002 0.024415348 0.08384921 0.020882875 0.0276513 -0.17988405 0.019217873 0.14059933 0.112014286 0.06546683 -0.0689572 0.07911074 -0.07024992 -0.054917708 -0.009086162 -0.0248736 -0.107418 0.029237665 0.034795877 -0.048426196 -0.1358159 -0.022929804 0.09229678 -0.07720665 0.001448649 0.022434268 -0.053113338 -0.08872835 0.1409406 0.123504065 0.012535855 0.053001676 0.028668702 -0.019220525 0.12177193 0.063470095 0.06942775 -0.14931393 0.112323165 -0.039357457 0.08651564 -0.034569018 -0.019613292 0.10089709 -0.0038511897 0.03324582 0.04459075 -0.0022750013 -0.119803645 -0.085248515 0.014155014 0.13190125 0.13700442 -0.10139042 -0.003886409 0.11402995 -0.15158266 0.12696111 0.084584266 0.15510707 -0.12234329 -0.15094197 0.06991467 0.11746167 0.12688424 0.037256762 -0.11452108 -0.058134608 0.11052755 -0.107678555 0.14318915 0.14014721 -0.07527175 0.07790112 -0.0983034 0.041799754 0.009411687 -0.090929866 -0.10506766 0.07667068 0.10352347 0.0036181775 -0.06186206 -0.037531637 0.0114058
35 -0.10142486 -0.088412225 0.05124761 0.006809123 -0.13068871 -0.055333406 -0.1401295 -0.13703838 0.0142166335 0.14737727 -0.15569653 0.03281916 0.10678953 -0.037950847 0.020792332 0.08829142 0.06940086 0.07001196 -0.1547359 0.14291486 0.011134118 -0.0833159 0.12711129 0.124285996 -0.022183197 0.09581882 0.16289708 -0.065001495 -0.041951265 -0.0035655797 -0.11224054 0.1220711 -0.12842679 0.088975824 0.048218552 0.048851643 0.09322903 -0.017927155 0.13164723 0.11116035 0.11175226 0.024348658 0.098627694 -0.12384481 0.021856688 0.09114642 0.024243511 0.04832242 -0.1668518 0.026318027 0.14609922 0.10792059 0.07690152 -0.055306982 0.09493928 -0.055013686 -0.052067053 -0.006880696 0.0042201653 -0.116602615 0.039990216 0.011906043 -0.06572041 -0.14063755 -0.0031008814 0.06580764 -0.10188326 0.013213387 0.020424364 -0.07120774 -0.107547805 0.14025204 0.11345785 0.005001215 0.04546369 0.029236477 0.015130518 0.12674783 0.06798093 0.07944517 -0.14687726 0.107279256 -0.048338216 0.09783388 -0.049525835 -2.793828e-05 0.09563885 -0.0068517574 0.022757988 0.026100015 0.04637073 -0.13519609 -0.09089072 -0.028119385 0.13419637 0.14200799 -0.112139195 -0.033904903 0.10489939 -0.15042405 0.1320336 0.09352181 0.18843845 -0.1215626 -0.1578574 0.093807 0.1654565 0.13235311 0.065685555 -0.1257214 -0.038585264 0.12894997 -0.11438866 0.15396488 0.14135957 -0.075245604 0.048251607 -0.09599592 0.078123935 0.039397944 -0.11968505 -0.09660728 0.075345255 0.09712051 -0.005197337 -0.09644151 -0.067293495 0.041090533
36 -0.07692984 -0.09328767 0.04167624 0.03732421 -0.124387674 -0.066847675 -0.14180356 -0.13439874 0.018208146 0.13812205 -0.13348475 0.04262662 0.101866305 -0.048157357 0.02985914 0.091458976 0.07251517 0.052465063 -0.15010706 0.1378332 0.02419169 -0.080523625 0.11115928 0.11173768 -0.003293646 0.085618824 0.16183129 -0.04626225 -0.04090526 0.023253582 -0.10258047 0.10766296 -0.13466093 0.09836051 0.04347562 0.047960818 0.09668596 0.010516971 0.11865227 0.10020304 0.11235327 0.037483733 0.09929998 -0.10931244 0.024699314 0.080179125 0.018697605 0.03130421 -0.17112887 0.020108674 0.13444668 0.10643924 0.0696379 -0.060928356 0.08054264 -0.06791411 -0.060061768 -0.008378436 -0.018596236 -0.10935224 0.032634906 0.03032153 -0.051781803 -0.13437255 -0.02087457 0.07955192 -0.082087144 0.00425522 0.017194623 -0.058996383 -0.093255885 0.13390926 0.11637409 0.009454585 0.04909412 0.034193415 -0.010336716 0.114195645 0.06820424 0.07076252 -0.14788875 0.10168399 -0.040532205 0.08738207 -0.040645633 -0.009697299 0.09601149 -0.0033406673 0.027311645 0.03606381 0.014679581 -0.11802167 -0.079291716 0.0023117126 0.121389166 0.13449585 -0.0994467 -0.011325306 0.10734693 -0.14263457 0.12598391 0.07679338 0.15666737 -0.12252854 -0.14539216 0.07502324 0.11982859 0.12759806 0.04697244 -0.11292631 -0.05548636 0.1052353 -0.106830634 0.1428316 0.13386156 -0.06941175 0.06755707 -0.089051984 0.055633746 0.015184436 -0.09683109 -0.08947241 0.07095931 0.09827604 -0.004456829 -0.06757011 -0.046115357 0.019271355
37 -0.07040566 -0.09545647 0.035052918 0.046028413 -0.12256466 -0.059446532 -0.14018509 -0.13449934 0.017857343 0.13370216 -0.12632279 0.03865805 0.09710214 -0.047810793 0.026415238 0.094242536 0.070338875 0.043091968 -0.15361282 0.13213952 0.0271047 -0.08796102 0.103750646 0.11045482 0.0030818335 0.07423429 0.15786873 -0.032100424 -0.028018447 0.03535264 -0.098563395 0.104331374 -0.13837694 0.09586359 0.04229824 0.046007294 0.11110998 0.016351348 0.12085073 0.09424693 0.11242948 0.03364914 0.096088625 -0.10596933 0.023359912 0.07430664 0.017601151 0.024638992 -0.1692117 0.013680704 0.12578316 0.10093227 0.05824264 -0.07105915 0.07200551 -0.0761056 -0.055602465 -0.0059820917 -0.015533577 -0.105587855 0.022334337 0.040241163 -0.04740671 -0.14043568 -0.03171693 0.077033676 -0.075163014 -0.011465647 0.012589263 -0.050204962 -0.09107972 0.13215679 0.11697345 0.0146272415 0.045743644 0.03543955 -0.020253094 0.11085221 0.0695085 0.06134598 -0.14983381 0.09991604 -0.03143108 0.081101626 -0.037606645 -0.019443527 0.09493428 8.992734e-06 0.024524828 0.043603186 0.0056074224 -0.10869375 -0.07254252 0.005174281 0.11886966 0.1319523 -0.08435352 -0.0027948115 0.11626423 -0.13925192 0.12881106 0.0689615 0.15409064 -0.11921454 -0.1399222 0.060541444 0.10772666 0.12213041 0.03219115 -0.11518494 -0.06563017 0.10295603 -0.10744093 0.15219632 0.12732975 -0.05813636 0.062349234 -0.08229888 0.039700255 -0.00364968 -0.08875474 -0.08537851 0.070192836 0.10371167 -0.012452312 -0.05165963 -0.035061724 0.012622223
38 -0.081334375 -0.10081489 0.042706598 0.031455547 -0.13042945 -0.063908316 -0.15189242 -0.14309122 0.014758446 0.1470858 -0.13424599 0.037179843 0.10730993 -0.048873562 0.032251168 0.097609825 0.07632266 0.053703256 -0.15834044 0.14709662 0.028438475 -0.083156146 0.11605363 0.12057645 -0.0058343667 0.08770807 0.1642429 -0.04971677 -0.046270907 0.028974332 -0.105628744 0.115514815 -0.14903802 0.103290915 0.04876553 0.05231615 0.10014456 0.005938104 0.12678081 0.10307593 0.11528816 0.036368724 0.109167814 -0.11733667 0.024756566 0.08057224 0.028866246 0.029818293 -0.17083073 0.023730652 0.13052933 0.11414626 0.07328035 -0.0608695 0.08416276 -0.06958366 -0.06412248 -0.009022924 -0.018158613 -0.11472085 0.032053996 0.03392982 -0.06143253 -0.13998117 -0.020091817 0.08424141 -0.08400554 0.008828495 0.017155454 -0.06821653 -0.10265869 0.14109732 0.11372431 0.016020982 0.048697885 0.034385964 -0.008617495 0.11815538 0.074170254 0.07173873 -0.15729778 0.102078155 -0.037443332 0.095443815 -0.04292763 -0.010094083 0.09639486 -0.00095597305 0.02838179 0.033240657 0.018713972 -0.12058868 -0.08706564 -0.0021191274 0.12445985 0.1397484 -0.10264465 -0.011289877 0.11285778 -0.14403588 0.13534354 0.07916595 0.16453084 -0.12886237 -0.14840338 0.074056424 0.12769046 0.12980276 0.047797706 -0.12299346 -0.064007774 0.115365505 -0.11047853 0.14964528 0.14036855 -0.07297438 0.07277675 -0.09116026 0.058037173 0.013611786 -0.102950856 -0.088389255 0.074925296 0.10811735 0.000567602 -0.07144665 -0.04596751 0.021188423
39 -0.07563033 -0.096864656 0.03880932 0.038427778 -0.12887575 -0.06885541 -0.14387186 -0.13564938 0.016847365 0.13887137 -0.13251525 0.042301882 0.103256054 -0.05165634 0.03150751 0.091773525 0.070709944 0.05014527 -0.15453672 0.13782473 0.024036355 -0.07834793 0.1099872 0.1052567 0.0015033209 0.08603204 0.1628947 -0.04121664 -0.03720088 0.0260903 -0.09981405 0.109635964 -0.1382662 0.10186535 0.039704423 0.047284137 0.09679657 0.014430316 0.12232865 0.100186646 0.109072715 0.037323628 0.100268744 -0.10709287 0.024545878 0.08112148 0.013142511 0.028055849 -0.16946214 0.015479039 0.13080728 0.104506284 0.07155321 -0.06511702 0.07838772 -0.06939761 -0.05322709 -0.0043918444 -0.020013548 -0.11284679 0.028632352 0.031745333 -0.052473813 -0.13832249 -0.024161786 0.08026669 -0.083100446 -0.0021746336 0.011293873 -0.05424065 -0.09326749 0.13472237 0.11494554 0.009746051 0.046630356 0.035770983 -0.015589289 0.10884008 0.065707274 0.06871583 -0.15119468 0.09966592 -0.039455764 0.08545691 -0.04113911 -0.0123946555 0.096267335 -0.005363788 0.027309844 0.039569605 0.0073589496 -0.116165936 -0.083899274 0.0047506373 0.12693879 0.13303025 -0.09947694 -0.006500069 0.105943196 -0.14153439 0.12816308 0.07763527 0.1579126 -0.12200933 -0.14409986 0.07199258 0.11660253 0.13219476 0.048245937 -0.10874493 -0.05648659 0.10172498 -0.10495331 0.14461267 0.13580537 -0.067565545 0.06405036 -0.09048799 0.04714837 0.014327034 -0.091685586 -0.084526174 0.064553685 0.097243294 -0.0052235425 -0.059873756 -0.04551251 0.014551174
40 -0.06928436 -0.09091729 0.031902917 0.043072976 -0.11878657 -0.060577363 -0.13854656 -0.12975004 0.019456575 0.13262734 -0.12187446 0.046875782 0.09717869 -0.047658198 0.036385424 0.08871497 0.068211816 0.038553648 -0.14695184 0.13365683 0.028595075 -0.07345791 0.09777566 0.100789845 0.0052229357 0.08079012 0.15690863 -0.028033312 -0.027982932 0.031034306 -0.08863456 0.09620294 -0.1275173 0.095642656 0.03390991 0.050846756 0.094986 0.016203376 0.11417349 0.09110406 0.10995168 0.03808468 0.09055241 -0.09893402 0.023456974 0.074377134 0.016698834 0.018370783 -0.16303757 0.016710145 0.12422269 0.101174355 0.055372275 -0.06853629 0.0763639 -0.06574534 -0.0472545 -0.010114969 -0.023991859 -0.10157833 0.019648189 0.033380575 -0.041671254 -0.13172331 -0.023649605 0.083920956 -0.06924114 -0.00837711 0.016129151 -0.043347474 -0.08606981 0.13223214 0.11267287 0.008614132 0.044342108 0.033404276 -0.019642144 0.10449873 0.06237017 0.058346834 -0.14273691 0.10208061 -0.0368874 0.07753202 -0.028448736 -0.019012922 0.09150223 -0.0037832074 0.024503652 0.04378815 -0.0011682194 -0.108214274 -0.067981735 0.010336344 0.11310484 0.12550047 -0.08906837 0.0030999929 0.10876131 -0.13658202 0.11882959 0.0714845 0.14603212 -0.11555657 -0.13782358 0.063349694 0.104601115 0.12147831 0.0333433 -0.10842387 -0.054978367 0.09489277 -0.09739198 0.13790375 0.12660502 -0.064490005 0.065223835 -0.09021337 0.033917658 0.0018873718 -0.086351536 -0.090912454 0.06839291 0.09931309 -0.0037627465 -0.049276277 -0.03464456 0.009251181
41 -0.07984977 -0.093178384 0.04009387 0.03560554 -0.12886216 -0.06972911 -0.15270194 -0.13804749 0.023732074 0.14141713 -0.13854805 0.04405253 0.10379499 -0.051911976 0.032321505 0.097555764 0.074941464 0.052087776 -0.15713562 0.14007804 0.031205185 -0.08357271 0.1154615 0.12057109 -0.0065725828 0.083115 0.16768768 -0.03917313 -0.031298146 0.03052852 -0.10669614 0.108867325 -0.14094523 0.10184825 0.048459332 0.0427245 0.10459627 0.011967113 0.1236932 0.096954875 0.11917357 0.03933903 0.1025721 -0.11289065 0.03276188 0.07984761 0.018685887 0.028986413 -0.17686911 0.020145562 0.13841727 0.10863624 0.06690803 -0.066064276 0.080343924 -0.070264116 -0.06403584 -0.0121819675 -0.016719287 -0.11595887 0.029195284 0.030923843 -0.054991435 -0.14101656 -0.028697725 0.0857859 -0.08144488 1.5522353e-05 0.0147129735 -0.05981563 -0.09290908 0.13600855 0.11678486 0.009796774 0.049741913 0.0356936 -0.02067705 0.11527038 0.06948664 0.066073745 -0.15762143 0.10253699 -0.04124247 0.09014718 -0.041101016 -0.014989529 0.101992145 -0.0032956074 0.02563667 0.043743316 0.014803516 -0.11971443 -0.078389555 0.00034485245 0.122596115 0.14161544 -0.09524251 -0.009836006 0.11174599 -0.14465071 0.13294938 0.073380515 0.16128235 -0.12870756 -0.14892739 0.078511275 0.11723767 0.13355102 0.04992861 -0.117900595 -0.061797943 0.100949354 -0.1152616 0.1466253 0.13908967 -0.06872908 0.06764458 -0.0952005 0.05172299 0.009886613 -0.10178359 -0.09477041 0.07338984 0.10749353 -0.0056167627 -0.06538211 -0.04318569 0.01560865
42 -0.07819466 -0.095317386 0.022974947 0.043705225 -0.12663518 -0.06470797 -0.14281656 -0.13135971 0.015765345 0.13096347 -0.13013871 0.04656364 0.10482741 -0.059259284 0.036123972 0.08347139 0.06766162 0.056557797 -0.15174393 0.13631293 0.03257303 -0.07625904 0.09943581 0.10866963 0.0023799255 0.08959086 0.16120921 -0.037606016 -0.036872093 0.025889983 -0.08862158 0.10415638 -0.12651992 0.106117606 0.04489702 0.04643092 0.10179416 0.0167194 0.117319085 0.10251704 0.11366268 0.04258217 0.08976674 -0.111416824 0.02298184 0.074297294 0.016107919 0.02999559 -0.16515902 0.018070249 0.13921556 0.110821515 0.068646066 -0.067142315 0.080085926 -0.071895085 -0.048090786 -0.0110294735 -0.01968403 -0.10638653 0.023710499 0.0323558 -0.041247483 -0.1374818 -0.024276435 0.086948924 -0.08150701 -0.0139260935 0.021550812 -0.05265277 -0.08405721 0.12781553 0.120861776 0.0015849406 0.042647213 0.034329332 -0.012151444 0.10842383 0.06143204 0.07470087 -0.13841033 0.1056421 -0.044634145 0.08068094 -0.035354473 -0.018501228 0.102558576 -0.0001001847 0.025296569 0.052604668 0.00205921 -0.11498457 -0.07246299 0.013042671 0.12132589 0.123981334 -0.08988267 0.0023553465 0.1101867 -0.15237652 0.1214324 0.073159255 0.15805165 -0.11727045 -0.14433108 0.07189612 0.10570476 0.12964647 0.04531709 -0.105981365 -0.045571674 0.09366069 -0.10498909 0.14885613 0.13103208 -0.066597484 0.0697164 -0.09247071 0.039014537 0.0020383988 -0.093930185 -0.08115825 0.062120743 0.09760007 -0.010248344 -0.058145486 -0.04873402 0.01874828
43 -0.07718033 -0.09465747 0.0385787 0.036751337 -0.12546936 -0.06732487 -0.14223687 -0.13531391 0.017507326 0.13860527 -0.13495117 0.04229459 0.10237359 -0.049145877 0.029200083 0.09011636 0.072511375 0.053991567 -0.15503974 0.1371272 0.02533829 -0.0810665 0.109936744 0.111983195 -0.0008248114 0.08642871 0.16189204 -0.044775553 -0.038532246 0.0226615 -0.102873966 0.10895044 -0.13668498 0.09926976 0.04454933 0.04656199 0.10006728 0.012877494 0.11989778 0.100846656 0.11062834 0.038073625 0.09978125 -0.10973801 0.025345925 0.08105738 0.016069636 0.030721452 -0.1724966 0.020407245 0.13461609 0.10771935 0.070177995 -0.06176762 0.08094117 -0.07032001 -0.058731478 -0.0055020554 -0.019221371 -0.111707024 0.032914784 0.031341236 -0.05201538 -0.13723072 -0.021910902 0.07858282 -0.08214973 0.00293577 0.01679632 -0.06022558 -0.09248555 0.133019 0.117886156 0.0070560197 0.05024205 0.036731657 -0.014012381 0.111749254 0.06755554 0.07117241 -0.14943862 0.10183589 -0.041745845 0.08779638 -0.039070003 -0.0110463295 0.098379366 -0.006040348 0.024107685 0.037551913 0.013761244 -0.116940446 -0.08067139 0.0027129678 0.12406421 0.13283151 -0.098171934 -0.011311749 0.1088752 -0.14564933 0.12902848 0.07618972 0.15682757 -0.12461196 -0.1472358 0.07496889 0.11902521 0.12956665 0.047856275 -0.11219653 -0.055706732 0.10458445 -0.10828501 0.1450658 0.13478833 -0.06974938 0.06726171 -0.08859971 0.051940426 0.012786194 -0.09549908 -0.08738181 0.068705656 0.09930147 -0.006196443 -0.06457606 -0.046800856 0.017319288
44 -0.07776595 -0.09666102 0.042452004 0.035558175 -0.12778577 -0.062022246 -0.14291385 -0.14008214 0.015033025 0.14309704 -0.13366853 0.038102802 0.10097419 -0.0476401 0.027134331 0.094066955 0.07396319 0.05196848 -0.15036401 0.13920474 0.02305797 -0.08434654 0.11038892 0.11070723 -0.0049177352 0.08586355 0.16063493 -0.0476306 -0.0453295 0.027236776 -0.10337188 0.11117571 -0.14006005 0.09706981 0.04392972 0.04926629 0.10191548 0.0075563723 0.12229539 0.10185453 0.11245778 0.031546045 0.10399485 -0.1111701 0.022642475 0.079981245 0.025434647 0.032534372 -0.16657789 0.020478224 0.13064058 0.10550065 0.06679099 -0.06439022 0.07963138 -0.06862557 -0.057579953 -0.0057972963 -0.015126284 -0.10781543 0.02866493 0.032011338 -0.0571104 -0.13606054 -0.021533107 0.07972817 -0.08381058 0.0017328514 0.015874067 -0.05932797 -0.097715855 0.13401411 0.11205699 0.017651819 0.045383003 0.029792171 -0.003912856 0.11949169 0.072586454 0.07091515 -0.1508018 0.10054031 -0.033310533 0.09067554 -0.04340063 -0.009781763 0.09525049 -0.00013791071 0.030805573 0.035628084 0.0131059 -0.11521842 -0.08210693 -0.0011909609 0.12522879 0.1375165 -0.1001511 -0.012286351 0.107552275 -0.1456011 0.12886566 0.08030997 0.16280586 -0.11937161 -0.14365001 0.069841154 0.12296612 0.12070189 0.043400835 -0.11810792 -0.055177797 0.113626756 -0.10531529 0.14825195 0.13700749 -0.0685524 0.0663711 -0.08900145 0.054335043 0.011415818 -0.096940696 -0.089872286 0.07441413 0.10133815 -0.002182812 -0.067814514 -0.045836546 0.019197244
45 -0.08086372 -0.09854246 0.047395274 0.040619783 -0.128912 -0.06805935 -0.1462921 -0.1420082 0.020289062 0.14246486 -0.14267954 0.045436833 0.106361814 -0.052503355 0.031554766 0.09762057 0.074052185 0.05487914 -0.15292592 0.14520842 0.021110311 -0.08153238 0.11487982 0.11058133 0.0009505837 0.09200457 0.16829863 -0.04999252 -0.046155144 0.024177026 -0.10314541 0.115421414 -0.13867013 0.1034495 0.040357277 0.05358965 0.096667364 0.011673329 0.12476687 0.10413283 0.11530402 0.03805671 0.09958856 -0.11306165 0.024404095 0.08643994 0.018449143 0.03473434 -0.17652938 0.020236686 0.13971202 0.10547169 0.07396709 -0.06522928 0.08757832 -0.07085841 -0.058203973 -0.009544268 -0.01920572 -0.11510129 0.034061443 0.030646874 -0.051499918 -0.14065696 -0.0247957 0.08285302 -0.087907284 0.00027314015 0.019813063 -0.06019745 -0.10054509 0.14212924 0.12320692 0.010475967 0.047445197 0.03254977 -0.008172262 0.11875313 0.07355025 0.07538633 -0.15081061 0.10547992 -0.041851133 0.08735966 -0.044959106 -0.011292493 0.10069974 -0.0026400117 0.031452943 0.038668945 0.012039712 -0.124279894 -0.0850614 0.0026892629 0.13104546 0.14017048 -0.106113054 -0.009690574 0.10944132 -0.14694408 0.12807162 0.086319014 0.16546151 -0.12468295 -0.14855741 0.07945443 0.12687576 0.13226447 0.050826583 -0.11489485 -0.054262005 0.111464515 -0.109564595 0.14587957 0.13899817 -0.07527498 0.068875514 -0.09511478 0.056359522 0.01789654 -0.10306321 -0.09475843 0.07539287 0.09969584 -0.0029443107 -0.07166513 -0.05030951 0.019225612
46 -0.0799517 -0.1142482 0.028850352 0.08177138 -0.14016306 -0.04529983 -0.16419737 -0.17329338 0.034426726 0.14768346 -0.14508235 0.06018521 0.112286106 -0.09060033 0.044328094 0.1480436 0.087049745 0.038004637 -0.16969173 0.1631673 0.05549038 -0.07542451 0.11579006 0.118944064 0.018016832 0.099876344 0.18653883 -0.022732005 -0.019436143 0.05978912 -0.105182394 0.10171126 -0.14863563 0.11703338 0.043200508 0.07715462 0.15021019 0.04597153 0.14013918 0.10391455 0.16025099 0.04785204 0.11975783 -0.10590981 0.03340466 0.08620372 0.022901202 0.020916017 -0.20968615 0.029949192 0.15739311 0.1492823 0.043828137 -0.077072285 0.07819843 -0.09212476 -0.048431814 -0.02253785 -0.031129487 -0.1190075 0.008659128 0.0562363 -0.032576203 -0.14641432 -0.041098557 0.12073743 -0.06954067 -0.038108803 0.03675331 -0.055715933 -0.10153508 0.16432573 0.14811072 0.0056818747 0.059046283 0.027195677 -0.04552311 0.13379341 0.08565739 0.051568706 -0.16697185 0.11271283 -0.059053846 0.098584875 -0.030757012 -0.031551268 0.12193523 0.0033362848 0.039146494 0.0621612 -0.025386652 -0.11142127 -0.08151847 0.046285946 0.1174314 0.14328794 -0.09408888 0.024822058 0.13723782 -0.14583276 0.14637573 0.09811049 0.17158315 -0.15414555 -0.15577003 0.07290278 0.119697094 0.12485982 0.03133382 -0.13885231 -0.074957915 0.11935265 -0.10684555 0.15172666 0.13641013 -0.08482295 0.093091995 -0.113515615 0.01936483 -0.018286727 -0.10287188 -0.10297194 0.09243578 0.11779164 -0.014570757 -0.040287267 -0.03682089 0.0031987373
47 -0.07452388 -0.08945485 0.043046154 0.037529442 -0.124687195 -0.059160918 -0.1385807 -0.1375072 0.018885043 0.12968196 -0.12788366 0.038804445 0.09396072 -0.047813706 0.02857878 0.094035774 0.07460361 0.049944825 -0.13491806 0.13872217 0.022737205 -0.082004994 0.105280355 0.10772062 0.0011570831 0.07717458 0.15438324 -0.041410133 -0.041499685 0.03896478 -0.099256165 0.10563424 -0.13253549 0.092265606 0.04327769 0.04446648 0.10354975 0.0046198745 0.11166485 0.09296866 0.105719104 0.03043503 0.094297536 -0.11157598 0.01788089 0.07760787 0.027892044 0.038360454 -0.16647711 0.0157925 0.1286246 0.10365641 0.06416173 -0.06281273 0.07787614 -0.066869676 -0.058202438 -0.008907398 -0.021849684 -0.10536205 0.021980379 0.027686153 -0.052918375 -0.13304362 -0.024692627 0.07537977 -0.07771663 -0.004777604 0.01540391 -0.0449327 -0.09014585 0.12617475 0.11009355 0.01653229 0.0406447 0.032362234 -0.012357669 0.11235646 0.07132928 0.068832316 -0.1500959 0.09830442 -0.03539778 0.081348814 -0.042486686 -0.012864958 0.09565041 0.004377563 0.027094226 0.046727493 0.012662908 -0.11209897 -0.07383797 -8.469913e-06 0.112351924 0.13764162 -0.09614164 -0.008088859 0.110470474 -0.13658251 0.1237386 0.06820098 0.15504293 -0.11205975 -0.1354658 0.06277525 0.11218885 0.12004889 0.037092745 -0.11835936 -0.05321236 0.10515155 -0.09994879 0.14011258 0.12500352 -0.053065583 0.06678796 -0.08779599 0.052946404 0.011946377 -0.09873366 -0.08852562 0.07572905 0.10038997 -0.0040062387 -0.062488418 -0.04150932 0.022939313
48 -0.079322465 -0.09547176 0.04113705 0.03319519 -0.1241818 -0.06504273 -0.1429767 -0.13460073 0.018301314 0.137738 -0.1340313 0.04081291 0.10221661 -0.048564933 0.030895598 0.089775525 0.0720783 0.053727835 -0.15039127 0.13978712 0.023222664 -0.079820655 0.11042011 0.11403171 -0.004068784 0.08550216 0.16005605 -0.04610069 -0.040035103 0.022400467 -0.10075777 0.10993455 -0.13587148 0.09969981 0.04285776 0.048806228 0.09368531 0.009083535 0.120057344 0.101334356 0.111140095 0.03799341 0.09869437 -0.11163337 0.024964467 0.07933164 0.020028539 0.031640112 -0.16869059 0.020192403 0.13234262 0.10601854 0.071956575 -0.060393877 0.08237338 -0.06781809 -0.057765577 -0.008668783 -0.016514285 -0.10934556 0.03255893 0.030793777 -0.052276228 -0.13453972 -0.020503426 0.07900759 -0.082834296 0.0046030907 0.017499981 -0.060920235 -0.09594967 0.13416797 0.11544398 0.010353545 0.04714592 0.03464015 -0.007867966 0.11144461 0.06752346 0.071730085 -0.14718808 0.10014818 -0.039866272 0.08620396 -0.041630376 -0.010169465 0.09547964 -0.0018566895 0.026556365 0.035846263 0.016319 -0.11814974 -0.07994278 -0.0016968851 0.12232162 0.13349168 -0.099384606 -0.012285883 0.10729435 -0.14055197 0.12569338 0.07749637 0.15753701 -0.122598894 -0.14574234 0.074818864 0.12145258 0.12861645 0.049026236 -0.11322812 -0.05536538 0.105406195 -0.108251475 0.14365473 0.13378063 -0.0693527 0.065345645 -0.088842005 0.05621263 0.016195357 -0.09847962 -0.08854867 0.07036772 0.09901016 -0.003769294 -0.06815694 -0.04488623 0.020910637
49 -0.073228136 -0.09385782 0.0401994 0.057084456 -0.13020712 -0.063971594 -0.14164138 -0.1404915 0.024296416 0.1357451 -0.13021074 0.048560284 0.101529635 -0.063268974 0.036260642 0.09933427 0.06881339 0.041815393 -0.15067443 0.13737202 0.027315734 -0.07528812 0.110181406 0.09781128 0.011814993 0.085887335 0.1577309 -0.03653588 -0.033344742 0.0355284 -0.09660331 0.104596354 -0.12905607 0.101806335 0.025915572 0.056648146 0.10817998 0.025406543 0.117409304 0.09963261 0.11720773 0.039851356 0.093012154 -0.09747549 0.023958089 0.07823836 0.01685337 0.024410598 -0.16994566 0.013883499 0.13817191 0.10512486 0.06298708 -0.06439615 0.08123954 -0.07085237 -0.040238872 -0.011921151 -0.029572252 -0.10891107 0.021841971 0.03196661 -0.043942563 -0.13319442 -0.032124672 0.08388169 -0.07737701 -0.012797817 0.021629557 -0.042121567 -0.09531795 0.14161052 0.11839178 0.0028264746 0.04874214 0.029637992 -0.021009088 0.10940726 0.07713946 0.060309585 -0.1518369 0.10317696 -0.04738999 0.07968596 -0.031016208 -0.013679501 0.09975532 -0.009769587 0.028523993 0.04585236 -0.0085350815 -0.11170918 -0.07990281 0.014326119 0.12008038 0.12834689 -0.09712867 0.002902342 0.10870636 -0.14039755 0.1194246 0.07934828 0.15164599 -0.12428086 -0.1391229 0.06611668 0.11279949 0.1293272 0.04361193 -0.10992754 -0.059862357 0.10483811 -0.09923369 0.14258628 0.11997888 -0.07149497 0.069884226 -0.09749676 0.036541402 0.00960822 -0.089996785 -0.08893917 0.069030106 0.09585712 -0.011781411 -0.055299982 -0.037199285 0.00415539
50 -0.08230138 -0.110709526 0.045050457 0.062056854 -0.1441015 -0.07041613 -0.16713226 -0.16160062 0.02953241 0.15691532 -0.1485123 0.056613788 0.11648476 -0.0669711 0.040692605 0.118412174 0.084193796 0.046026904 -0.17998111 0.1615045 0.03676464 -0.09124571 0.11852626 0.11610395 0.018135585 0.09745255 0.18733478 -0.034111813 -0.035610817 0.045856796 -0.10880567 0.117800035 -0.1580792 0.11447479 0.03966323 0.0662362 0.12695068 0.027849821 0.14176047 0.10628779 0.13168402 0.044575278 0.110734925 -0.11582112 0.030332576 0.0921074 0.016269019 0.024444295 -0.19978724 0.02296046 0.14739725 0.12110421 0.06891585 -0.0819144 0.08875817 -0.08861612 -0.058565717 -0.010234457 -0.028873447 -0.124694824 0.027554147 0.047843006 -0.051329117 -0.15820813 -0.03647214 0.10462209 -0.0822597 -0.016520314 0.026112288 -0.052964725 -0.10672203 0.16324659 0.14002232 0.012103119 0.055906132 0.036887433 -0.036335204 0.1284939 0.08379615 0.06491857 -0.17287542 0.12110924 -0.046609968 0.093660355 -0.035161257 -0.028663917 0.11744206 -0.006738909 0.031580396 0.057076637 -0.011510497 -0.12656164 -0.0901382 0.021205846 0.14107579 0.15239781 -0.108765446 0.011285124 0.13348413 -0.16081032 0.14950106 0.09100959 0.17131492 -0.14406726 -0.16341534 0.07503036 0.12529732 0.14362492 0.039481707 -0.13029505 -0.07611167 0.12102845 -0.115622714 0.16329992 0.14954074 -0.08109077 0.08468644 -0.10671454 0.035722647 -0.0012928713 -0.10078227 -0.109350115 0.08635213 0.1205284 -0.004264847 -0.05402749 -0.04070447 0.0058675986
51 -0.075581044 -0.09632768 0.037782747 0.040958256 -0.12052197 -0.061243318 -0.1429473 -0.13507335 0.020005094 0.1362409 -0.1280528 0.04628942 0.10475318 -0.050251227 0.033155337 0.09354153 0.06950796 0.044671856 -0.15771466 0.14055006 0.027924985 -0.07882597 0.107133284 0.10897654 0.004056213 0.084966786 0.16073781 -0.034510236 -0.031764045 0.026896933 -0.09776004 0.10499944 -0.13556343 0.099419616 0.034727436 0.05232951 0.09785856 0.015047949 0.121377565 0.09834259 0.11435241 0.037974514 0.096232176 -0.105283394 0.027295532 0.07770571 0.01819992 0.020887092 -0.17022604 0.020754594 0.13032416 0.10605055 0.063412294 -0.063063815 0.08152665 -0.06837534 -0.050698526 -0.008258979 -0.019626383 -0.1063894 0.029569624 0.03412587 -0.04397483 -0.13472669 -0.019841002 0.082562834 -0.07474342 -0.0022164509 0.02095497 -0.055607826 -0.095947936 0.13849436 0.120837465 0.008184643 0.048690192 0.03341447 -0.01739439 0.110547826 0.06830524 0.061640885 -0.14956757 0.10464144 -0.041088805 0.08279327 -0.030808385 -0.015724279 0.0939145 -0.007136755 0.02402936 0.037005946 0.006724432 -0.11472213 -0.07736661 0.0053904504 0.11879408 0.13233238 -0.09501541 -0.003159428 0.10990942 -0.14076146 0.12614787 0.07699723 0.15051806 -0.12470561 -0.14799625 0.06939031 0.11804108 0.1261466 0.040634777 -0.11611793 -0.06054564 0.10563996 -0.10343711 0.14600684 0.13258494 -0.07135088 0.06780572 -0.08834729 0.041993935 0.010344062 -0.09269114 -0.09257107 0.073382005 0.10180012 -0.0069279484 -0.058579177 -0.03644786 0.014094603
52 -0.07859982 -0.09151189 0.042995363 0.035435334 -0.1281852 -0.069165796 -0.14574797 -0.13446818 0.018597377 0.13979538 -0.13569458 0.041380588 0.103373356 -0.048863582 0.028424906 0.09220073 0.072574966 0.054015942 -0.15231654 0.13440181 0.02662734 -0.084878325 0.11502404 0.11623761 -0.0072594164 0.08391288 0.16331413 -0.046745628 -0.03942699 0.024107058 -0.10522779 0.1103563 -0.13572861 0.10068404 0.04803084 0.04447422 0.09978657 0.008251461 0.12207295 0.10120706 0.11490133 0.03727887 0.10034889 -0.11117463 0.028009528 0.077762395 0.019644827 0.03197867 -0.17086864 0.019330231 0.13750194 0.10421953 0.07021058 -0.061896108 0.08024733 -0.06830468 -0.06198676 -0.011732649 -0.01564986 -0.11317467 0.032354254 0.028620113 -0.056312088 -0.13862693 -0.0245776 0.08057718 -0.08487022 0.0034568273 0.015034954 -0.06118927 -0.09347961 0.13430247 0.11417671 0.008650199 0.049430616 0.033697166 -0.010145314 0.11682732 0.070186526 0.07130928 -0.1521829 0.10246521 -0.0405456 0.08994607 -0.04283305 -0.009867556 0.09796307 -0.0036912658 0.02753206 0.039215352 0.016946197 -0.12145789 -0.08053453 -9.439886e-06 0.124467775 0.13725938 -0.09657988 -0.01269947 0.10758983 -0.14534985 0.12810056 0.07468956 0.16292608 -0.12417866 -0.14532363 0.07656166 0.12042782 0.1307715 0.051469952 -0.11372604 -0.058797 0.10536142 -0.11144913 0.14783849 0.13554175 -0.06848086 0.06627464 -0.09203911 0.055150982 0.013673379 -0.09955275 -0.089654885 0.06930871 0.10078537 -0.0068377284 -0.07091459 -0.047411315 0.019081341
53 -0.07677783 -0.09432094 0.032797344 0.030728515 -0.12097923 -0.06381995 -0.1407918 -0.12921228 0.015723052 0.13456425 -0.12874067 0.037021138 0.10031568 -0.045559417 0.027361372 0.08233374 0.07002534 0.049857177 -0.14830789 0.13426429 0.024065318 -0.08345669 0.104557306 0.11544569 -0.006562033 0.077045344 0.15579545 -0.04337431 -0.033309054 0.026568662 -0.10151633 0.10686838 -0.13427073 0.0934961 0.042809166 0.039326183 0.09914782 0.0082083745 0.116776474 0.097381614 0.1100603 0.030789196 0.094653174 -0.10788705 0.027771048 0.07416461 0.02114836 0.029339932 -0.16178286 0.022145223 0.12677963 0.10140876 0.06461796 -0.062336918 0.07830047 -0.06597674 -0.057984143 -0.0065100994 -0.014472754 -0.107118234 0.027909499 0.030757634 -0.05182931 -0.13171309 -0.02384845 0.074992396 -0.07753702 0.0014608502 0.011782905 -0.05549148 -0.09176225 0.12570402 0.11001423 0.012409217 0.040329516 0.034019444 -0.009995932 0.10937994 0.06959721 0.06503556 -0.14679818 0.094987616 -0.034512643 0.08478131 -0.036756154 -0.012145074 0.0952815 -0.0016295488 0.022155806 0.040164124 0.017110543 -0.11052078 -0.07052585 -0.007718336 0.115717635 0.13055387 -0.089776784 -0.012410831 0.10560611 -0.14434431 0.12678455 0.065931246 0.15520743 -0.11884359 -0.14071652 0.070575565 0.112103306 0.12169735 0.045112375 -0.11525996 -0.054123826 0.09937227 -0.10674374 0.14527453 0.12905802 -0.06100032 0.06256329 -0.08391496 0.052301448 0.008948448 -0.097231925 -0.08368109 0.06832587 0.10190941 -0.009879079 -0.06408108 -0.04027534 0.020364946
54 -0.063945994 -0.0875974 0.020029237 0.040894497 -0.11236871 -0.048914667 -0.13060766 -0.1251254 0.015199428 0.12905253 -0.113632776 0.037054732 0.0947419 -0.046068043 0.03305658 0.08250894 0.06170657 0.03360142 -0.14821292 0.13102035 0.028725602 -0.07022561 0.09324885 0.09808026 0.0036644503 0.07281747 0.15192035 -0.022356156 -0.02196998 0.027544517 -0.08597026 0.09040253 -0.11933091 0.08626895 0.026289064 0.052957438 0.090067886 0.017928513 0.10748368 0.08922649 0.10539512 0.028872555 0.08075947 -0.09253482 0.016198914 0.067725405 0.012889149 0.018979048 -0.15058783 0.015303297 0.11762362 0.10323075 0.060197752 -0.062189713 0.07177055 -0.06827003 -0.034358576 -0.006825662 -0.018672664 -0.089853324 0.013132457 0.03419975 -0.035556205 -0.12596226 -0.013421338 0.076030314 -0.06394668 -0.013520666 0.013611435 -0.034399323 -0.08524395 0.12932023 0.10747744 0.002264576 0.041398946 0.030204898 -0.016389899 0.09375434 0.06164929 0.048696876 -0.13517673 0.09628052 -0.03437577 0.07366547 -0.02865987 -0.020756245 0.088263616 -0.0017671083 0.020790938 0.041798633 0.00032921135 -0.100847 -0.06307889 0.0113364225 0.10487283 0.11101533 -0.08706581 0.011837332 0.09707284 -0.12497723 0.118117675 0.06911845 0.13971885 -0.1160608 -0.13153467 0.05303795 0.11230613 0.11751072 0.029084105 -0.09851594 -0.051950444 0.097834945 -0.09084383 0.13607225 0.12032225 -0.057451427 0.055578146 -0.07684638 0.031180415 0.005166739 -0.07557327 -0.07613927 0.05766025 0.09500298 -0.003292441 -0.03936549 -0.035449896 0.016055617
55 -0.07990673 -0.095204875 0.044500798 0.032481205 -0.12563492 -0.0682377 -0.1425041 -0.1324798 0.016809324 0.13805951 -0.13730752 0.04075908 0.10213447 -0.047890384 0.028110325 0.088926286 0.07518562 0.055324737 -0.1488155 0.13807149 0.021109322 -0.07989252 0.11236271 0.11252568 -0.0047475044 0.0873482 0.16011685 -0.051842958 -0.044127762 0.019907452 -0.10254309 0.11074448 -0.13658628 0.098144956 0.04565459 0.04779109 0.09380567 0.0074878046 0.119020216 0.10228919 0.11035896 0.03821018 0.100162104 -0.11171169 0.02366019 0.08227418 0.019682113 0.036436692 -0.16985543 0.020381449 0.13304423 0.10555396 0.072537825 -0.05947658 0.08181253 -0.06658937 -0.061760508 -0.0074168853 -0.01703872 -0.11166935 0.03547635 0.02868684 -0.055939235 -0.13358846 -0.020915262 0.07706178 -0.086272664 0.008516272 0.0157961 -0.06286341 -0.09507881 0.13242796 0.11544213 0.011915204 0.047315154 0.035035267 -0.006676508 0.11356345 0.06739346 0.0748831 -0.14703648 0.09924319 -0.04054141 0.08840157 -0.043503877 -0.007907 0.095525436 -0.002326427 0.027825572 0.034187656 0.019049777 -0.118246526 -0.08221245 -0.0035444777 0.12463993 0.13409954 -0.100824125 -0.017178707 0.10615096 -0.1431602 0.1264298 0.07694087 0.15940377 -0.12219672 -0.14464031 0.07803699 0.121644884 0.12802915 0.051514573 -0.11280021 -0.05259373 0.10484038 -0.10850723 0.14119825 0.13475698 -0.06978095 0.06690903 -0.089953944 0.06065361 0.018608836 -0.0994303 -0.08798949 0.070260555 0.09717478 -0.0035101452 -0.0712711 -0.04829893 0.021399252
56 -0.06896479 -0.09284626 0.029501053 0.042498544 -0.11885865 -0.059701983 -0.13813823 -0.12917784 0.017349347 0.1323121 -0.12478145 0.0430369 0.096624576 -0.050508566 0.032609332 0.0865752 0.06648255 0.036699165 -0.15046072 0.1349684 0.02755973 -0.07290701 0.10276255 0.10338804 0.0046822834 0.079695076 0.15026644 -0.03134167 -0.026895331 0.02650424 -0.09466536 0.09831345 -0.12726945 0.09194681 0.030063206 0.051624406 0.09468023 0.019046891 0.11453679 0.09375628 0.10905092 0.036766376 0.09093238 -0.09553255 0.021515511 0.07427015 0.014610788 0.020967064 -0.16198479 0.018436324 0.12558527 0.1025325 0.060644954 -0.060541462 0.07450794 -0.06685063 -0.04532408 -0.005661543 -0.022017522 -0.09913714 0.023570346 0.0330764 -0.040421784 -0.12704003 -0.020169336 0.07952386 -0.07340682 -0.004849607 0.016397694 -0.04276456 -0.08554333 0.13162044 0.113033764 0.0062645185 0.04678249 0.031934623 -0.017951183 0.10332189 0.06802145 0.05408849 -0.14259541 0.097713634 -0.03891225 0.078048736 -0.029961558 -0.01741048 0.0939542 -0.0052633304 0.0202648 0.040451027 0.0021767616 -0.10565105 -0.06930339 0.0075514633 0.11310698 0.119644746 -0.09192837 -0.00021419674 0.102669105 -0.13311704 0.12033146 0.072898306 0.14493848 -0.12143395 -0.13904007 0.06492716 0.10856987 0.11823902 0.039880637 -0.10740451 -0.051688496 0.09525791 -0.09584824 0.13670462 0.123753496 -0.06744983 0.06483483 -0.086030915 0.039486635 0.008747163 -0.083828844 -0.08194791 0.067094214 0.094695546 -0.008242236 -0.051455215 -0.03582835 0.01112141
57 -0.058381595 -0.08490111 0.025819352 0.042485584 -0.109733105 -0.056068696 -0.12547874 -0.11795329 0.0101002315 0.12180881 -0.10351069 0.038972236 0.09010452 -0.043685272 0.033419203 0.07671553 0.05921068 0.026326034 -0.13508767 0.121972 0.02526501 -0.066500336 0.09272207 0.08936425 0.005643523 0.06627653 0.13869722 -0.02328155 -0.022972109 0.03078666 -0.08303891 0.08961831 -0.115397334 0.08609231 0.025674054 0.04755986 0.08781814 0.016255444 0.10444709 0.08200556 0.09746808 0.02896019 0.081926875 -0.08616786 0.0140483035 0.06359266 0.012316852 0.0137502905 -0.14667429 0.011557222 0.10936909 0.09187273 0.05271602 -0.05829491 0.06642845 -0.061190158 -0.03917924 -0.0042226724 -0.023484387 -0.08758037 0.015606085 0.032137528 -0.03684254 -0.12026048 -0.018970205 0.07185352 -0.06502074 -0.00891636 0.010545677 -0.031468436 -0.07915183 0.121212214 0.10060147 0.0068187783 0.03963879 0.031673186 -0.017247587 0.0911109 0.06037944 0.046849556 -0.13422772 0.09015279 -0.03166735 0.07012566 -0.023951238 -0.016548032 0.08089635 -0.003634776 0.018160546 0.04015872 -0.00047287904 -0.0940716 -0.062120475 0.009734785 0.098484136 0.11058932 -0.08272857 0.006738782 0.09634101 -0.11959483 0.10982477 0.062445763 0.13069658 -0.10889867 -0.12529363 0.052359097 0.09483859 0.11065997 0.02804535 -0.09898003 -0.051919196 0.08744796 -0.08163137 0.12987074 0.11198129 -0.053832136 0.057319805 -0.077332884 0.031391036 0.003362177 -0.07250356 -0.07233469 0.05788654 0.0873347 -0.009156981 -0.039597195 -0.028168961 0.011917678
58 -0.059812024 -0.088509955 0.028212758 0.054478846 -0.11245097 -0.059802443 -0.1365915 -0.13862196 0.030334793 0.13793436 -0.12105467 0.05763344 0.094933 -0.05119249 0.03980264 0.08528003 0.06512598 0.026691064 -0.14827788 0.13019028 0.026197195 -0.07519395 0.08865911 0.09549318 0.014349716 0.07398623 0.15942769 -0.024269532 -0.019945782 0.035078637 -0.09281326 0.09540403 -0.118012995 0.095019296 0.019646367 0.052661058 0.095485575 0.02897022 0.11071318 0.08325642 0.11622266 0.03512817 0.08921534 -0.07742348 0.030735062 0.07568422 0.004464483 0.005086895 -0.1701307 0.024241665 0.1313049 0.0893495 0.04414933 -0.07432593 0.08368379 -0.065569736 -0.039987333 -0.009031458 -0.031227913 -0.09784639 0.019438788 0.037591297 -0.027660588 -0.12805568 -0.028835427 0.08882927 -0.05376071 -0.012465985 0.018974753 -0.03215813 -0.083766975 0.14091824 0.114871286 -0.0015962599 0.04835422 0.029464263 -0.031034509 0.10355553 0.07196857 0.04252905 -0.14585467 0.09922407 -0.03459453 0.068979315 -0.016432956 -0.022983324 0.10052029 -0.012832383 0.018267456 0.054182425 -0.015184512 -0.105324864 -0.057820655 0.01807664 0.11454844 0.122895725 -0.092511274 0.01312867 0.10175656 -0.14102311 0.116351776 0.0739396 0.13243198 -0.117493555 -0.14016175 0.06173453 0.09691252 0.11590527 0.0264907 -0.1004447 -0.054129936 0.09386013 -0.09548998 0.13132893 0.123951726 -0.074204385 0.065565914 -0.09527816 0.023920741 -0.004347477 -0.08000677 -0.101379976 0.065430626 0.1009523 -0.008818127 -0.04065884 -0.025282213 -0.006067034
59 -0.079939656 -0.094365135 0.044955395 0.0365656 -0.12731852 -0.06885213 -0.14509907 -0.13679957 0.019311119 0.13949531 -0.13662967 0.042053953 0.102857515 -0.051000975 0.031532813 0.0926767 0.07232503 0.054358587 -0.15038368 0.13942434 0.023306977 -0.08021605 0.11421946 0.1133641 -0.0027353778 0.08725394 0.16149041 -0.049526628 -0.042655528 0.02533644 -0.1029935 0.11243602 -0.13681553 0.10168727 0.044451375 0.04811735 0.09725293 0.008813782 0.12102142 0.1014527 0.11189966 0.038985904 0.10082143 -0.11153694 0.025240608 0.08036195 0.019054955 0.0322885 -0.17282921 0.01948457 0.13727032 0.10632692 0.071890764 -0.059359062 0.08408603 -0.06803251 -0.060444687 -0.009334998 -0.017615568 -0.11344116 0.03448441 0.029038457 -0.0547182 -0.13589796 -0.02424134 0.08037993 -0.08621855 0.0043952707 0.018984405 -0.060059533 -0.09612408 0.13636006 0.11697751 0.00923815 0.04887898 0.034488074 -0.010277176 0.115791224 0.071078606 0.07221075 -0.15010017 0.10145077 -0.04174735 0.088042244 -0.042599693 -0.008267252 0.09839179 -0.00363609 0.027233679 0.03788348 0.015705008 -0.121237904 -0.08314931 0.000116953626 0.12525195 0.13768032 -0.10185549 -0.012729826 0.10884175 -0.14311154 0.12769303 0.07883829 0.16024956 -0.12491297 -0.14629665 0.07870679 0.12174922 0.13095245 0.051325656 -0.11353513 -0.05650255 0.10628165 -0.10949666 0.14369649 0.13318162 -0.0715764 0.068732336 -0.09292022 0.058318663 0.017652262 -0.10093172 -0.08947165 0.07207756 0.09862414 -0.0054610614 -0.071606725 -0.04705944 0.019304011
60 -0.036579493 -0.07250466 0.02626195 0.018861651 -0.100898705 -0.034073576 -0.10224591 -0.08929467 -0.00091009773 0.10135017 -0.06739307 0.034597095 0.07257269 -0.039617 0.02744962 0.061570007 0.05736761 0.0068061724 -0.10147804 0.07522177 0.015330488 -0.025491789 0.060455047 0.054256357 0.017165609 0.067804046 0.1294206 -0.0231281 -0.0052604526 0.014316507 -0.047268555 0.054022525 -0.08630365 0.06921318 0.04101561 0.050049193 0.057590377 0.015483137 0.09711751 0.055328548 0.0767872 0.035310663 0.07407507 -0.06945215 0.004115086 0.04516345 0.008073246 0.017668797 -0.13012668 0.0044927187 0.07951598 0.08739108 0.028862316 -0.035905115 0.03336256 -0.046069242 -0.031646907 -0.0016187266 -0.018948974 -0.083780706 0.013488932 0.032631066 -0.022057023 -0.09026897 -0.01938239 0.06828618 -0.050465237 -0.009548069 0.005934379 -0.033089392 -0.056009565 0.09269162 0.07855119 0.018966483 0.031764857 0.022608615 -0.030743372 0.06516796 0.017713074 0.03092141 -0.093436554 0.06507519 -0.030354269 0.060941607 -0.013616115 -0.016841132 0.07279988 -0.0069993874 0.028887173 0.039812487 -0.012449598 -0.078402445 -0.057415187 0.012789882 0.08582224 0.076779805 -0.06367569 0.0069932174 0.077227406 -0.09628151 0.089192376 0.045558464 0.117743224 -0.10357707 -0.11777076 0.051463302 0.047305956 0.10076882 0.005371392 -0.07028876 -0.03991331 0.050375894 -0.058854792 0.09085409 0.100073606 -0.04616067 0.05422759 -0.08471397 0.0103568025 -0.006882414 -0.039989114 -0.058091912 0.032495163 0.062149417 -0.005120124 -0.011326104 -0.020686472 0.0118411835
61 -0.067659326 -0.092984155 0.02826116 0.043292843 -0.12003369 -0.05597973 -0.13599439 -0.13008955 0.02328801 0.12793964 -0.115354225 0.042675283 0.10155491 -0.049332563 0.034709625 0.08984675 0.06302104 0.03870073 -0.15347864 0.13243517 0.03360521 -0.07525252 0.10049108 0.10463479 0.010895874 0.080890074 0.16069154 -0.021580357 -0.015447874 0.030092698 -0.094534144 0.091076925 -0.1290788 0.094602495 0.024725046 0.049074154 0.10045335 0.025294315 0.122895345 0.086915165 0.11161577 0.039285354 0.09329798 -0.096082866 0.029607374 0.0711004 0.011243342 0.009537008 -0.17106932 0.022196779 0.1257208 0.110073894 0.05630979 -0.063850954 0.06790316 -0.069938935 -0.046912394 -0.0033922517 -0.023049941 -0.103582256 0.02182621 0.039876122 -0.034892745 -0.12986591 -0.026713666 0.0849005 -0.06593351 -0.013945715 0.017856868 -0.0430137 -0.08358088 0.13100535 0.11588389 0.009381216 0.045832917 0.03152106 -0.033545796 0.10439217 0.061830916 0.04492064 -0.14112906 0.10379139 -0.042028505 0.07572997 -0.019359143 -0.02525002 0.09901258 -0.009721734 0.02160184 0.04533621 -0.008869838 -0.11144368 -0.063607454 0.011671585 0.109402314 0.12177759 -0.08546129 0.0061489604 0.11262346 -0.14448676 0.12387015 0.06685157 0.14590043 -0.12254339 -0.15278313 0.06356216 0.098443314 0.12872657 0.02763204 -0.113483205 -0.06050052 0.09324092 -0.09910733 0.14186221 0.12509204 -0.06558034 0.06712806 -0.08953521 0.02617314 -0.0058954526 -0.082725406 -0.08743991 0.069328174 0.10231563 -0.011439172 -0.042876333 -0.023694342 0.00771024
62 -0.07921429 -0.10481625 0.037498936 0.036675196 -0.12415884 -0.06328097 -0.15211818 -0.14142407 0.0134464 0.14723986 -0.13199282 0.039293483 0.113603525 -0.04673387 0.03461491 0.08745241 0.07455296 0.048406996 -0.16313928 0.15032507 0.026960846 -0.08604361 0.1090296 0.11634451 -0.004829253 0.08425665 0.17137593 -0.041492768 -0.045047283 0.031203989 -0.1029379 0.11631647 -0.1473336 0.09956903 0.03901405 0.054281272 0.101698585 0.009100032 0.12621471 0.100920975 0.11985791 0.029185496 0.10145234 -0.11812456 0.022485195 0.08006916 0.021746475 0.0258656 -0.17095283 0.023681037 0.13017541 0.10758651 0.071745224 -0.07005984 0.085544914 -0.075159065 -0.056875072 -0.0017676638 -0.008735759 -0.10195902 0.028098658 0.040021244 -0.050067075 -0.14349003 -0.016821424 0.08733136 -0.084072605 -0.006253821 0.0185419 -0.0579628 -0.10536119 0.14455308 0.121989086 0.021715045 0.042912252 0.031031419 -0.0067266803 0.12163509 0.07275535 0.065987736 -0.15070076 0.1068161 -0.03022099 0.09023874 -0.03990108 -0.018774386 0.09775272 0.002297223 0.030415317 0.041455753 0.013573678 -0.11924476 -0.07939417 -0.0023191858 0.12627828 0.14539865 -0.10549702 -0.0014290754 0.111351706 -0.15351199 0.13717934 0.08114956 0.16116932 -0.12558126 -0.15651383 0.070568815 0.12771317 0.12776694 0.035373896 -0.12144148 -0.055686753 0.117059715 -0.107864246 0.15905073 0.15193492 -0.07038747 0.06749507 -0.08718115 0.05424759 0.0064897183 -0.10067834 -0.09445497 0.08091673 0.11269538 0.0011293646 -0.06647603 -0.042492878 0.024176296
63 -0.06453541 -0.09347977 0.024192316 0.04798238 -0.118886515 -0.04968839 -0.13887894 -0.13604823 0.019757954 0.12951532 -0.115402974 0.04623343 0.098664664 -0.053884268 0.03796774 0.097708784 0.06157462 0.031554736 -0.14941277 0.13614547 0.037206255 -0.07496125 0.09892465 0.10285909 0.010425501 0.07906899 0.1563255 -0.016071204 -0.018516313 0.03487248 -0.08825335 0.09315824 -0.12440646 0.09915006 0.026801208 0.057520233 0.09387389 0.0244482 0.12525307 0.085774675 0.11217331 0.038102757 0.09114359 -0.09411653 0.022777252 0.07000822 0.0127611775 0.007893326 -0.16487579 0.019357674 0.12413115 0.10462257 0.054703142 -0.06759355 0.06748998 -0.07035298 -0.041952938 -0.011334699 -0.022352131 -0.09674844 0.01584517 0.042827614 -0.0318745 -0.13137907 -0.02195373 0.09287392 -0.06542243 -0.020486739 0.019636672 -0.03847806 -0.08160237 0.13635476 0.113613605 0.0062302467 0.044426505 0.025812693 -0.025830055 0.10321341 0.0649523 0.045426507 -0.14206976 0.10385448 -0.037440844 0.07114905 -0.026082814 -0.030526264 0.09717602 -0.00063294056 0.023310915 0.0498632 -0.013658086 -0.10991083 -0.063356355 0.022362716 0.10967107 0.119976796 -0.087504774 0.017884443 0.10752435 -0.13143073 0.11936176 0.076630674 0.14622754 -0.118390754 -0.14363955 0.05473385 0.09979664 0.1185888 0.027126502 -0.107561685 -0.059471566 0.09338329 -0.092373475 0.14149716 0.12667252 -0.06727482 0.06593889 -0.09117617 0.01966462 -0.006634092 -0.078891 -0.086952664 0.068397716 0.101488754 -0.007537099 -0.0378639 -0.027719615 0.009838585
64 -0.079638556 -0.09954515 0.034843713 0.050821245 -0.12722203 -0.06540296 -0.14437003 -0.13704598 0.02019399 0.13682282 -0.12834315 0.049972862 0.10569899 -0.0564236 0.03987804 0.0968779 0.06850545 0.047338404 -0.1545125 0.14414814 0.028403204 -0.08297498 0.10705484 0.107480854 0.006872658 0.089386895 0.16352971 -0.036317714 -0.037497602 0.033509847 -0.09249453 0.108710736 -0.13697557 0.10971394 0.034866005 0.05592363 0.09926379 0.015894618 0.124872595 0.10341298 0.11496162 0.042874217 0.09737538 -0.1071454 0.024950888 0.07814147 0.01781628 0.016968353 -0.17108682 0.015792135 0.13462764 0.10558329 0.065371 -0.06851044 0.082053654 -0.069581494 -0.04951445 -0.012463961 -0.022593435 -0.10826081 0.02742318 0.038190283 -0.045811564 -0.13686752 -0.025281083 0.08950847 -0.07893322 -0.008539044 0.02221623 -0.051041108 -0.09554069 0.14206672 0.12297514 0.0073096673 0.045633905 0.0321953 -0.01422371 0.11369627 0.068534695 0.07004526 -0.1478837 0.10966765 -0.039749485 0.0792099 -0.033034198 -0.016910166 0.095300876 -0.0043486077 0.02959495 0.042350598 -0.0029779188 -0.11839562 -0.08003037 0.013932665 0.12367178 0.13600022 -0.097344145 0.0029573329 0.115834236 -0.14525439 0.1231816 0.08225051 0.15451257 -0.119559325 -0.14499182 0.066775955 0.11417849 0.12921126 0.039366264 -0.11225324 -0.063595936 0.10405392 -0.1045076 0.15224414 0.12867634 -0.0709308 0.07116729 -0.093719855 0.038628243 0.0072286315 -0.09412013 -0.09373817 0.072492786 0.10303288 -0.008377243 -0.060631387 -0.037824918 0.01352797
65 -0.07867347 -0.095217824 0.044001136 0.03537064 -0.12680532 -0.0677771 -0.1429423 -0.13702495 0.017105384 0.14104618 -0.13733907 0.041653324 0.102242306 -0.049349576 0.030072836 0.09225977 0.07517784 0.05417519 -0.15155578 0.13981906 0.023277316 -0.079029284 0.11283127 0.11106672 -0.0027338592 0.08830042 0.1614435 -0.04936734 -0.044390153 0.022570245 -0.102641776 0.11104142 -0.13836329 0.09957362 0.044820126 0.04984548 0.097933054 0.010146829 0.119713336 0.101794876 0.11064081 0.038207456 0.1022042 -0.1115234 0.023220096 0.08341097 0.019297382 0.033446252 -0.17177334 0.020977477 0.13378718 0.10849839 0.07183837 -0.06103807 0.082751684 -0.068675175 -0.06062797 -0.0067075877 -0.019791871 -0.11199148 0.033617523 0.030462852 -0.056176774 -0.13622381 -0.021338563 0.079182684 -0.08498079 0.006931657 0.017431008 -0.06223986 -0.09574947 0.13491021 0.115881175 0.010369749 0.04933639 0.03553439 -0.009424824 0.11404238 0.069082506 0.07405254 -0.14978237 0.10081127 -0.04109974 0.09005876 -0.04187154 -0.00830106 0.096506074 -0.0035575973 0.027070187 0.03427082 0.015550928 -0.11735488 -0.083987355 0.0008911374 0.124928795 0.13533159 -0.10265108 -0.013970371 0.10847145 -0.14367385 0.12806559 0.07979168 0.15813431 -0.12408841 -0.14536433 0.07649608 0.12284772 0.12848684 0.049930733 -0.113798805 -0.055211052 0.108060725 -0.10709116 0.14215444 0.1359416 -0.07209563 0.06844737 -0.090676054 0.057201926 0.016174262 -0.098333836 -0.08948526 0.07156291 0.09869542 -0.0018888648 -0.06846108 -0.048366755 0.018613745
